918 128
the -0.024045506 -0.028733486 -0.025456049 -0.023963893 0.010998204 -0.018773092 0.05367873 0.041838396 -0.04642783 -0.026984887 0.04292834 -0.058480952 0.011521594 -0.016260535 0.03370739 0.050540194 0.012401317 0.030046258 -0.04063979 0.031935573 -0.019381747 0.0060850447 0.026760316 0.03716483 0.017953554 0.038206276 0.027205195 0.029698877 -0.015966978 0.052552175 -0.051327664 -0.0028400356 0.042322144 0.05642558 0.019517481 -0.05640985 0.046797536 0.04444022 -0.031563647 -0.007768126 0.022232855 0.055906877 0.013840001 -0.031813364 -0.053655725 -0.01985331 0.011563834 0.0083023235 0.030125292 0.05531134 -0.047241088 -0.04080565 -0.042269934 0.006007258 -0.031452756 0.028807767 0.019439418 0.016828708 0.036179688 0.047775384 -0.024156177 -0.0532381 0.017820071 0.033303875 0.04853115 0.012003332 -0.03372635 -0.021926088 0.0014535582 0.007393862 0.009335943 -0.04167787 -0.003420919 -0.04639668 0.01816284 -0.024492962 -0.034397263 -0.011288924 -0.03534753 -0.012229314 0.0065172995 0.02570985 -0.041981746 -0.0087044975 0.040243343 0.04308518 -0.034627654 0.017924843 0.005304458 -0.034385797 -0.031540327 -0.055780493 -0.012628995 0.049562395 0.051547047 0.031982105 -0.0045261756 0.024198057 -0.04100787 0.02459185 0.008536893 0.04119828 -0.033440888 0.037132762 -0.031641528 -0.0067238486 -0.009463964 -0.015389372 0.02283582 -0.002922128 0.011621456 0.056527495 0.02144022 -0.057925597 -0.030049982 -0.020110518 0.038994685 -0.026751595 0.026436852 -0.015482154 0.019308046 -0.05780479 -0.042915113 0.03486406 0.03543445 -0.009510456 0.03542744 0.016075788
of -0.010649593 -0.026499152 0.033722233 0.037674516 -0.030081367 0.011530094 -0.011053329 -0.046816375 0.012167242 0.03375921 0.04839566 0.018390715 -0.037552394 -0.053403188 -0.05779972 -0.039471913 -0.02484412 -0.026099166 -0.017505879 -0.014623077 0.012565355 -0.058850084 -0.033222202 0.037344523 0.018758735 -0.04541605 -0.017145935 0.0049077733 -0.00688826 0.025068311 -0.03321808 -0.028876707 -0.026333394 -0.016342185 0.032618396 0.0313287 0.021972494 0.03369565 0.011195633 0.042909343 0.03913071 0.052426152 -0.014417343 -0.03369144 -0.021353962 0.04636399 -0.040374033 -0.015070501 0.031767238 -0.0074255364 0.0418535 -0.048823748 0.0045758164 0.027180243 0.020916142 0.0061652586 -0.034385864 0.053461697 0.019767523 0.017678844 0.045330293 -0.046878885 0.012801783 0.04871786 -0.00764598 0.04160658 -0.03753525 0.0011381828 -0.055581648 -0.031007817 -0.021686269 -0.041898645 -0.01368953 -0.024442839 -0.02480657 -0.051086683 0.05575978 0.023074979 -0.0461781 0.031157983 -0.051555328 0.014034467 -0.054872576 0.02986295 -0.0060905693 -0.0067405766 0.04342844 -0.025377832 0.018627116 -0.0020655468 0.035792347 0.017208546 0.035736475 -0.032812126 0.055026487 -0.020174203 0.023588898 -0.0020100134 -0.032343406 0.05135878 0.026769228 -0.009985046 0.029346438 0.023649516 0.009095464 0.013744224 0.013344895 0.033022784 -0.05686993 -0.004734049 -0.053022865 -0.012802837 0.02311512 0.035811543 0.03665702 0.048519548 0.041420493 0.015990077 0.004551407 0.026859883 0.011892035 0.0077157035 0.02510068 -0.008093958 -0.004201603 -0.04793836 -0.034043737 0.038015943
and 0.034863364 0.042522147 -0.04291114 -0.019545145 -0.012174056 0.038221482 0.042302378 -0.023416832 -0.023989653 0.015123795 0.04583842 -0.041115448 0.04307119 0.04137074 -0.041748144 0.0054511013 0.044312123 -0.018118626 0.024799762 0.008712633 -0.032849606 0.032776695 0.050828252 0.042583436 -0.022884885 0.03047112 0.016598577 0.023281097 0.053536616 0.017583378 0.04110449 -0.03962025 -0.003570688 0.047047436 -0.019930715 0.031632148 -0.024694595 -0.040414598 0.01148881 0.03412448 0.041902855 0.010093066 -0.054792434 0.037956815 -0.02125039 0.0057961345 -0.058372848 0.03480575 -0.014699846 -0.003766658 -0.015842132 -0.029056981 0.018032465 0.009001408 -0.009540916 -0.02425509 -0.02254209 0.041205812 0.03145721 -0.0029556232 -0.026604392 -0.009219817 0.02552741 -0.020448513 0.05313418 0.015174322 0.05403226 -0.020066496 0.016669083 0.023462145 0.045368444 -0.012041576 -0.027733225 0.015187608 0.023449577 0.01596829 0.05178576 -0.028569255 -0.0134403985 0.010038903 -0.055638995 -0.026341842 0.028079415 0.012809137 -0.047712278 -0.0125479335 0.022435075 0.037412733 0.0031729287 0.036066283 -0.03593601 -0.031935297 -0.022750717 0.023219438 0.028874936 0.03894826 -0.039131545 0.014896964 -0.047095995 0.0006631818 -0.02296106 0.048532985 0.004828459 0.035891067 -0.029538646 0.004651991 0.055643477 -0.035433576 0.00097465364 -0.04429114 -0.04131845 0.012911555 -0.050297927 -0.03669843 0.042080328 -0.0046623815 0.024889624 -0.052061275 -0.008062796 -0.00879446 0.022472879 -0.026322527 -0.021123208 0.056831393 -0.039298173 -0.03675013 0.012729094 -0.03740134
to -0.027589677 0.012054255 -0.040913634 -0.0374708 0.001204154 -0.023338467 0.033455607 0.021524606 -0.036587 0.039811842 -0.037989654 0.031914774 0.029551221 0.04038886 -0.0050983205 -0.00902291 0.021239849 -0.0042921314 -0.0028226217 -0.03449047 0.03709135 0.03517496 -0.03303268 0.015555458 -0.03565309 -0.02632347 0.027952917 0.05046741 0.035047174 0.0020949207 0.03562931 -0.018429738 0.03110039 0.037382785 0.024602143 -0.031731043 0.0086064 0.034108784 0.014784322 0.016170584 0.047069404 0.006171474 0.028243462 0.014302558 0.0065195793 -0.032159936 0.036584385 -0.0014843824 -0.021615682 0.023430973 -0.016197339 0.0023731354 0.019370891 0.028361438 -0.039466824 0.013986202 0.008622278 0.018695943 0.010010786 0.03969711 -0.0028773854 -0.04715024 -0.019746903 -0.02329833 0.051615052 -0.010398441 -0.042514756 0.011963479 -0.052610744 -0.018069338 -0.003672597 -0.052248143 -0.0014908694 0.025232024 0.011583712 -0.048721965 0.029517496 -0.03698092 -0.04106674 -0.030614963 -0.03828466 0.03049734 0.007844918 -0.008219609 -0.03470499 0.010612721 0.025320321 0.007770687 -0.04024362 -0.003068995 0.01133193 -0.043814223 -0.036182098 -0.008646084 0.01821028 0.00449078 0.013797373 0.03236391 -0.04891451 0.02215681 -0.002961508 -0.03406377 -0.006488215 0.030620785 0.029723551 -0.022394875 0.054893132 0.04870135 -0.054114565 -0.001765221 0.036187276 -0.042258848 -0.009252033 -0.047244884 0.048331887 0.022136927 0.045657128 0.008050689 -0.02049105 0.040111568 0.029081192 0.002461519 -0.049892128 0.03763253 0.027036842 -0.031528343 -0.03619929 -0.024626942
in -0.044563927 0.036758766 -0.03146621 -0.013957824 -0.050543204 0.0028436428 0.005796369 0.024752108 -0.047414564 -0.020508023 0.044026002 -0.012233138 -0.01879699 -0.018195506 0.0017924777 0.04809224 0.03238501 -0.026143484 -0.047682583 -0.014868573 0.0013872748 -0.009641472 -0.023078708 -0.038947448 0.010674934 -0.00050800346 0.04535479 -0.046563037 -0.03394282 -0.0378116 -0.02713102 -0.030540572 0.0126024475 -0.026314551 0.038543757 0.004558352 0.045010816 -0.023056487 -0.03351394 0.01947345 0.030290693 -0.025644146 -0.020302288 -0.04234729 -0.011235736 0.03793484 -0.0026642552 0.030484725 0.039082386 0.017572558 0.036775775 -0.039272416 -0.036954943 -0.012046883 0.0191906 0.015598576 -0.041199256 0.00429731 -0.0043281135 -0.00016559707 -0.029918239 -0.031191265 0.022755869 0.00027492765 0.01649025 -0.035855494 -0.017761318 -0.017794095 -0.01150438 0.011444607 0.031752322 -0.0035020956 0.00914623 -0.0061684847 -0.004444628 0.039398238 0.031305645 -0.02753606 0.028257523 0.013600672 0.012789343 0.023295933 -0.03812742 0.040214956 -0.03851388 0.034885395 0.0068383883 0.031893473 0.013978884 0.038434174 0.026580615 -0.04838213 0.051303674 0.026292812 0.0053779846 -0.048158698 -0.0066722566 -0.008587575 -0.039080128 -0.036982104 -0.011981 0.056664206 -0.047528595 0.03671925 -0.029809628 0.029921932 -0.01877458 0.042828046 -0.0032512487 -0.048197422 -0.0427466 -0.018525014 -0.007205981 -0.016707258 0.01829988 0.023595607 -0.037868243 -0.041528042 0.018555578 0.033733092 0.0028497097 0.020805454 -0.055588212 0.0060922788 0.034182116 -0.029683711 0.013108208 -0.022043515
microsoft -0.036002997 -0.03776441 -0.0005254956 -0.045177296 -0.0002451616 4.735141e-05 0.039361797 0.049460575 0.047478486 0.027753755 -0.011600554 -0.031200271 -0.047178052 0.035222445 -0.03752686 0.01336767 0.023683988 0.0048776 0.012012866 0.016241318 -0.018258255 -0.021832028 0.029187487 -0.014850261 0.009530156 -0.011138001 -0.018983908 -0.03358716 -0.04017013 -0.0029692412 -0.03330633 -0.022155482 -0.008140734 -0.029504886 0.023769842 -0.033396415 -0.03302993 -0.0022012696 0.002646952 -0.0021360477 -0.024529213 0.039265793 0.034780387 0.026208816 0.025453966 -0.022225508 -0.05009646 0.043137502 0.017589457 0.010000712 -0.05463351 -0.009125041 -0.0042559505 0.024691038 -0.05221527 0.010722377 0.026806768 0.0060650646 0.044827204 -0.041224353 -0.03480381 0.025130343 -0.02854652 -0.051143732 -0.024473185 0.008299106 0.03165177 0.0244415 0.03632086 0.0034882831 0.005413894 0.004005622 0.007946751 -0.023763347 -0.0058828206 -0.0408592 0.028843913 0.014700098 -0.0011159144 -0.032187115 0.035180382 0.0010998144 -0.035163574 -0.039070066 -0.020647518 -0.026464347 -0.030159647 0.028605709 -0.038915478 -0.00607045 0.043908235 0.025801076 -0.046821695 -0.005553647 0.044504967 -0.0057217143 -0.008086783 0.05158429 -0.047184005 0.015496292 -0.009818413 -0.018445654 0.04006408 -0.02868392 0.014683311 0.015001895 -0.0064438344 0.03630409 0.0003233372 0.0026790698 0.021942224 0.008716404 -0.026511246 0.0028230674 -0.03912081 0.041904893 0.010651783 -0.056206632 -0.03704066 0.014886114 -0.011309468 0.0143464 -0.008663958 0.027793182 -0.038823985 -0.00400179 0.018729486 -0.0031793795
1994 -0.017494146 0.038925774 -0.020271756 -0.049420163 0.0017354505 0.009944957 0.016587913 0.041156117 0.017805723 -0.033657238 0.017157331 -0.023721645 0.021057498 -0.04482644 -0.023285503 -0.019060925 0.0431918 0.025280694 0.009568502 0.035375834 0.050638545 0.00828732 -0.0004354653 -0.0005770837 0.036094233 -0.00035771274 0.042942967 -0.025368547 0.020928659 -0.014540055 -0.015141882 -0.05676973 -0.036164656 -0.03553442 -0.020071147 -0.05017799 0.048479576 0.0055348757 0.037654877 0.023102108 0.030361913 0.048106395 -0.03506306 0.037694715 0.030617673 -0.021319514 0.0061827465 -0.0030449037 -0.012040544 0.027793057 -0.0356298 -0.040660698 0.032268837 -0.045569062 -0.019832535 0.02534933 0.020464655 -0.029563619 0.0033866172 0.050047584 0.04028653 -0.023942322 0.03004834 0.055102587 0.048518863 0.037584297 0.049153164 -0.02048957 -0.045815106 -0.05141513 0.010834078 0.022381933 -0.049713735 -0.034975912 -0.031489577 -0.006581531 -0.036964983 -0.02338548 0.024512047 0.00491002 -0.029791871 0.04160266 0.041601427 0.0012132821 -0.017224735 0.04719555 -0.019627552 -0.03127854 -0.04447408 0.013619381 -0.048504066 0.0318752 -0.028857721 -0.02795949 -0.032545622 0.025476854 0.055080596 0.026459618 0.040771022 0.0025788376 -0.023561098 -0.009606124 0.009503067 0.036235135 -0.04373083 -0.032187447 0.027728451 -0.010129127 -0.03481321 -0.004199326 0.005316329 0.01600816 -0.014604921 -0.008749793 -0.034981154 0.017106168 0.024930853 -0.02719197 -0.018718405 0.047725413 0.018457968 -0.0026907213 0.0106792115 -0.004341908 0.00070666504 -0.024901286 0.028894136 -0.005246024
for -0.018660966 0.024414549 -0.021158936 0.01292249 -0.055197816 -0.024382977 -0.033575516 -0.040321957 -0.026704218 0.020879406 0.04896856 0.0021108266 -0.03842948 -0.039596878 0.03979364 0.03409789 0.036746573 0.031862643 -0.005809827 -0.035797708 0.0074873916 -0.034474965 0.042249627 -0.026137158 0.0018191643 -0.025693681 0.039414193 -0.025016919 0.014640691 -0.014465062 0.023155866 0.034235906 -0.03773493 -0.024151571 -0.052527145 -0.022236407 -0.026048362 -0.015060331 0.017309213 -0.031439103 -0.020565042 -0.044292107 -0.054736346 -0.05582276 0.0072123064 0.024247002 -0.006962339 0.008466843 -0.019605016 -0.012406397 0.014375619 -0.008653163 0.00016436694 0.045475405 -0.040422313 -0.043250334 -0.026288424 -0.028344456 0.001253872 0.031891502 0.02468946 -0.049970027 -0.038787533 0.023264365 0.020337101 0.02433646 -0.0061613396 0.011591005 0.03637483 0.044800535 0.056455158 -0.053637132 -0.010963405 -0.04675994 -0.038100425 -0.0025463556 0.05398413 -0.038455974 -0.04812664 0.010643028 -0.023349166 -0.028355872 -0.0027000855 0.026520308 0.00733364 0.0041695414 0.007510781 0.039965436 -0.04443981 0.013560602 -0.0014245553 -0.028781818 0.025329644 0.014294353 0.05144139 0.034794793 -0.00070204237 0.054654237 0.014113658 -0.0021525477 0.015099291 0.008321708 0.013082812 -0.009597442 -0.018937994 0.0034982897 0.016882408 -0.023194745 -0.034507573 -0.05381122 0.031037502 0.017758299 -0.02568479 0.012596691 0.023912799 0.006492248 0.04902215 0.032160114 -0.007764255 -0.028862668 -0.0036511393 0.009169319 -0.028691739 0.039279543 -0.039229453 -0.0319362 0.014223161 -0.049655087
quarter -0.010578048 0.044505604 0.020108992 0.00957788 0.028638676 -0.032441407 0.04423057 -0.046527006 -0.00042427122 -0.039085582 -0.03253389 -0.038495425 0.005083633 -0.021937452 0.010077879 0.008744399 0.0129920645 -0.03006124 -0.034476418 0.028837772 0.006324416 0.017156718 0.028172413 0.022850227 -0.023565995 -0.014692623 0.0035593265 -0.04820249 -0.05086928 0.0053614257 -0.030417595 -0.025513925 0.018177941 0.046028733 0.04928189 0.021890871 -0.0027204743 -0.03465603 0.036352344 0.019242981 0.03585101 0.025513208 -0.025725877 0.033703767 -0.017352792 0.01940347 0.006849002 0.0018483212 -0.019010682 -0.027575573 0.023379864 0.040152453 0.024197266 -0.0013471568 0.013337609 0.041337475 -0.02243102 -0.017162051 -0.033627555 -0.016878147 0.019194981 -0.019798024 -0.028837293 0.04152989 0.010775176 -0.04559148 0.03828665 0.023981337 -0.013214968 -0.006847553 0.0053171674 -0.03809753 -0.041957498 0.012274904 0.038212374 0.00687984 0.013705636 0.035537574 -0.046311185 -0.00047078694 0.002304292 0.04896866 0.0042071003 0.042313177 -0.03732093 -0.032490365 -0.0028980945 -0.022166876 -0.0028112608 0.004494449 0.018453235 0.04334653 0.04551127 0.015489317 -0.033619758 0.0030970278 0.031754896 0.056989167 0.041110747 -0.046234544 -0.044117495 0.021569697 0.035802044 -0.028868124 -0.057221834 0.024579966 0.031368542 -0.034765057 -0.015387373 0.037570883 0.022086965 -0.04242874 -0.024501134 -0.027099812 0.014452526 -0.01668806 -0.038865667 -0.025881473 -0.006255633 0.015057715 -0.026073523 -0.018795518 0.017310247 -0.029277962 -0.037770867 -0.01631907 -0.030361148 0.00488846
a -0.04112259 -0.008087014 0.009933705 -0.019598214 -0.029987622 0.015103631 0.049821354 -0.051827665 0.038581442 -0.006585039 -0.024055783 -0.05570333 0.032970395 0.047174085 -0.046400614 -0.025336917 0.04118746 -0.024215266 0.02048466 0.035135873 0.020941539 -0.037252806 0.05491115 0.014168256 0.025180094 -0.02475878 -0.002851875 -0.025228376 0.025215397 0.0323871 -0.05433348 -0.035538256 -0.025561856 0.028129859 -0.003745079 -0.009477218 0.025635637 -0.009170893 -0.028342698 -0.03482566 -0.0020948686 0.044087652 -0.032746825 0.006673394 0.0152075365 0.0019312337 0.023036672 -0.026838828 -0.0028118102 0.028603455 -0.027918616 0.031803977 -0.026457777 -0.027712313 -0.052088987 -0.026997833 -0.014885175 -0.006047905 0.027703004 -0.015919926 -0.043329358 -0.04920059 -0.018120036 0.025521398 -0.019268582 0.044030394 0.015911877 0.024457835 0.012791424 -0.042751513 0.0006632745 -0.006186629 0.014131014 0.021727692 -0.0012131383 0.017027773 0.05292952 0.0088475095 0.04529092 -0.017851513 -0.02603732 0.04753597 -0.05266075 -0.00018325202 0.0415153 0.045701038 0.03406933 0.009992981 -0.019272704 -0.04080856 0.015890911 -0.016780494 -0.042160813 0.006054807 -0.0450248 0.042957693 0.020633742 -0.02523238 -0.026092416 0.036704186 0.017320175 -0.008226517 -0.008159445 0.017988661 -0.033213276 -0.003996347 0.030900907 0.011849698 -0.019478915 0.04167469 0.009502519 0.020276008 0.027412683 0.0008671141 0.053626828 0.042466927 -0.001517032 0.03450626 -0.041986343 -0.010662148 0.009939178 0.029870836 -0.029918484 -0.027625915 0.03247381 0.033380188 -0.014203707 -0.017372072
on -0.049087364 -0.04336339 -0.030630326 -0.00955198 0.0056599015 0.017682059 -0.016760826 -0.041224584 0.026276337 0.032964107 -0.016551813 -0.03066021 0.04627284 -0.013148046 -0.023775576 0.045215517 -0.00031626725 -0.013446704 -0.028385988 -0.030758178 -0.00536099 0.04160603 0.036357824 0.048419073 -0.052457925 0.0057827104 -0.0056930496 0.011078736 0.025326865 -0.013326115 -0.055560317 -0.030789426 -0.019939262 0.017671503 0.03352542 -0.010776427 -0.0069822418 0.0015297956 0.0016499434 0.00016998523 0.021773523 0.039001193 -0.051266383 -0.024199165 0.029503444 0.042060886 0.0055420273 -0.04085817 0.034704708 0.0009045924 -0.04790886 0.0014618926 -0.030226272 0.022050485 0.028784411 -0.044550147 0.003702915 -0.031035153 0.02639522 0.022144953 -0.047624085 -0.027283598 -0.030649144 -0.03256343 -0.0144002335 -0.014489399 -0.035406318 0.012095815 0.0382184 0.029450983 0.047031682 0.023027468 0.018700534 -0.0013951391 -0.021016562 0.038378693 -0.026447142 0.027799817 0.03988641 -0.023314763 0.014542397 0.040723514 0.013201785 -0.04726624 -0.00021229702 -0.022050805 -0.0068395464 0.0471536 -0.0067905686 -0.043493807 0.034281652 -0.018164365 0.029786557 -0.032436743 0.044764977 -0.024307966 -0.03416462 0.03692081 -0.02715764 0.052637827 -0.036438726 -0.0334231 0.01683906 0.023453647 -0.011263311 -0.050254803 -0.005499221 -0.014866146 0.030841157 0.013925775 0.0157454 0.01771345 0.01152409 0.004968064 0.022003189 -0.026034964 -0.025642447 0.037559032 -0.027514653 0.014921995 0.03835074 -0.004279954 -0.002564103 0.00967543 -0.00047782916 0.026972255 -0.038743205 0.022826893
million 0.007600596 2.6016554e-05 -0.047651883 -0.026494863 -0.037173774 0.035820264 -0.038950942 0.013237202 0.013338507 -0.0010322656 0.056205373 0.0063832616 0.012479879 -0.029681375 0.020733306 0.0024595775 -0.010721228 -0.04240619 -0.0048799575 -0.022247255 0.0057310658 -0.05314319 -0.016068086 0.021029107 -0.048882864 -0.009005417 0.04796626 0.02517208 -0.036287546 0.012110183 0.009734602 -0.051257644 -0.005460318 -0.019767212 -0.0283778 0.025315298 -0.03187599 -0.03771765 -0.046081834 -0.025111817 -0.026409162 -0.026017064 -0.004497699 0.011064257 -0.030477857 0.013233747 -0.040627662 0.01700972 0.008909446 0.014098327 -0.020040816 0.0010644333 -0.008114548 -0.028911134 -0.04201784 0.0004735671 -0.02815431 0.012152952 -0.039545618 -0.041665617 -0.0062438664 0.03384718 0.0041649486 -0.05258139 0.039059505 0.03429926 -0.010853367 0.03946029 -0.041619983 0.034243237 0.027305268 -0.026360264 0.0061627277 0.014524625 -0.042761575 -0.009923888 0.035204954 -0.04098876 -0.015195609 -0.0035076481 0.030800497 -0.038736068 0.040072117 0.0051442147 0.039872184 -0.033027206 -0.0019319804 -0.031464614 0.018012349 -0.016565153 -0.04987748 0.036927894 -0.015000978 0.008681724 -0.026976746 -0.027405383 0.00036634548 0.003559358 0.007211201 -0.032157518 0.0029100121 0.03555276 -0.028557677 0.029010285 0.00026292255 -0.019310364 -0.014782494 -0.014604161 -0.013824241 -0.003586857 0.016293248 -0.03069092 -0.051913835 -0.041056175 -0.030271417 -0.013348207 -0.036724623 -0.0018213802 0.01313202 0.054869324 0.039684307 -0.02588304 -0.00030239817 -0.04213233 0.026853597 0.044006247 0.026168142 0.03139159
revenues -0.002065702 0.014179279 -0.037930302 -0.041379534 0.0136142 -0.04467911 -0.010655793 -0.008530157 0.016812516 -0.019172681 0.025866758 -0.015559556 -0.017594615 0.006256085 -0.051568594 0.023077007 0.05023794 0.05005289 -0.01707426 -0.038562343 0.04169768 -0.049791854 0.017962718 -0.04210336 0.001989757 0.0021244758 -0.039539166 -0.027203167 -0.017722014 0.056391653 0.044131484 -0.051218268 0.0153902685 -0.04196151 0.038172808 0.01631469 -0.0010599063 0.021709934 0.015390603 0.043517817 -0.03806087 -0.029582817 -0.0060971575 -0.018010246 -0.032167356 0.03041162 -0.035357285 0.04098825 -0.029145805 -0.038313903 0.025255384 0.007127538 0.049473267 -0.033269994 -0.0030648052 -0.014431192 0.038343526 -0.0056070755 0.012717967 -0.039172526 0.0340532 -0.016319303 0.009840858 -0.012439658 -0.0037054296 0.041422937 0.044915784 0.018434882 -0.00591414 -0.0044936216 -0.011598101 0.017221566 0.018118175 -0.032693803 -0.0040098303 0.022494184 0.053901915 -0.03790809 -0.033385124 -0.011998168 0.0054169814 0.015731787 -0.029341208 0.01047971 -0.02491083 -0.021636639 0.028722703 0.04459636 0.041667376 -0.03907035 0.016263984 0.0005948895 -0.0036145507 0.03772293 0.008912396 -0.019456092 -0.029011775 -0.027895177 -0.04278686 0.05182667 -0.0426876 -0.012316622 -0.041886125 -0.033452272 -0.028683491 0.010149652 0.02900917 0.021275038 0.0039732503 0.035193857 0.017229235 -0.0015873606 -0.037724167 0.00618449 -0.0069480212 0.02421009 -0.0515747 -0.055051874 0.045800835 0.0037253909 0.01838423 -0.034293663 -0.029094879 0.015304401 -0.033203654 0.024970459 -0.0035833293 0.006497927
first -0.0030391384 0.0319382 -0.0099330535 0.05440053 -0.043999583 0.02080572 -0.041682016 -0.024182433 0.017215984 -0.04097896 0.038234662 0.018781586 -0.030522374 -0.051599473 0.026849305 0.014515396 -0.010067537 0.004710326 0.03864995 0.030593183 0.050475128 0.007228338 -0.024509216 -0.024236666 0.011265995 -0.05169103 0.028056681 0.045071498 0.033369303 -0.004437012 0.043704767 0.03789606 -0.033448026 0.05531927 0.04109687 0.00910834 -0.022168368 -0.03926365 0.05170619 -0.0055021895 0.043846656 0.05064692 0.03925537 0.03496766 -0.003873639 0.024284797 -0.04195063 0.04216895 0.01830129 0.017562024 0.044241793 0.00055558595 0.0030694716 0.034731764 -0.017689887 0.025401816 0.00211858 0.008350382 -0.02171638 -0.013024706 -0.038080677 -0.055323765 -0.030852 0.039252777 -0.04550894 -0.032338224 -0.02776836 -0.047877513 -0.02380386 -0.013969373 0.051148053 -0.0040420583 -0.02300873 -0.051953655 0.025648484 0.011879014 -0.029109312 0.00071135326 -0.020540603 0.0041960194 -0.031042183 -0.036855657 0.029490417 0.00724955 -0.033427775 0.009055113 -0.03381671 0.054310963 -0.03043657 0.018297205 -0.026552215 -0.032973826 -0.0012859276 0.020337379 0.04319304 0.037441436 -0.029236648 0.0076800687 0.007058682 -0.017619245 0.04230592 0.00868864 0.025693689 0.038244903 -0.04400759 -0.049277447 0.0040994976 -0.025158497 0.0099561075 -0.03608219 0.028757418 0.010684828 -0.039383836 -0.04073706 -0.021201672 -0.041207727 0.0031503392 -0.010340087 -0.015167121 0.04020087 0.04886477 -0.013237315 0.03553082 0.0018182991 -0.029808989 0.026691938 0.03608643 0.045934703
from -0.019775683 0.01265092 -0.041249767 0.0343482 -0.03194498 -0.03266305 0.027470853 -0.049263626 0.011565587 -0.03798029 0.048671894 -0.039656665 -0.033334836 0.025522567 -0.0490457 0.013282623 -0.039295394 -0.015317721 0.0060594664 0.0500559 -0.039839596 0.007922081 -0.01537475 0.03144788 -0.020569377 0.0021970624 0.04782467 0.036560837 0.0009731551 0.03604421 0.03813162 -0.013653917 0.009817215 0.017342348 0.0063591143 0.012495321 0.0559919 -0.0069565643 0.046306223 0.050469473 -0.007468877 0.017085211 0.016531738 0.03160708 -0.025061395 -0.033339415 -0.012688184 0.006893644 0.003668343 -0.01943951 0.002290934 0.040784787 -0.042372376 -0.028362907 -0.04061633 0.046053194 0.03013824 0.04604139 -0.04755427 0.033005465 0.047364365 -0.050280243 -0.0076197335 0.035579994 -0.0055048815 0.043010015 0.022055177 -0.038411412 -0.0006010471 -0.010859054 -0.03846092 0.029143697 0.04478634 -0.0017210904 0.027656691 -0.024641406 -0.009442324 0.032282196 0.002351558 -0.042056356 -0.04138221 0.051724274 -0.022156099 -0.020004872 0.033048984 -0.022843337 0.0030773242 0.012839424 -0.0059520574 0.01660599 -0.0033086718 -0.018599616 -0.013772984 0.01925584 -0.024568368 0.042913612 0.012362057 0.012961156 0.02162686 -0.037281044 -0.009051459 0.004390516 0.04212877 0.015474434 0.024322737 0.045828898 0.018882826 0.00053673517 -0.021107933 -0.0017926479 0.049320128 -0.041038323 0.020429164 -0.03587848 0.039806984 -0.018875422 -0.01483757 -0.02779237 0.03056474 -0.028361592 0.039605405 0.039975453 -0.053385466 0.052713495 0.055771638 0.028301137 0.034008544 -0.0015673127
by -0.019141348 0.036990963 -0.008755563 -0.023172887 0.027441956 -0.044581335 -0.010380734 -0.047441483 0.029052034 -0.015622367 0.004406362 -0.0066468446 0.022356177 -0.024047362 -0.008218754 0.025566835 -0.033215486 -0.0044884896 -0.050181516 0.022931598 -0.04434281 -0.025733063 0.046666473 -0.024103075 0.02880783 -0.031525917 -0.04683298 -0.046785872 -0.039615147 0.034829393 -0.013030101 -0.019846173 -0.0018568846 0.012336639 -0.04595545 -0.018807605 -0.041553017 -0.025326448 0.022543801 0.009933277 0.040195975 -0.04318104 -0.010216055 -0.015515387 -0.012796012 0.028610533 0.031768102 -0.0089080585 -0.045849916 0.023675893 0.0040475572 -0.0061404244 -0.027408035 -0.023449631 -0.028068325 0.020583516 -0.018154575 0.007988453 0.027337719 0.026087882 0.05041853 -0.03132054 -0.009170148 -0.043361515 -0.041098658 -0.028835775 -0.016402293 0.04751818 0.005042781 0.009479077 0.008166179 0.023210444 -0.015920045 0.026955698 -0.01669372 -0.03154647 -0.039601706 0.021694357 -0.012756424 -0.03520136 0.02794719 0.03865167 -0.009927422 -0.03801664 -0.007958103 0.01695248 0.024544846 -0.03331939 -0.012623309 0.030890359 -0.047395345 -0.018740656 0.011976404 0.03420914 -0.014046568 -0.02595602 0.041256692 -0.041123554 -0.021662517 -0.0066367066 0.0041531236 0.044091534 -0.038232934 0.020211801 -0.022307036 -0.002758704 -0.00012624537 0.005502897 0.004736456 -0.03272951 -0.025854925 -0.015904808 0.014334979 -0.05564127 0.04951898 -0.027691856 0.0284834 0.018096073 0.017526217 -0.0023792747 0.048917666 -0.022987092 0.021460379 -0.02317164 0.004125705 0.038036093 0.021781527 0.016877059
1995 -0.049541626 -0.0462705 -0.032111533 -0.0129624065 0.026282305 0.012208157 0.026632423 0.0076932907 0.03911596 0.0064172735 0.03982571 0.033376504 -0.00850541 0.021968927 -0.032696817 -0.033115756 -0.022322532 -0.01911217 -0.024282986 0.046422288 0.012382091 -0.024601445 -0.013320315 -0.017429067 0.021331128 -0.013795433 -0.043702934 -0.015803752 0.021501502 0.047494728 0.02623138 0.009792667 0.0043913946 0.022253865 0.013965562 -0.012689988 0.017918643 0.053535003 0.05021737 -0.03614608 0.04946436 0.00052983937 -0.045360327 -0.030195156 0.024436127 0.04157 0.007967866 0.014329416 -0.007826973 -0.037962474 -0.013608778 0.024708688 -0.033944007 -0.011741273 0.03972863 0.040495843 0.04814354 0.029457806 0.015872484 0.034111112 0.0315013 0.0011685062 0.039066784 -0.010386804 -0.03368402 0.026064614 -0.043432027 0.01246916 -0.01665104 0.0044219885 0.021856159 -0.02622375 0.039563347 -0.0040371423 -0.038356364 0.029034277 -0.026933469 0.01043758 0.02156229 -0.03306644 -0.0039319415 0.0422833 -0.016885905 -0.04706799 0.043136697 -0.012298041 0.038159244 0.05389335 0.011269927 -0.007939892 0.011969381 0.01189742 -0.04370017 0.03125166 0.030253256 -0.051397942 0.0015124362 -0.0013552147 -0.039178357 -0.03676622 -0.044237252 -0.016925648 0.0044795275 0.046727713 -0.011587931 0.012212135 -0.019717244 -0.0032888874 -0.03866853 -0.015868166 -0.0059587364 0.027067 0.033700332 0.028795278 -0.04055391 0.015762327 -0.0029516749 0.02542952 0.036322698 0.049041092 0.016937857 0.015839644 -0.014690423 -0.0032501123 -0.04860764 -0.022734772 0.038835727 -0.0036058445
stock -0.050617162 -0.00010310118 -0.02314478 -0.0007916154 0.041506823 -0.0015320983 -0.024694253 0.0014978461 0.027632311 0.039469235 0.018515866 0.01318505 -0.040689144 -0.053018264 -0.03824229 0.0019303032 -0.015035172 -0.028218769 0.0039122477 0.011014415 0.024242511 -0.013465705 0.013467707 0.011887115 -0.012595979 -0.020593127 -0.046747744 -0.008269614 0.043548018 -0.0013950951 -0.0073046195 -0.038476367 0.04570699 0.055577468 0.0042575873 0.017034061 -0.040248454 0.054495867 -0.039649285 0.005742839 -0.04794141 -0.0420035 0.015573048 0.040511858 -0.00802671 0.017450405 -0.056005593 0.0023803755 -0.018103587 -0.0024690195 0.01185596 0.03652744 -0.015508194 0.037106678 -0.043409526 -0.0055828677 -0.054621343 -0.038115546 -0.00865238 0.055025127 -0.01603169 0.00115206 0.0050119124 -0.018162727 -0.028486295 0.020328218 -0.012150442 -0.04698627 -0.050390612 0.02105786 0.041216496 -0.021879358 -0.03909972 0.030267902 -0.03959197 0.011322213 -0.019015351 -0.001460503 0.024723707 -0.025290273 -0.005360645 -0.041291066 -0.024788277 0.0014682825 -0.0027390434 0.0048764446 -0.0052775443 0.047443174 0.012127791 0.021625444 0.04648618 -0.035074238 -0.050914828 -0.025561335 -0.029533906 -0.0058760946 -0.0053614774 -0.03144433 -0.042260755 -0.040300485 -0.029518604 -0.021496182 0.009085488 -0.031824596 0.0035622267 0.010258233 -0.015571586 0.02353188 -0.021182705 -0.011532952 -0.0493498 0.03720208 -0.048478343 0.020404177 0.041714452 0.0071421135 -0.03089489 -0.024836292 -0.013304777 0.03360367 0.03217031 -0.018013498 0.038068388 0.034669977 -0.044417173 -0.03427274 -0.014442687 -0.02115445
company 0.039863594 0.026882507 0.020893838 -0.04402313 0.04231038 0.0056276224 -1.4069374e-06 -0.041635416 -0.012656483 -0.03896967 0.0028219477 -0.0165971 -0.026002958 -0.025266327 0.0027132244 0.035857152 -0.011440891 0.04585567 -0.022701409 -0.027914274 0.008639287 -0.045350358 -0.008753488 0.051041216 -0.0046561747 -0.0010753684 0.01249862 0.020401437 -0.026502008 -0.027463285 -0.028917441 -0.031325117 0.0018388223 0.02944688 0.011263985 0.022284245 0.035701454 -0.0021200124 0.019487953 0.052817505 0.023123361 0.047663126 0.033101033 0.02928241 -0.025231672 -0.04656076 0.030907046 -0.0076149423 0.010781005 0.024344474 0.014300555 -0.012447753 0.008684194 -0.0076101194 0.027385296 0.019952191 -0.05414106 -0.0022872481 -0.04955297 -0.036472794 -0.016040199 -0.031877622 -0.036457364 -0.027849473 -0.044047236 0.043570206 0.0021731365 -0.043379225 -0.055629943 -0.033665378 0.020646099 -0.057062987 0.0021584753 -0.018698832 -0.03410702 0.041718997 -0.0111951735 0.017913833 0.012137467 0.016619686 -0.049509626 0.039631236 0.02431732 0.008991995 -0.006862738 -0.02621423 -0.025536366 0.010864217 -0.02947973 0.018272804 2.1630141e-05 0.035046283 -0.024073103 -0.04711715 -0.010744247 -0.026600456 0.024427768 0.03946254 -0.015646312 -0.031594057 -0.042519078 -0.02138492 -0.023600612 0.019884052 -0.019325953 0.020253243 0.009730297 0.05175032 -0.042198364 0.029284341 -0.052006993 -0.012882492 -0.043389946 0.038515206 -0.023407368 0.016727217 -0.029892545 0.031772878 -0.0041410234 -0.014107721 0.040530454 -0.029238133 -0.046128236 -0.025315948 0.03389572 -0.008592706 0.017584395 0.03240957
3 0.02945243 -0.004598664 -0.031262584 0.035294514 0.042591818 0.0257562 0.0018712642 0.012177616 -0.008121485 0.025216663 0.008152467 -0.00571767 -0.011354451 -0.005238141 0.015625067 -0.021789178 -0.007005777 -0.007973081 -0.044839114 0.021731589 0.026019283 -0.04349768 -0.047456782 -0.02788318 0.020141287 -0.025511928 0.020637631 -0.051141653 0.03138682 -0.025201906 0.013770884 0.03906468 0.040679052 0.031672772 -0.035885572 -0.021556733 0.027111921 -0.023236874 0.0048629055 0.02420261 0.03891002 -0.008808338 -0.023557395 -0.04760976 -0.00252348 -0.03424723 -0.03603759 0.011895679 -0.010529018 -0.04337332 -9.7748765e-05 -0.005349043 0.031445198 0.028671067 0.03698705 -0.000752161 0.00484611 0.032377988 0.023542847 0.047157466 -0.043970276 0.03022833 -0.022755396 0.013901763 0.040890023 0.035762772 -0.045163494 0.048512645 0.014584398 -0.051644552 0.05683638 0.010071617 -0.05462894 0.022144267 0.035761207 0.015053831 0.033950064 -0.0118786115 0.0005633555 0.0017692102 0.037840173 0.0033442057 -0.011484821 0.031928856 0.037678473 -0.03584298 -0.026892375 -0.007095152 0.025309362 0.014001666 -0.046575975 -0.027412971 0.01000366 -0.0270566 0.0065976502 0.011733537 -0.015124076 -0.044801936 -0.027466184 0.005612609 0.026939955 -0.042327654 -0.0031557004 0.007504397 -0.04410507 -0.0035353624 -0.040074162 -0.018095879 -0.026807677 -0.029588303 -0.03804831 -0.035966955 0.012656716 -0.04649106 0.045795646 -0.008125114 0.030228907 -0.01873451 -0.005068813 -0.0061616595 0.03310937 0.018923335 0.0094683375 -0.03714953 -0.02730007 0.0007438292 -0.043661043 -0.0185337
were 0.042909145 0.012303683 -0.04967802 -0.050519876 -0.037862968 0.010822963 -0.010092413 0.039029855 -0.040107727 -0.034680933 0.0018742969 0.032266594 -0.05580305 0.04179667 0.010580914 0.046673965 -0.043101653 -0.03606157 0.015058198 0.021794861 0.017252916 -0.027413694 -0.0039592017 -0.02584767 0.028271515 0.039869685 0.02787576 0.033349447 -0.04758505 -0.005892114 0.015420857 0.013291515 -0.008403056 0.018101841 0.027299047 0.04312778 0.007469188 0.051648494 -0.037960473 0.044758696 -0.02951041 0.040832844 0.009710062 0.029528221 -0.023664458 -0.012194677 -0.05474425 0.0150687 -0.01576564 -0.014569477 0.031184373 0.026166303 -0.00952561 0.018006893 -0.053086255 -0.04040816 -0.0030616415 -0.017032318 0.025560617 -0.021222387 0.050456002 0.010447347 0.03735255 -0.043568507 0.035281457 0.038513727 -0.0517357 -0.009101505 0.03937091 -0.042588778 0.0504816 -0.00014143641 -0.051737037 -0.01932303 -0.018457854 0.011190975 0.017734777 -0.00479989 -0.007620282 -0.021575715 -0.024920631 0.052608468 -0.025255281 0.0071511464 -0.030622603 -0.013388509 -0.0064105187 -0.04241195 0.023731599 0.031557687 -0.03910722 0.046182897 0.022724614 -0.04322183 -0.026537549 -0.04241175 -0.022815675 -0.0070275925 0.027565677 -0.0038263819 0.008551922 -0.02028146 0.005237054 0.023109404 0.020236244 0.03726731 -0.02323582 0.0023160095 -0.028832505 0.036651447 -0.04480737 -0.035216954 0.013608288 -0.050675187 0.046996005 0.010618953 -0.024404868 -0.00967639 0.036558416 -0.042949233 -0.028558826 0.025615672 0.023231497 0.00040476865 -0.021101918 -0.009507397 0.039011378 -0.053295337
financial -0.021183673 0.013034754 -0.03892905 0.032159556 2.8849288e-05 -0.020267697 -0.034411494 -0.03839621 -0.025676375 0.0051809284 -0.041282795 -0.008699455 -0.027700417 -0.0024059352 0.001512833 0.027341506 0.023618823 0.03876593 0.042406246 -0.006956135 -0.0070701237 -0.007877181 -0.04693656 -0.034833767 -0.041747034 -0.0072037857 -0.029135182 -0.046950992 -0.021581752 0.011757105 0.03595557 0.014213067 -0.0121899275 0.049308527 0.044260558 0.022635268 0.027123118 -0.016110418 -0.018732786 0.03237499 -0.03138304 -0.023059439 -0.02200879 0.0100381905 -0.028862292 0.019195052 -0.026159968 -0.025377715 0.03260405 -0.024010703 -0.0075636315 0.021022664 -0.040501017 0.04629643 -0.03858618 0.013275878 0.02905548 -0.0364577 -0.01709219 -0.014972994 -0.028883805 0.03534057 0.026076894 -0.052248187 0.043485843 -0.044252124 0.031647976 0.0032667776 -0.0076585985 -0.00177498 -0.012046068 -0.012682522 -0.03030944 0.015857108 -0.019648252 0.048499454 -0.034334473 0.04862916 0.024434684 0.033132624 0.031558815 0.0017966153 -0.014866137 0.002424575 0.033012696 -0.0053805714 0.025456445 -0.0047315285 -0.011033746 -0.048957713 -0.017891958 -0.0460647 0.02159961 -0.008578344 -0.028336482 -0.00035182663 -0.006678791 0.0054722303 -0.050949674 -0.021917403 -0.04910133 0.012318295 -0.032496113 -0.003334919 0.025014676 -0.036471352 -0.03506941 0.028900245 0.030238736 -0.04898898 0.002928778 -0.022661919 0.009689493 -0.03486256 0.004183298 -0.0058458736 0.027852748 0.016199779 -0.005170859 0.04115697 0.027355723 -0.024479365 -0.025628222 0.029633544 0.027085312 0.019281056 0.027204001 0.014986886
are -0.03642761 -0.009313439 0.0372725 -0.04892519 -0.041983504 0.005227766 -0.034285802 0.030076519 -0.049465008 0.04059402 -0.018815462 0.004176705 0.010670658 0.035131037 0.030994976 -0.042897742 0.01925508 -0.032415237 0.00982086 0.010834273 -0.037721697 -0.005925993 -0.011636658 -0.0011245947 -0.0067797014 0.005914334 -0.015485709 -0.00027351192 -0.005552241 0.047563672 -0.010038184 0.02958085 0.038788293 0.006135564 -0.025927745 0.015788559 -0.020790454 0.041035432 -0.0063810647 0.017646464 0.029900637 0.027131412 -0.024000563 -0.010265612 0.0068353247 0.039480288 0.022615751 0.014211527 -0.007313038 -0.04002595 -0.018257447 0.03561494 0.01693713 0.0215088 0.044998802 -0.035204142 -0.051940784 0.011681273 -0.016615158 0.047440533 0.0054096826 -0.01327251 0.045954946 -0.019388631 0.03991568 -0.0017854067 -0.00422864 -0.00270509 0.017161308 -0.014119313 -0.042438496 -0.057418406 0.036945708 -0.020176731 -0.039093647 0.030150563 -0.019402567 -0.00016363432 -0.03737725 -0.034132786 0.0048452257 -0.000476547 -0.0049742134 0.042766146 -0.041565288 0.01943427 0.04768614 -0.03256968 -0.0029493303 0.04886278 0.029806754 -0.003627317 -0.0008536952 -0.04341341 0.040287055 -0.048846208 0.010342749 0.008275444 0.035918605 0.04181665 0.029002996 -0.029071517 -0.0073967217 -0.020274518 -0.035031937 0.026516479 0.0090743955 0.041795895 -0.018647563 0.024223655 -0.037695598 -0.006049329 0.039013054 -0.017912075 0.019577364 -0.0072315587 0.022356031 -0.03536368 0.04577395 -0.03685093 -0.022460364 -0.05224481 -0.05275645 -0.032901186 -0.044085905 0.0060321013 -0.003925846 0.03229333
or 0.037101176 0.0036112552 0.028168892 0.01178443 0.029136693 -0.03779184 0.025835337 -0.013670153 0.05023361 0.016771879 -0.020339835 -0.020743994 -0.019794319 0.042688 -0.0035524792 0.017369153 0.046563283 -0.043264195 -0.042481784 -0.044287015 0.027438495 0.011203212 -0.011185711 0.043703754 -0.045208644 -0.039136197 -0.00052165496 -0.038351804 0.010278449 0.0025849456 -0.040936273 0.011388834 -0.041403364 0.032059286 -0.042450856 0.0341544 -0.043546434 0.00793688 -0.0378673 0.014551565 0.01975631 0.012165206 0.016900651 0.027975274 0.008486039 0.048183806 -0.024347534 0.0018822798 0.0004009519 0.02822876 -0.049792662 -0.0062736077 0.043010827 0.035672307 0.0038488354 0.0064354665 -0.0073394827 0.032712076 -0.03760881 -0.008973172 -0.040493667 0.0059399474 -0.020680692 -0.013572716 0.041938204 0.008682867 0.016602509 -0.045766026 -0.0023025768 -0.020332512 -0.026029672 0.038416132 -0.029477738 0.026686007 -0.046283193 -0.008788182 -0.02959219 0.0007607115 0.03946332 -0.032709785 -0.052663013 0.0415429 0.00577982 -0.04070819 -0.022469202 -0.027144788 -0.042803273 -0.022126598 -0.030093454 -0.03901759 0.026495282 -0.050179433 0.00579296 0.045172572 -0.031858698 0.019825593 0.025633255 -0.014015704 0.013903834 0.051867697 -0.020343933 0.035941616 0.0066024456 -0.040125404 -0.050665885 0.02155803 0.008175142 -0.016063293 -0.054715656 -0.0114512285 0.034176975 -0.029032182 -0.046259046 0.0047856886 0.043959323 0.04924247 0.014160281 -0.010522225 -0.0058545177 0.030693937 0.029921705 -0.019944267 -0.017324924 -0.022956388 0.044873215 -0.038078647 0.028524961 -0.011174231
as 0.030846575 -0.021495145 -0.03865694 1.124118e-05 0.009064877 0.013254919 0.00014792255 0.044121873 0.042985167 0.0066051893 0.019319436 -0.046383083 -0.021139508 0.0103587685 0.025018668 0.024363158 -0.015335361 -0.0019137525 0.011117613 0.0073785423 -0.016154222 -0.042486116 0.024834948 0.042772576 -0.012670029 -0.0031886648 0.011278515 -0.040450525 -0.0032779628 0.010760217 -0.024407035 0.016651029 -0.02497715 0.027136313 -0.040359512 0.043242984 -0.039067708 0.031395134 -0.0021805842 -0.011167633 0.003888694 0.04257463 -0.041262932 0.049361385 0.032298896 0.03403014 -0.010495956 -0.03653949 -0.037186436 -0.033553943 0.030408176 -0.028047292 -0.009601329 -0.01985801 0.047718115 -0.04203229 -0.048408613 0.009592368 -0.021071501 0.03999811 0.01910602 -0.023369357 -0.011416852 -0.027433973 -0.028726576 0.011689122 0.02713829 0.016348587 -0.01353995 0.01889901 0.04075177 -0.008250049 -0.013996763 0.030451702 0.0025211405 -0.016616207 -0.037054513 -0.00074479764 -0.03556832 0.016770145 -0.013686604 -0.022593157 -0.03651491 0.017313534 0.028224183 0.011213468 -0.002663888 0.016284738 0.009608561 -0.032455973 -0.032140512 -0.04488724 0.019673977 0.0008069085 0.04118421 0.03689484 -0.01058286 0.03222392 -0.0036065965 -0.006340018 0.016631074 0.012878903 0.03206782 0.0003944839 0.004132543 -0.011684817 -0.031847365 -0.013309605 -0.04185204 0.023925604 0.04618368 -0.00063074706 0.023373807 -0.04889332 0.043873847 0.04515851 0.040035937 0.04418782 -0.023834907 0.02505909 -0.023179125 0.009879833 -0.011962821 -0.04136589 0.02488121 0.016296629 0.04625541 0.005115985
s 0.015260168 0.027114691 0.0019624745 0.0311029 0.018281754 0.050993077 0.011581039 0.029969053 -0.035313904 -0.03539457 -0.0017183217 0.043377187 -0.022371614 0.010186808 -0.033680037 0.020382464 0.042569537 0.047422197 0.03177998 0.0076624933 -0.008579703 0.02488227 -0.021525415 0.04764264 -0.031074284 0.031354222 -0.029135602 -0.0020534056 0.0047864164 0.04187654 0.009112652 -0.014329942 -0.007012349 -0.018509611 -0.008767307 0.037635315 0.020566294 -0.028883819 0.002586486 -0.033368543 -0.008869975 -0.01941481 0.0035877908 -0.037041087 -0.03207672 -0.045991298 -0.028242005 0.043209717 0.03669163 -0.013390725 -0.042900693 -0.04533904 -0.027194392 0.025714993 0.026768034 0.024179637 0.038521845 -0.02940334 -0.01368785 0.011799736 0.04441662 0.014629624 0.01075967 0.030049684 0.046306856 0.026983568 -0.035266522 -0.0068459767 0.045245163 0.041108772 0.008218889 -0.02893398 0.043992966 0.0439876 0.030519046 -0.020253634 0.035030816 0.008688334 -0.033233404 -0.0016911067 -0.029486766 0.012946406 0.0014385885 -0.014013462 0.029995287 -0.022454424 0.04320949 -0.025841054 -0.037840676 0.028331103 0.009230157 0.017235795 -0.01945545 0.04355533 0.042869452 -0.0049152793 0.012688073 0.024014736 0.040594283 0.035891414 -0.02148344 0.033902142 0.026499955 0.04942254 0.0063037216 -0.034060813 0.022192402 -0.029197652 -0.051558122 -0.032244433 -0.03365582 0.048879854 0.012067712 0.0057852734 0.021533819 -0.008760724 -0.016612396 0.0023956466 0.0018663413 0.041805465 -0.045069445 -0.005562015 0.031062761 0.036271326 -0.040532794 -0.039771203 0.011435674 -0.054814886
has 0.022320367 -0.027293677 -0.027127182 -0.01975386 -0.00076204585 0.010642022 0.034928005 -0.043648485 -0.003478334 -0.01378977 -0.024975864 -0.03580045 -0.040835086 0.030608624 -0.036295556 0.0024302676 0.024256788 -0.02845842 -0.04290553 0.012002168 0.021097615 -0.040080104 0.020132182 -0.04725936 0.016924938 0.014088885 -0.021269223 0.040304575 -0.03379347 0.025786914 0.01175394 -0.050923474 0.041741442 -0.035526626 0.04719307 -0.036791544 0.01549961 0.028586907 0.03445653 0.030238276 0.009237284 0.02529374 -0.025420388 0.03394928 -0.027450295 0.013675319 0.008068072 -0.03673408 0.039714415 0.042814385 -0.038616255 -0.0018164197 -0.04789069 -0.022821927 -0.0053333268 0.023064554 -0.025132407 0.034403805 -0.04463743 0.039450828 0.010485302 0.03255848 0.010499081 0.014643857 0.053244006 0.04102012 -0.012184455 -0.03423172 -0.0119182775 0.036304753 -0.00052267686 0.012425723 0.03548325 0.038126983 -0.049418185 -0.044462148 -0.0037006047 0.0037303185 0.022273488 0.04428127 0.025750991 -0.016544105 0.021238115 -0.049097527 0.00601555 0.0105050085 -0.029045802 0.019885063 0.025736539 -0.030483993 -0.019367537 -0.022924464 0.040424086 -0.033209532 -0.039698977 -0.04481787 0.007252682 -0.007839287 -0.042996634 -0.01124357 -0.050536513 -0.008685657 -0.051435556 0.015847228 -0.028742956 -0.019540792 0.02251927 0.0044347234 -0.015748445 0.0327865 -0.014843248 -0.04099288 -0.02377791 -0.029458461 0.048141908 -0.045371875 0.0068681394 0.044029582 -0.044758927 -0.0274189 0.012608613 -0.024811044 0.03552299 -0.009863054 -0.019336833 -0.00397255 0.04263061 -0.022723457
that -0.027282817 -0.0019011613 -0.021511162 0.008849373 -0.0077608093 -0.022713795 0.035784632 -0.035055086 0.016195443 -0.019290788 -0.045797158 -0.030800741 -0.029068803 -0.014299989 0.033189364 -3.4078024e-05 0.049947236 0.007129679 0.0052310782 0.036641203 -0.014401498 -0.04989011 -0.009466296 0.016805569 0.0031463834 0.021828433 0.01922733 0.018984176 -0.045455087 0.022500841 0.044674788 -0.014219864 0.0017881785 0.017041964 -0.0067415177 0.0011017004 0.039329484 0.018531194 -0.0013780819 0.021670775 0.040396776 0.04158196 -0.015554785 0.030842207 0.03524973 -0.030007461 -0.05277892 0.01806333 -0.047413655 0.026642228 0.028961692 -0.03631962 -0.0060366774 0.015948266 0.03700584 0.030502306 -0.018204546 -0.019296719 0.024126608 -0.040095795 0.012288102 -0.014015886 0.026206687 -0.002578136 0.040634163 -0.0458575 -0.038748387 0.0073535386 0.032291543 0.04600983 0.05010819 -0.0071079326 -0.010463055 0.007275404 -0.018926308 -0.032389224 0.032922804 0.038254283 -0.03056545 0.019274328 -0.024559936 0.036962517 -0.040365756 0.005525568 0.03772688 0.026323311 -0.029677529 0.042349234 -0.016055508 0.038507648 0.026459057 0.031096183 0.038998898 0.036256608 -0.01475867 0.019252025 0.006680388 0.041554384 0.036102496 0.024904752 0.02562615 -0.025601128 0.0058592325 0.027483175 0.044603422 -0.009985238 -0.00786394 -0.04462824 0.03498246 -0.052277233 0.013176935 0.035310794 0.0134415785 -0.0047015846 -0.018130865 -0.016685251 0.004868969 -0.009788572 -0.022838332 -0.012743009 0.028837115 -0.054655753 -0.0011043143 0.04866542 0.021000832 -0.044276115 -0.043616746 -0.029320613
2 -0.023124037 0.022234797 0.022371918 -0.010212728 0.0018532646 -0.018144934 0.0050112586 0.038869675 -0.033905204 -0.008134545 0.026521238 -0.039856654 -0.002231329 0.006910428 -0.03389488 -0.026565889 -0.01215373 0.04721076 0.0060833483 -0.02121154 0.037537348 0.008167359 0.008883466 -0.044160575 -0.041969463 -0.033238027 0.048529528 -0.018836929 0.001240056 0.013436996 0.013893186 0.00055026717 0.03212869 0.022240723 -0.0023122653 -0.050922632 0.035389077 -0.032173626 0.030308817 -0.019742107 -0.011076135 -0.033889838 0.009639414 0.04172618 0.017281475 0.011414688 0.044126928 -0.012060777 0.0043530306 0.011808762 -0.014180576 0.041240916 0.002683446 0.034339845 -0.043578018 0.017741056 -0.047133613 0.033579778 0.002427154 0.0123598855 -0.004569147 -0.047451448 -0.025893424 -0.029040214 -0.017478332 -0.02662404 0.02329693 0.052585073 0.007629405 0.03540321 0.010248566 0.0004531276 0.043991465 0.016190516 0.006008634 0.0017660189 0.026093805 -0.0018812176 0.006343172 -0.036404893 -0.031188264 -0.011248974 -0.030240286 0.027434338 0.017741658 0.0032018418 -0.029028688 -0.025514215 0.038474817 0.028940724 -0.042378303 -0.039469633 -0.028657334 -0.006236691 -0.039155237 -0.008063883 -0.04317471 0.044011906 0.0011524523 -0.043015227 0.005672009 0.008206882 0.02485975 0.01843573 -0.053868994 0.0066842083 0.04669751 -0.008089609 0.008785044 0.022217818 -0.016546741 -0.02489314 0.013310653 -0.032073602 -0.024242777 -0.036735628 0.04701853 0.021389177 0.003979997 0.040240537 -0.043756157 -0.03208656 0.031109951 -0.032056477 -0.021582931 -0.039126936 0.022722404 -0.01879935
share -0.017156143 -0.017053878 -0.027510496 0.044913813 0.03768481 -0.046062097 0.048363913 0.015372621 -0.009295767 -0.011143337 0.042342775 -0.0490104 0.0021643105 0.024134256 -0.036218755 0.0026148062 0.039930183 0.0028409273 -0.022639394 -0.046461634 -0.040576886 -0.05535031 -0.0025739393 -0.016683903 0.0018842078 -0.039182156 -0.03372173 -0.0006246312 0.023327135 0.023787912 0.03890965 -0.028094416 0.01309286 0.034086335 0.020880727 -0.011735228 -0.037168376 -0.02209306 -0.037983686 -0.02989285 -0.027646031 -0.043005507 -0.0045963484 -0.043841403 0.031907532 0.035944995 -0.047328085 0.0017604739 -0.015104875 0.052124485 -0.024245596 0.016383922 0.021144886 -0.0055373996 -0.045429226 0.014601621 0.0421447 -0.018245798 -0.027100483 -0.02007583 0.030854126 0.037412368 -0.0224524 -0.026351424 -0.034778714 -0.000462292 -0.041489135 0.003754912 -0.01843981 0.02639939 0.003116033 0.027774053 -0.03262124 -0.017877946 -0.050130997 -0.01550277 -0.003800509 -0.04926288 -0.04096661 -0.02386292 0.018154211 -0.03898034 -0.049342487 -0.044824105 0.03650476 0.024211278 -0.008570216 0.014842861 0.029731946 0.01841879 0.006800046 0.04796772 0.010459408 -0.04093559 0.023526557 -0.041030865 0.032609608 -0.039934557 -0.021343661 -0.04137648 0.027731048 0.037980795 -0.025168287 -0.022825131 -0.05438439 -0.051963266 0.005679203 0.043237 0.024632659 0.011585346 0.025469732 0.029829089 0.03229228 0.0010907438 0.0033745638 -0.016943686 -0.045059256 0.02148133 -0.047832515 -0.025038788 -0.01983874 -0.027096974 -0.002653702 0.009317508 0.023027204 -0.049685754 0.0552982 -0.041502837
1 -0.038237303 -0.02201882 -0.036258012 0.04218731 0.040131632 -0.032179236 0.0064888597 -0.0076899533 0.007716922 0.041441865 0.054360446 -0.028128654 -0.0024273973 -0.051296152 -0.011818787 0.047710504 0.051529918 -0.02163166 0.040114846 -0.015404542 0.0178612 0.026961517 -0.025095025 -0.02860699 -0.018101102 -0.023798535 -0.010501676 -0.016118629 -0.008690722 -0.018057555 -0.04551654 -0.005532993 0.019565606 0.046214074 -0.039667793 0.009416523 -0.04479438 0.025405334 -0.014619719 -0.015506017 0.03356188 -0.034225643 0.0375048 -0.046457276 0.044105846 -0.04085043 0.023419594 -0.017073419 0.003421602 -0.03889085 -0.011901514 -0.01345404 0.005124918 -0.013675934 0.012908871 0.025666576 -0.050154585 0.0033133777 0.05277501 -0.032269236 0.017901298 -0.05213568 0.01993692 0.037141863 -0.04397039 0.008948084 -0.007217834 -0.050922718 0.02425514 -0.0060663647 0.032695197 -0.011831055 0.0122764725 -0.019071838 -0.040080175 -0.024534957 -0.043023802 -0.049940445 -0.0025249468 -0.011209184 0.014100366 0.013947139 0.0022217056 0.045834597 -0.046149705 -0.00073321245 -0.023162689 0.0166754 -0.016334133 0.012373521 0.045867007 -0.034244683 0.034509998 -0.019807987 0.0350653 0.023995906 -0.023207594 0.017940791 0.04224463 0.017954396 -0.018379113 0.015746944 0.017056754 -0.04287715 -0.0130163 -0.017954115 -0.039586615 0.033828475 -0.01683734 0.016541159 -0.033931695 0.004784018 -0.0389307 -0.048286844 0.030787436 -0.03246052 0.032260567 0.021709228 0.043715324 0.031075295 -0.028523194 0.029137088 -0.03628453 0.03780681 -0.0030483026 -0.020936185 0.034263115 -0.009125891
exchange 0.00899139 -0.033442 -0.034492895 -0.0021530318 -0.025567506 0.023566792 0.03842422 0.0335863 -0.002700049 -0.019718722 0.0116213765 -0.0054350635 -0.017641379 0.04123104 -0.011285675 -0.016308641 0.012635027 -0.028277613 -0.009189038 -0.03816095 0.04443476 -0.036103114 -0.040279422 -0.016269153 -0.0025523393 -0.040395755 0.04769183 0.016933057 -0.04079268 -0.033738546 -0.02458004 -0.016961023 0.026541645 0.0374939 -0.017154204 0.00813158 0.04263488 -0.04228325 -0.029636811 -0.00085638143 -0.04722655 -0.016332993 0.03556096 -0.02876852 -0.042350024 0.025997715 -0.029660853 0.008200541 0.029473709 0.025874019 -0.014410774 -0.015924882 -0.04867224 -0.02088429 -0.0029187284 -0.0003039727 -0.031255115 0.015659153 0.030871069 0.053380944 0.03273097 0.0038444188 -0.03320752 0.021442315 -0.034060344 -0.032581385 0.038973946 0.05251493 0.02979488 0.022288697 0.035120234 0.020827135 0.029470626 0.012636987 0.0316398 -0.012010713 0.03634638 -0.0032253782 0.00492348 -0.02825015 0.033134144 0.05408069 0.0095123565 -0.021293184 -0.034519706 -0.015756723 0.00032886118 -0.041034844 0.020850718 0.026615776 0.0043978677 -0.03315995 0.0068215174 0.04688026 0.052685823 -0.004678985 0.026617186 0.00097445305 -0.007625784 -0.012944915 0.04837453 0.019288976 0.03807531 -0.03132517 -0.025879731 0.030972352 0.032544546 0.009167049 -0.04833139 0.025628576 0.019814814 -0.034904078 0.023841767 -0.044995617 0.055337306 0.00027873658 -0.0331979 0.02599199 -0.033357255 0.04718916 0.011306782 0.047921836 0.012718497 0.0010392102 -0.008899426 -0.04122395 -0.023291744 0.037242513
be 0.04257239 -0.011138171 -0.042359658 -0.017402606 0.029745176 0.0380278 -0.04127204 -0.030879557 -0.005222033 -0.003262154 -0.011477039 -0.037594613 -0.04444565 -0.024214607 0.00026001327 -0.0031426612 -0.035762537 -0.04659898 -0.024385195 0.0012110781 0.03494209 0.040635932 -0.014232752 -0.038753144 0.016635215 -0.005252377 0.038457964 -0.010478726 0.034746777 0.020266064 0.00043631575 0.017148297 0.043953978 -0.016022844 0.052858543 -0.0075599095 -0.032083564 -0.037177384 0.00738555 -0.03910856 -0.025131343 -0.024960842 -0.02743897 -0.0011091803 0.019412387 -0.013745981 -0.0248577 0.003982509 0.03629238 0.040942326 -0.036706567 0.04177501 -0.0017214298 -0.03808784 -0.008288386 -0.009764886 0.04267477 -0.017542189 0.0074617174 -0.012853908 -0.02090295 -0.009943208 0.03510388 0.012430346 -0.04516571 -0.021161545 0.00834578 0.010315775 -0.03276482 -0.030080726 -0.041903403 -0.03277608 0.020207407 -0.03809428 0.043586403 -0.042246632 -0.021874432 0.007198421 -0.043213706 0.0026814393 0.04771169 -0.04034798 -0.05111791 0.020259704 -0.023147354 0.048425715 -0.04609107 -0.0031393832 -0.035485063 -0.031662412 0.009628153 -0.049394205 0.01103248 0.0170991 -0.043732803 0.033161808 0.002809653 0.028602175 -0.030870277 0.040659785 -0.001548565 0.0019018272 -0.047876135 -0.014286486 0.020998718 -0.021559158 -0.035480123 0.0034851045 0.044441298 0.009682366 0.0025994186 0.016454663 -0.0117987115 -0.013289132 0.047534466 0.027573513 -0.03260901 0.019991878 -0.043766595 -0.009658324 0.05466623 -0.011096919 0.0118790725 -0.020329641 -0.00456318 -0.04617296 0.0053551756 0.039852213
was 0.043585118 -0.026969267 -0.05039021 0.034636687 0.024328507 0.04147127 -0.030807586 -0.040414166 0.009735181 -0.021817535 -0.0327053 0.021307902 -0.052625462 -0.03778522 0.0027604671 0.050404366 0.03087496 -0.025576748 0.019809218 0.044930432 0.05008369 -0.033080485 -0.010630437 -0.013622037 0.023862839 -0.02222579 0.02291881 0.032631803 -0.044453036 0.02246956 -0.035895307 0.002529167 0.007591426 -0.013498726 0.047504608 -0.0036427132 -0.03158847 0.039699312 -0.011677433 0.014285897 0.029934987 -0.029720597 -0.009634291 -0.04628648 -0.0041919015 -0.012149164 0.008326042 0.0021360978 -0.010579369 0.055882003 -0.04617662 0.0006481694 -0.034858745 -0.01870942 -0.027637877 -0.01547415 -0.039033245 -0.024682218 0.03246456 0.0072992356 0.0442417 0.023642587 0.023455156 0.0239967 -0.028003877 -0.038569108 -0.010901852 -0.026567178 -0.036160313 0.044389065 -0.023806324 -0.045627955 0.018665947 0.0060335235 0.0422029 0.007751652 -0.03478255 0.023987666 0.011980897 -0.007212708 -0.042470284 0.043761853 -0.028023545 -0.03575206 0.04251991 -0.024535201 0.027519953 0.043436468 -0.03181691 0.029308988 -0.04501306 -0.038369764 -0.02695358 -0.0068509206 -0.028442655 -0.033650555 -0.0046386607 -0.002605444 -0.029365668 0.043732837 -0.0030746479 0.031008217 -0.022733482 -0.009645226 0.032367352 -0.036539484 0.04223543 0.023723433 0.03379569 0.010433781 0.017232269 0.015951615 -0.0077321855 0.016620586 0.009773148 0.03047843 0.017933086 -0.030584363 0.014023418 -0.026223034 0.03250045 0.040744074 -0.00843501 -0.0019583476 -0.021200549 0.021188479 0.02072982 0.021461908
is -0.0055485643 -0.036180962 0.03536333 -0.041486155 -0.037359484 0.032410014 -0.004544463 0.0076166405 -0.004158036 0.045634698 -0.006429638 -0.0331014 0.027712286 -0.037141662 -0.030478904 0.043935288 -0.023439564 -0.0019831057 0.017742129 0.03921313 0.025529752 0.007544787 -0.03811144 0.03230521 0.0270976 -0.028693821 -0.03682773 -0.013941823 0.036319204 0.04621623 -0.0005488588 -0.019602487 -0.013613663 0.010794885 -0.049255375 -0.042829126 -0.03350059 0.013118391 0.009900605 0.011182835 0.038716312 -0.022344608 0.006773847 0.017525783 -0.025609378 -0.0008751446 -0.031518787 -0.026216542 -0.0458493 -0.011300218 0.015201979 -0.04801366 0.006157168 0.028176505 0.042737287 0.006917629 -0.035467423 0.001032271 -0.0477475 0.05010629 -0.013949362 -0.02025899 0.047304604 0.04562791 0.03197805 0.042318378 0.018087082 -0.013675269 -0.009826011 -0.008679245 -0.032980002 0.008713474 0.0015588368 -0.00042770675 -0.042508576 0.016014706 0.0004890446 -0.02695033 0.03565723 0.01008466 0.023881055 0.05393555 0.0058804015 -0.0018709648 -0.044862546 0.01613646 0.012888972 0.021498473 -0.03615337 0.017701294 0.007858595 0.00064958906 -0.04207424 0.04245619 0.033616155 0.023825204 -0.030474784 0.028908186 -0.042862706 0.0127698025 0.030437566 0.029432103 0.0117023885 -0.044250958 0.027253587 -0.04583795 0.04785476 0.044518795 0.03262503 0.02382292 -0.053738102 0.039164796 -0.0031221937 -0.052079614 -0.023276435 -0.009371814 0.008834034 -0.0051605534 0.01865287 0.042255696 0.02628754 -0.04707229 -0.028517736 -0.016104534 -0.0007888058 0.01844017 0.017682763 0.03356066
30 -0.01638148 -0.04139103 -0.037980177 -0.041926216 -0.040314898 0.023707347 -0.03781938 -0.022327922 -0.03249343 -0.010552889 -0.0019870983 0.045632113 0.03079472 0.03173037 0.025249844 0.024328765 -0.011429159 -0.011698478 -0.0041623586 -0.020734956 -0.020490037 0.0028398372 -0.033752337 -0.04814509 -0.03314885 0.0035467835 0.027854148 0.022508258 0.024340568 0.043630905 0.035375632 0.019496046 0.0015884435 0.018125745 0.038370647 0.03697292 0.02325319 0.00060608686 0.018365974 0.002735396 -0.003741304 0.04975205 0.0009327453 -0.020574952 0.0098462785 0.047986206 -0.04696329 -0.02479963 0.012007087 -0.04295086 -0.038596604 0.01041922 0.01620415 -0.0058794757 0.024033263 -0.006892774 -0.02282129 0.040385764 -0.015110631 -0.014655485 -0.017835595 -0.0448112 0.012702654 0.017188491 -0.03112429 -0.04112315 -0.029401837 -0.029879013 0.030736474 0.023603259 -0.03668415 0.04102256 -0.026859945 -0.021423977 0.016869575 -0.0061334106 0.023226647 0.0004492226 -0.0028304635 -0.024342692 -0.029223818 -0.021335745 -0.025053946 0.029437844 0.021750256 -0.034170985 -0.034733444 -0.0279299 -0.026613398 -0.015244133 0.034597676 0.024834106 0.01294769 -0.044141904 0.016994245 0.024764553 -0.009218234 -0.012798306 0.047024526 -0.053075954 0.015974509 -0.014163818 0.05417824 -0.03254382 -0.011728651 0.024559174 -0.006325141 -0.011201743 -0.0275455 -0.050167494 0.009831028 -0.008386393 -0.036554962 -0.012760959 -0.022547286 0.027400726 0.011313808 0.042720176 0.04795247 -0.023793573 0.04579366 -0.04016175 -0.030108444 -0.018651599 0.008464276 0.011070176 -0.042494323 -0.036094293
shares 0.0042696 -0.029839886 -0.036821842 -0.043963406 0.017890828 0.023089478 0.032367274 0.018424558 -0.038342882 0.029910887 0.033652436 -0.017180687 0.021276804 -0.024688067 -0.020967966 0.017221935 -0.017012443 -0.02439174 -0.0071645672 0.05051138 0.046224657 -0.04620016 0.0065614367 0.031583704 0.0046250513 0.037009485 0.025280422 0.036863234 0.04516133 0.037468 -0.032483917 0.007055003 0.052156854 -0.020888021 -0.010634173 0.018468292 0.026641924 0.055196345 -0.012236216 -0.0083602555 0.016944693 -0.0006773828 -0.016954219 -0.007133291 0.033270407 0.010553213 0.035878528 0.035820283 0.034254048 0.026616903 0.015304681 0.04212718 -0.045248963 -0.008619693 -0.04344598 -0.01668052 -0.05014254 0.025771922 -0.041605126 0.05475398 -0.011876094 -0.026508057 -0.03728851 0.03095947 0.006883532 0.04921393 0.011809378 -0.008653021 0.0113972165 -0.027840767 0.011801027 0.038635153 -0.023984255 -0.042777766 -0.037927467 -0.03897442 0.021022733 0.027168497 -0.012955447 -0.002420062 -0.04443018 -0.038908977 0.028551562 -0.026930856 0.013851037 -0.052705716 -0.002020298 0.01155733 -0.02669698 -0.044443175 -0.039745983 -0.024378901 0.0015078313 0.009453604 -0.044297606 -0.014665382 0.032812223 -0.026630731 -0.015043956 -0.004279308 -0.03650673 -0.019037839 -0.011327992 0.052231483 0.0011005662 -0.051214296 0.012325826 0.010679365 0.03128209 -0.043564342 -0.052960288 0.03701976 -0.023882585 -0.035155874 0.051254775 0.044712212 -0.004841266 0.043296326 0.0018065054 -0.0035993226 -0.040361222 -0.0038063214 0.005186405 0.04069198 -0.003413677 -0.029512392 0.046617188 -0.04932217
per -0.029697863 0.010335334 -0.030486444 -0.015173363 -0.015650459 -0.01909625 -0.017494557 0.00864116 0.028022833 0.039918177 0.045221977 -0.03016136 0.0071686115 0.043108754 -0.026531458 -0.03748277 -0.0098996265 -0.035828725 0.040090393 -0.045309737 0.053256176 0.023388503 -0.021742366 0.026714135 -0.050568916 0.047238138 -0.003637878 0.03003892 0.039046314 -0.036426775 -0.027963722 -0.04812299 0.0026457282 0.00041539225 0.036805715 0.01299501 0.053131822 0.028388448 0.0007434248 -0.039252315 0.043689083 -0.011751639 -0.039473083 -0.036266323 -0.03472794 0.03381998 -0.048867814 0.003066653 0.035864666 -0.009187595 0.02055429 -0.0495163 0.014178697 -0.025122467 -0.033829123 0.029636435 0.0073188962 0.05328987 -0.01551984 -0.009594127 -0.02363114 0.0310186 -0.019241035 0.014038823 -0.022653526 -0.0025680023 -0.024964808 -0.00062066753 0.036038827 0.033611964 0.025448304 0.014684289 -0.011972669 -0.041787602 -0.00054872315 0.025935028 0.026315605 0.0033144248 0.0054521514 0.0056811613 -0.03300316 0.0020114793 -0.023766892 -0.0016542438 0.04172232 -0.042052135 -0.008145103 0.04524122 0.022226239 0.027987162 -0.027114905 0.011824113 -0.0046021426 -0.00079913496 -0.020285575 -0.00083684066 0.026982784 -0.037220016 0.012550884 0.02643528 -0.04578646 0.0010708852 0.005260649 -0.008244747 -0.010273151 0.0039146794 -0.029848304 -0.023061117 -0.04459881 -0.04508232 0.0048908484 -0.0083972085 0.0026102865 -0.036993608 0.038928792 -0.03881058 -0.035009693 0.023811432 0.0064848727 -0.049756013 -0.00702927 -0.010817511 0.010578594 -0.028650973 -0.024414653 0.02174921 0.046081442 0.0064555765
income -0.015028677 0.052959617 0.029605629 0.029591762 0.018501379 -0.042628344 -0.0021011203 0.04320448 -9.238429e-05 0.025698878 0.0029392974 -0.01813849 -0.04706494 -0.039365645 0.010753011 -0.024036163 -0.039417867 0.010811667 -0.048448388 -0.0011699123 -0.017723342 0.005228378 -0.020886654 0.016652202 0.0010704993 -0.0007341641 -0.044973377 0.0232264 0.026631512 0.04324957 0.0027128572 0.026650226 -0.027454788 -0.030913407 0.005560943 0.03236452 0.041065145 -0.02711637 -0.039524984 0.046571966 -0.033979893 -0.021860553 0.03884002 -0.005913683 0.030592177 -0.03821502 0.017874526 0.024858186 0.017799003 0.05215091 -0.034908403 -0.02166618 0.001943243 -0.03696737 0.0033893362 0.008682575 -0.044615507 -0.014099996 -0.020314846 -0.024332628 0.023390682 -0.025514534 0.01386655 -0.04585383 -0.011344192 0.04063733 -0.011512461 -0.028781863 0.03529097 -0.0544205 -0.031530503 0.040203426 0.025960706 -0.012172591 0.013590896 0.050972782 0.02121305 0.023031948 -0.03617102 -0.008796672 -0.050938834 0.029959189 -0.016665542 -0.044159114 0.011999835 0.009689475 -0.03549385 -0.04140418 -0.044587344 -0.01524141 0.010197702 0.027414363 -0.036941834 0.027807783 0.046819545 -0.034177314 0.007321446 0.018784145 0.045249667 -0.028127043 0.0060160514 0.037111882 -0.03289653 0.037108023 0.039996885 0.021428393 0.012834298 0.009561432 -0.008147643 0.015677312 -0.03798165 -0.03099724 0.04667243 0.010563935 0.03189727 -0.02632716 -0.022952715 0.019108418 0.006450644 0.019061364 0.013317351 0.022555357 0.029237444 0.04796083 -0.039990272 0.0020834145 0.005295009 -0.024406182
u -0.022032099 -0.03343891 0.0022070603 -0.035143606 0.032674294 -0.0062645175 0.048288316 -0.035921697 0.03239255 -0.014413071 0.01683428 0.029077746 0.038160782 -0.041568756 -0.051124144 0.03377666 0.029344464 0.029097611 0.021896517 -0.00019955897 0.055405118 -0.037180856 -0.0033568998 -0.031158831 -0.019364897 -0.027938217 0.031573072 0.045440834 -0.016471637 0.014176811 -0.023739085 0.028282749 -0.044692878 0.049294535 0.0015182043 -0.0097291125 -0.02485387 0.026110187 0.01554503 0.0029418236 -0.005173661 0.03361732 -0.00091850606 0.047239773 0.030760815 -0.0031992742 -0.003966886 -0.044373434 0.054448 -0.028737394 0.026400624 0.0026730285 0.014849429 0.024868328 -0.01760296 -0.04738362 0.014906716 -0.009018661 0.036352284 -0.023705218 -0.017105682 -0.035477273 0.004506989 -0.045610145 0.038035244 0.044371095 0.03665912 0.0043133474 -0.044259038 0.0015493069 0.010809953 0.003073889 0.00017556558 0.009379037 -0.039795775 -0.016997071 0.04393623 -0.019579576 0.0368249 -0.009112345 -0.0019673784 -0.0048921 0.00018600421 0.03509251 0.046517104 -0.042379107 0.03880663 0.052787457 -0.04697618 0.0019493179 -0.0064363284 -0.035869204 -0.008657491 0.031922355 -0.0327359 0.04376331 -0.034808848 -0.037043374 -0.019226585 0.011527183 -0.038254764 -0.027036693 -0.04930499 0.015453259 0.025961686 0.0056923702 -0.010463032 0.030372288 -0.010803965 -0.043994457 0.012155255 0.025876353 0.027892102 0.041989475 0.005317028 -0.047881726 -0.0011133427 -0.017715318 -0.024709404 -0.04392102 0.04328032 0.034955274 -0.006803911 -0.0074401833 0.022736462 0.033479024 -0.026103392 0.010860803
sales 0.0048684785 -0.0038330762 0.029171353 -0.03310876 -0.027193682 0.024891432 -0.017532762 -0.042405393 -0.02175757 -0.044819072 -0.0296638 -0.039035317 0.022707904 -0.048331495 0.03605771 0.016540099 0.028417373 -0.043192133 0.011080464 0.046602212 0.00055627245 0.037006114 -0.041290265 0.0431397 -0.044914782 -0.015100393 -0.018935442 0.05048614 -0.0023391745 0.043004334 -0.040401116 -0.022432102 -0.03329591 0.016848197 0.023968784 -0.014180646 -0.036976118 0.03535017 -0.021629177 -0.008798881 -0.010402471 -0.031457137 -0.04207842 -0.03698661 0.0045991363 -0.0035229498 -0.035942737 0.019720616 0.0014594235 -0.015057718 -0.032813564 0.0025339753 -0.029940048 0.04323888 -0.028274957 -0.008459655 -0.0393999 -0.033169072 0.005008728 -0.02348458 0.013624407 0.03708905 0.043327525 -0.039085772 0.05417855 -0.034416698 -0.041414645 -0.014279269 -0.03516059 -0.032001514 -0.030499537 -0.036669794 -0.0029336633 -0.0542306 0.035326146 -0.016226418 0.023814399 -0.036004744 0.038019516 -0.004678352 0.0324569 0.048674945 -0.014176298 -0.03209123 0.027561557 0.017403642 -0.034077384 -0.042474467 0.048083536 0.04108305 -0.012622565 -0.01852269 -0.019276425 0.023860289 0.018416595 0.0108653745 0.041508056 0.046780672 -0.044827223 0.005810789 -0.0129473545 -0.020830477 -0.021944536 -0.015335692 0.021938665 0.022347894 0.016371321 0.016927203 0.011458526 0.008518329 0.018021435 -0.007330478 -0.010206981 0.013356263 0.047882445 0.034972753 0.036446355 -0.013500548 0.031102534 -0.022091463 0.009410478 -0.014883119 -0.009217699 0.03454376 0.04308801 -0.013069972 0.04816265 -0.03823267
cash -0.03330178 -0.010047966 0.01666569 0.016090253 -0.041520618 -0.036412988 -0.01857071 0.016362451 0.005078568 0.014292388 -0.0135436775 -0.016831847 0.00405469 0.04648163 -0.02709964 0.044134993 0.0035632986 -0.04719262 -0.021154583 0.03415904 -0.018544441 -0.03532382 0.013701038 -0.012726163 -0.025831928 -0.048769318 -0.00022563085 0.027697206 0.036843546 0.0027727843 -0.009513933 -0.024748273 0.0032086335 -0.018587235 -0.04332209 0.027461993 -0.013408516 0.029454175 -0.011170118 0.03753494 -0.018316438 0.022206774 -0.024011249 -0.049412716 0.037789542 0.03965793 -0.042636257 -0.008019286 -0.038817953 -0.01290681 0.03729051 -0.052869517 -0.0022594929 -0.027851239 -0.045911107 -0.047993004 0.022373844 0.05539438 0.002621576 0.04514529 -0.028369872 0.03957678 -0.0043294006 -0.005725269 -0.03889652 0.04986328 0.047744025 0.0031999901 0.0046121343 -0.04946681 -0.0031518496 -0.04503552 -0.051877372 0.004269701 -0.018922102 -0.034472782 -0.030683983 0.040850196 -0.012007319 0.033261124 -0.012763986 0.02831064 -0.050487004 -0.038262647 0.007991219 0.05395738 -0.024513913 -0.025497455 -0.0034601109 -0.0034955586 0.022942958 0.036175262 0.0135317035 0.042435538 -0.032564122 -0.017807996 0.0121461 -0.00807241 0.010841124 0.012410326 0.011599547 -0.04291528 0.005279296 -0.028646126 -0.015412383 -0.028527673 -0.046396833 0.015481802 -0.046896804 0.034473125 -0.016902782 0.0033916475 -0.006542955 -0.05339294 -0.004767177 0.052193526 0.0208984 0.018019322 0.043688085 -0.040939003 0.023429211 0.02349975 0.020900879 -0.037497405 -0.04203964 -0.0109832045 -0.037760604 0.026051313
with -0.041707892 -0.0032260248 -0.04811698 0.017573016 0.016456231 -0.0049773194 -0.040883116 0.0111418255 0.012916361 -0.019678636 0.01750299 -0.04679706 -0.030485468 -0.026693743 -0.022637056 0.008261278 -0.035611343 -0.00014588966 -0.049912803 -0.0024616409 -0.011521211 -0.05154 0.0306163 0.030614821 0.011932049 0.009438471 -0.010091627 0.018053986 -0.01930883 -0.0090617845 0.038223222 -0.0038062541 -0.017322948 0.01615207 0.016946333 -0.01629295 0.0011205473 0.017692162 -0.0026799825 -0.040314674 -0.0032639618 -0.02540919 0.023048665 0.02780243 -0.031353753 0.019853517 -0.028898157 0.035760548 -0.026224798 -0.017875435 -0.041991513 0.040220477 0.009824915 -0.047497395 0.015988065 -0.041864686 0.025156362 -0.028311837 0.024738312 -0.039449763 0.033254642 -0.04607818 -0.033590615 -0.031864006 0.016416742 0.03942149 0.03942222 -0.017930256 -0.02291998 0.024159076 0.023365788 -0.016027197 0.00783126 -0.0025080917 0.012610346 -0.04896672 0.030297352 0.014239137 -0.046721693 0.042676438 -0.0042086556 -0.021696389 -0.01374439 -0.00034056956 -0.045681674 0.036467724 0.019865315 0.014607685 0.048965264 0.013770943 0.03391628 0.023622291 0.016125575 0.007750035 0.030719183 0.01757461 -0.025552189 -0.033856295 0.040171564 -0.021804923 0.036904722 -0.031751014 -0.04959266 0.02666212 -0.02376447 -0.031660162 -0.044630013 -0.036621824 -0.001299059 -0.038400486 0.0061687767 0.04481966 0.007267673 0.013095487 0.014378367 -0.03250256 -0.022621285 -0.049171373 -0.047201045 0.008281822 0.032097213 0.006448052 0.026664205 -0.025849968 0.012028933 0.02296524 -0.020011844 -0.052187562
inc 0.021702616 0.0073163025 -0.040657222 -0.03685638 -0.012391314 -0.0067940666 -0.03738693 0.022638995 0.021807311 -0.053440068 -0.0005063874 0.00907243 0.020176675 -0.005542583 -0.0061588753 0.043838345 -0.00797941 -0.035094652 -0.018598534 -0.014265738 0.023523897 0.041898336 -0.018072799 -0.010314244 -0.031615235 0.03506308 -0.014239435 -0.0016544588 0.02897735 0.050768975 -0.012272658 0.0071355198 0.016861789 -0.03008453 -0.032225166 -0.007536877 0.011958013 -0.030221839 0.031764496 0.046139557 0.01770522 -0.040082503 -0.034707557 0.042587332 0.043277994 -0.026748782 0.020379944 -0.004850368 0.0485721 0.045142762 -0.014088981 0.0069271005 -0.034021758 0.04781878 0.0070756725 0.007877374 0.03174385 0.02475711 -0.047344312 -0.03606761 0.046687234 0.002937648 -0.03285609 -0.043762743 0.040009793 -0.016167425 -0.012103485 0.033750396 -0.028979512 -0.001578352 -0.0059338748 0.027369043 0.0015702547 0.046360772 0.029195543 -0.006501492 0.009342651 0.0023660355 -0.01662647 0.028187864 0.0022446 -0.028478038 -0.032351542 -0.032075867 0.027680255 -0.039774142 0.025882168 0.0061299866 0.036713358 -0.016362019 0.00963462 0.03240961 -0.035064336 0.0330379 0.033861138 0.03775015 -0.050631206 0.012847059 0.024695914 -0.031632558 0.050052717 -0.04031285 0.040937968 0.017396754 -0.044652645 0.013584463 -0.025387146 0.0062013576 0.020291667 -0.04005601 0.026593586 0.00094327447 0.0034339584 -0.011368127 0.039305598 0.004661779 0.04803932 -0.030669255 0.006038346 0.047887675 0.03188902 -0.014151604 -0.010217305 0.05541668 -0.053136293 0.016854726 -0.034740172 0.027263157
oem -0.017263146 -0.003078625 0.0053625805 0.0054805237 0.04140564 -0.04768669 -0.024774363 0.005709942 -0.02906635 -0.031126842 -0.027537437 0.00351358 0.017702691 -0.028131891 -0.02423484 0.00039315154 -0.036284626 -0.040942974 0.039753325 -0.012063947 0.043500453 -0.0052456725 0.032425694 0.04274174 0.0029334805 0.026309632 -0.040657066 0.009126131 -0.0025318004 -0.0071538286 0.006233351 -0.007640998 -0.00228868 -0.015912471 0.04398163 -0.03818765 -0.02038234 0.012283357 0.017369542 -0.03421861 0.005702211 0.013965327 0.03901262 0.011212847 -0.0027627966 0.0060826866 -0.048154105 0.02006069 0.040752992 0.029470554 0.035740398 -0.03858331 0.042784203 -0.030127322 -0.051394887 0.024322385 -0.014539896 0.019137666 0.02580513 0.00942791 0.054936 0.013033774 -0.02455651 -0.050855044 -0.0029607357 -0.005018965 0.00078330224 -0.028171124 -0.030836323 0.01995264 -0.041639414 0.043527357 -0.0089348005 -0.035087578 -0.049410764 0.023757381 0.033956327 0.031117128 0.040866703 -0.04085009 -0.03530686 -0.02245192 0.028966503 0.036970343 -0.0013913019 -0.0034409026 0.022365512 -0.031030994 -0.023626884 0.0037099156 0.008032414 -0.041357193 -0.0011402941 -0.0334208 -0.017292012 -0.0032732345 -0.008628457 -0.016968291 -0.02736769 0.039467435 0.0010232345 -0.035023477 0.02909762 -0.0022826227 -0.017786408 -0.041470725 0.036160298 -0.0031460125 -0.04118749 0.03110048 0.018125791 0.009130923 0.034680184 0.035762478 -0.013137256 0.02075857 0.013148055 -0.004831734 0.008822607 0.035794802 -0.017061867 0.00024164468 0.005569149 -0.01865321 0.0097811315 -0.012791249 -0.01878781 -0.035548314
operating -0.025168596 -0.01937644 -0.0149249155 0.011266662 -0.024934595 0.04654751 0.010569287 -0.023001606 -0.008026779 0.017206231 0.04605636 0.025192814 0.016173262 -0.04655606 -0.036909293 -0.02044816 -0.021162486 -0.046528775 -0.011846768 -0.047937058 -0.040543277 -0.041864112 -0.014383038 0.044557773 -0.032468103 0.05277386 0.03069866 -0.0068894 -0.013930588 0.0434982 -0.003389392 -0.013031781 0.027321719 0.0052461647 0.041409858 0.029640561 0.04313941 0.053235088 -0.027142776 -0.040045287 -0.03159852 0.024464026 0.044071145 -0.0013422099 -0.009168308 -0.010502277 0.0025743898 0.012049476 0.034444425 0.006974095 -0.01760796 -0.050869446 -0.01753976 0.019955209 0.029900001 0.029498704 -0.047516298 0.03674054 -0.029623725 0.00089497765 -0.038390562 0.0025314083 -0.02593336 0.04624552 -0.033994105 0.014924044 -0.01095976 -0.045048196 -0.051148493 -0.016656771 -0.034218896 0.005481219 0.032531578 0.011336706 -0.050455578 0.049091373 0.04905315 0.026575627 -0.005059218 0.032263298 0.00021299766 -0.01789868 -0.025828386 -0.016227964 -0.046429306 0.019537799 -0.026911424 -0.032048814 0.04234722 0.013570686 -0.039978042 0.028758185 -0.00908226 -0.033599783 -0.04170206 -0.03520964 -0.0058178175 -0.017165702 0.025357492 0.000112642476 0.006543381 -0.019274868 -0.02814102 0.028698001 0.0420456 -0.046168454 0.035908084 -0.020144826 -0.021436794 0.020218037 -0.030643338 0.013898542 0.010189414 -0.027579848 0.03266251 0.025431726 0.0019475315 -0.055094834 -0.02356472 0.02393881 0.014690119 -0.04418885 -0.05170953 0.038437936 0.028242633 -0.007394298 0.032281905 -0.020839756
securities -0.013821672 -0.025461558 0.009380559 -0.021866472 -0.011773178 0.015333345 -0.043533757 0.033071645 -0.02388556 -0.013624976 0.047650177 0.029679298 0.03815915 0.039099682 0.039387725 0.02708987 0.024428688 -0.014020951 -0.026407363 -0.028682027 0.0401009 0.028864997 -0.014511221 -0.02211832 0.012855769 0.042593386 0.004256663 -0.005387162 0.016094737 -0.0014099949 0.0337275 -0.011051748 -0.01866672 -0.002832053 -0.04131875 0.025329178 -0.026031446 -0.022485187 -0.0077764443 0.032656703 0.038551625 -0.041734286 -0.024680153 -0.04094663 -0.012837419 0.022261104 0.012587538 -0.046083003 -0.00016992446 -0.0054259147 -0.023248538 0.019249696 0.032500092 0.023517217 0.008904673 -0.0031311903 0.044190615 -0.013076013 0.03512063 0.040770426 -0.027510397 -0.011685624 -0.015355743 0.00052237837 0.03080224 -0.01723438 0.048359383 0.039887466 -0.022019366 -0.035007637 0.036157638 -0.0056024515 0.038350563 -0.017799366 -0.010587326 0.03990115 -0.030013774 -0.04128342 0.037110426 -0.03178688 -0.052470777 0.030861484 0.035018615 0.014333241 -0.027724057 -0.011627905 -0.028076591 0.048751578 -0.0025304602 0.00180538 -0.016703084 0.048715778 -0.0072127953 -0.025221486 0.00577181 0.022025194 -0.035391193 0.049727216 -0.00060762797 0.042825885 0.0063323313 0.01960899 -0.0025404412 -0.04039987 -0.00020153631 0.04486818 -0.037271757 0.035352357 0.034566883 -0.053687215 -0.032863624 0.021997811 -0.015928904 -0.021203574 0.041143484 -0.0046543595 -0.03483849 -0.04716488 0.04660935 -0.028133046 0.024392495 0.036683287 -0.013800196 0.016904803 -0.021856438 -0.047025885 0.02216406 0.019631008
its 0.04008651 0.02538729 -0.05569996 -0.050821315 -0.010822899 -0.017325219 0.011613895 -0.016397925 -0.021377038 0.046332885 -0.032765362 -0.026462495 0.044098474 -0.044368643 0.03678289 0.02344126 -0.0056108027 0.051370118 -0.022362666 0.0013961665 0.046937738 0.0018349207 0.008866348 0.012597329 0.031230712 0.04715518 -0.01797718 0.035033703 -0.043222275 -0.019575017 -0.04690731 -0.051947214 -0.012197487 -0.015244318 -0.022117466 0.011518897 -0.034114514 -0.0067662634 -0.0034454803 0.029218232 -0.0039256313 0.05141395 0.0251301 0.0103255045 0.010646642 -0.033588436 -0.0397701 0.053948972 0.0031253013 0.0054365564 0.028622445 -0.02181707 -0.021581726 0.04652946 -0.012623048 -0.021096237 -0.022960333 0.03803855 0.027410204 0.005167659 -0.028223626 -0.0046213367 -0.037600234 -0.019747932 -0.028453317 0.027470987 -0.039130032 -0.013090981 -0.022719584 0.004101539 -0.039152507 0.007773132 -0.049974933 0.042304456 -0.022747567 -0.03148727 0.05109023 -0.015247251 -0.03504194 -0.038996156 0.021450983 0.026142068 0.02220548 -0.043880805 0.02392941 0.007511429 -0.035175 0.019355599 -0.036240224 -0.019926822 -0.037172623 -0.027504632 0.030060569 0.030119723 0.0071884166 -0.004351618 -0.028428363 -0.0011161244 -0.016690437 0.007511124 0.047682572 -0.038989775 0.018901523 0.014555339 0.029337693 0.0057226787 0.007624447 0.014051631 0.0007855868 -0.026625179 -0.030529741 0.016819187 -0.01500792 0.002545996 -0.021954443 0.033035826 0.008771142 -0.0013302044 0.0050733723 -0.006539424 0.023266125 -0.052317724 -0.0067624953 -0.039214436 0.014108161 0.015778024 0.025318816 0.03758864
been 0.003907342 0.0115702655 0.037153654 -0.049496666 0.043470178 0.0012346674 -0.046872266 -0.05036494 -0.040531456 -0.026726611 0.04371841 0.012704013 0.024193844 -0.037649624 -0.019764667 0.037021548 0.046701666 0.02651766 -0.02785974 -0.020334944 0.014680692 0.007269859 0.01039718 -0.02621772 -0.013467211 0.049205303 0.02276881 0.038862407 -0.03691788 0.050499972 -0.049004238 0.003963515 0.011282317 0.0394193 0.038687203 -0.039089654 -0.039992627 0.010627807 -0.022993986 0.035055026 0.030182438 0.0072415965 0.02821197 -0.0020970404 0.029876227 -0.035395343 0.04057809 -0.02883723 0.026169758 -0.03783137 0.021506539 0.025297945 -0.009322862 0.012578658 0.014004919 0.020220276 0.037366796 -0.031104146 0.014005123 -0.020639068 -0.0419693 -0.005254212 0.012437851 -0.0057258103 -0.019977398 -0.01272562 0.04339064 0.047112554 -0.030019583 0.045293316 0.0077643488 -0.017561764 -0.011105946 -0.016141023 -0.028415574 -0.0012880543 0.021629864 -0.05173582 -0.032745466 0.0003990877 0.044652723 -0.03874757 -0.02756831 -0.04990845 -0.020876866 0.035048727 0.036930658 0.033735458 0.04259899 0.0067899376 0.016841605 -0.026419269 0.023789268 -0.008708589 -0.039839774 -0.018636908 0.008357767 -0.009943358 -0.046164718 0.0069640037 -0.0045048706 -0.041706484 0.02478471 0.040228028 -0.042119022 0.024237392 0.0063972427 0.024738375 0.0012871436 0.021879649 -0.030264828 -0.03978982 -0.015664559 -0.03713991 0.01371373 0.0012082144 -0.045354124 -0.043255605 -0.03854084 0.022566954 0.02390688 -0.020352772 -0.036637377 0.017314417 -0.04502219 0.04491585 -0.018763667 0.042140763
company's -0.04751843 0.0023312613 0.03299472 -0.031901006 0.014661271 -0.042201273 0.0223133 0.030631563 -0.03205683 0.043570206 0.025237931 -1.9522035e-05 -0.038711563 0.02682879 0.02357982 -0.00959687 -0.04151615 0.03523758 0.024362128 0.0102515975 0.04574918 -0.048329793 -0.012488055 0.0015827178 -0.052428048 0.0005872054 -0.028071241 0.021725584 -0.008721902 0.028519612 0.033789102 0.011563427 0.023390077 -0.006207062 0.014674291 0.022502568 -0.035505664 -0.01143532 -0.04086642 0.03588603 0.008034273 0.043010045 0.0050435215 -0.028657867 -0.024658471 -0.043705437 -0.025956413 0.007000167 0.003372556 -0.014197123 0.015455505 -0.027854213 0.008092486 -0.014812894 -0.010262055 0.04163923 0.027931051 -0.034865282 -0.04415566 -0.0076216385 0.0071444386 -0.030255608 -0.0037888258 -0.006664328 -0.039487027 0.01574917 0.005983197 -0.038188454 0.019393187 -0.03043562 -0.045360297 -0.037499625 0.03407953 -0.031998042 -0.051035326 -0.016586497 0.051600263 0.0139076 -0.018817624 -0.017021663 -0.012716135 -0.0281738 -0.04548689 -0.048436135 -0.030429298 -0.0066650393 -0.037486717 0.0036927343 0.031182012 0.029369194 -0.027640628 0.016704347 -0.010962993 -0.013611868 -0.0061552925 0.03227926 -0.008502733 -0.0008613476 -0.011523529 0.047620393 -0.030110275 0.02921528 -0.031078175 0.04644448 -0.036144026 0.035845414 -0.019210195 0.00523234 -0.032425188 -0.01941909 -0.05549938 0.04877554 -0.03838541 0.012964379 0.05217094 0.031360723 -0.00156232 -0.042386394 0.008319963 -0.04820443 -0.020255057 -0.024510643 0.027281497 0.018912045 -0.024283225 -0.029695077 -0.008322913 -0.027665973
will -0.04048986 -0.024807025 -0.048308045 0.0035226932 0.041149814 -0.023816336 0.015301821 -0.0393818 -0.006230558 0.042647135 0.0452798 -0.019443909 0.009964525 0.05108827 -0.033013865 -0.028228668 0.01899241 0.04023807 0.046263773 -0.0055855243 -0.042833425 -0.030763198 -0.04219202 -0.053992763 -0.0044691353 0.028752359 -0.026810639 -0.044390887 -0.036023423 -0.022913828 -0.019366704 0.015870187 0.015957424 -0.007697505 -0.046428517 0.028995154 -0.032433532 0.05111694 -0.027737478 -0.03147974 0.0037534628 -0.0014768695 -0.025614947 0.00194989 -0.0030208074 0.011183092 0.022856545 0.03627737 0.005790785 0.02942601 -0.0048473557 -0.051126868 -0.025751859 -0.046303894 0.046637084 -0.036190376 -0.0092248805 -0.009545862 -0.047428574 0.0014738073 -0.012685815 -0.020787288 0.055080853 -0.0007014312 0.01767624 0.034929667 0.032202132 -0.032008603 -0.037157137 -0.031153908 0.054293923 0.015738623 -0.005120566 0.018229742 0.021070434 -0.016712295 -0.026274534 -0.04294437 0.031737614 -0.026471945 -0.011638656 -0.035849147 -0.029115496 0.005381399 0.0024544033 -0.0075511076 -0.03233233 -0.007693532 0.02543743 -0.03348872 0.033014745 -0.031199958 -0.03357541 -0.034490813 -0.006119642 -0.0092901755 -0.029605735 0.027824948 -0.018820524 0.042691678 -0.019823985 0.050270412 -0.0021887266 0.031711373 0.015294192 0.030235486 -0.02542716 0.030231394 0.025093693 -0.003733857 0.022895757 -0.040926766 0.01591706 -0.011910782 0.04334865 0.010061393 0.033208102 0.040943656 0.0011886145 -0.019613663 0.019613065 -0.050051462 0.038090866 0.009460292 -0.008046293 0.023202159 0.014255853 -0.025721708
court -9.060674e-05 -0.030232366 -0.034270044 0.03348703 -0.04561275 0.025546012 -0.040905688 -0.001978141 0.03160899 -0.009993519 0.039404634 -0.0076143295 -0.004281087 -0.022852546 0.02407704 0.01678557 0.043564167 -0.034372058 0.028217051 -0.013591025 0.033309292 -0.0032986864 0.020650867 0.034573767 -0.03332615 -0.036414515 0.0046947035 0.018954175 0.033484068 0.042544138 0.009680719 -0.030028122 0.048154447 -0.008698231 -0.005419891 -0.053345922 0.021349432 -0.0010144562 -0.016313668 -0.0053256056 -0.05295943 0.015402544 -0.028036883 -0.02747665 0.014631266 0.008676742 -0.0153951105 0.03931941 0.009371538 0.045733895 -0.0015138497 -0.013549624 -0.04473876 0.034698855 0.01532596 0.022733008 0.044645764 -0.019079482 -0.006494357 -0.0025349688 0.037241 -0.05164758 0.0025491873 0.00085684576 -0.012573076 0.04198129 -0.042569626 0.025429856 0.008805091 -0.031303413 0.011716142 0.028143616 0.019483725 -0.022712378 -0.051228736 0.003746029 0.036256306 0.0444997 -0.016469298 -0.056767102 0.044726297 0.013297567 0.025472641 0.033605568 0.041213423 0.0343001 0.027914286 0.04544151 0.02702241 0.043127917 -0.038131334 -0.03240951 -0.03939117 0.022371808 0.008367767 -0.04143905 0.02085696 0.008731674 -0.055875678 0.012444761 0.052508097 -0.038483795 0.021860296 0.027527217 0.031183014 -0.037083153 -0.016921887 -0.034926854 -0.04412089 -0.0085723605 -0.02819685 -0.020939277 -0.026378345 0.020583604 -0.021496322 0.01660078 0.008067542 -0.028042993 -0.039682094 0.028413728 -0.031489585 0.021028562 -0.007837043 -0.032812916 0.048763838 -0.0150945615 0.04158534 -0.043465905
apple -0.04619423 0.0033539608 0.022271428 0.0008926553 0.017764052 0.028437587 -0.016982587 0.018395372 -0.0404417 -0.03122585 -0.02766457 -0.013344729 0.044059567 0.039402675 -0.05047374 -0.027658625 -0.047707908 0.034778442 -0.04972914 -0.0020525085 0.03237297 -0.032261122 0.022809 0.043732274 0.02382814 -0.033305414 -0.016547628 -0.021278434 0.021404404 0.018072775 0.043764733 0.020575875 -0.034374245 -0.01665568 0.030920917 0.0022601513 -0.021621123 -0.015592047 -0.035177376 0.026801568 -0.014456493 -0.02793596 -0.018724903 -0.033188544 0.0148274815 0.021073274 0.025701085 0.02668605 0.0059606014 -0.003024265 0.043690734 -0.034360476 0.041403282 -0.035046443 -0.035348985 -0.0071806554 -0.032455835 -0.0415541 0.017889068 -0.037257 0.00061305356 0.019011578 0.029035833 0.011812358 0.010774107 0.03406484 0.03831112 0.013299149 -0.041509323 -0.00017116308 0.047398854 -0.03678945 -0.010589982 -0.0037246107 0.017544176 0.04214558 -0.02691388 0.02467137 -0.036773708 -0.044747517 -0.014790859 0.039362684 -0.04622463 -0.0325805 0.025438853 0.011032954 -0.0108401105 -0.04064189 0.039112907 -0.018911758 -0.03513078 0.032675445 -0.00017486577 -0.024232749 0.016218424 0.008514946 -0.018829571 0.038726266 0.031507436 0.017765654 0.015095309 0.053470325 0.0431423 -0.028548967 -0.02012157 0.02995689 0.0026247583 0.030553417 -0.026014037 0.0253291 0.0043355725 0.02709687 0.011934879 0.0072689643 -0.014275238 -0.031481426 -0.01922148 0.0060172966 0.046278875 -0.021258123 0.048991878 0.03853282 0.021956725 0.030548856 -0.049366627 -0.043820985 0.015363171 -0.014656437
expenses -0.0022102434 -0.023470465 0.0329288 0.03527327 -0.028710622 0.008499998 0.03955893 -0.0019917723 0.032681245 0.036569666 0.047573976 0.0320573 -0.0023449466 0.042920493 0.04560458 -0.0065155737 0.030366609 0.008257908 0.043674063 -0.020931955 -0.039188903 -0.0050153327 -0.040546346 0.041656915 0.00948048 0.0065529807 -0.023979759 0.0094375 0.027211856 -0.0019229784 0.027970424 -0.01652948 -0.040846158 0.03581468 -0.033972036 0.0014626104 0.055542327 0.05073939 0.036127567 0.024226014 0.019081153 0.0018200385 0.0032537708 -0.02919665 -0.0006548213 -0.03130448 0.010212577 0.0011601484 -0.026563047 0.039034646 0.041248266 -0.040286772 0.004606347 -0.0013408691 -0.035454903 0.005312265 -0.018226111 0.02917502 0.05279829 -0.0038761229 0.01977248 -0.035393924 0.046446156 -0.037030537 0.0052517066 0.01452398 0.025015403 0.02642856 0.040378798 0.004384096 -0.028856788 0.031840157 -0.020638328 -0.00021236762 -0.02663601 -0.007219302 0.0070874216 -0.043241255 0.02954438 -0.026129417 -0.044221133 0.0028308246 0.042411417 0.00039706903 -0.04024873 -0.03332787 -0.008670831 -0.04393863 0.014619929 -0.02656121 -0.017017396 -0.03685556 0.023109548 -0.033563364 0.039614893 0.044971123 -0.00017020859 0.025885187 0.00818897 0.05395228 0.046210222 -0.029670253 -0.043843754 -0.0069956407 -0.0312614 0.0051670084 0.03705068 -0.029505897 -0.039965454 0.036581673 0.03453348 0.01634469 -0.0009486546 -0.0038214247 0.028475488 -0.012302295 -0.011198037 -0.04390581 0.027495736 0.010640967 -0.035111383 -0.033869095 -0.043245148 -0.035965875 -0.023906538 0.019877143 -0.032252517 -0.03280083
form -0.04796263 0.035165466 -0.001142934 0.014073245 -0.049130388 -0.04934394 -0.031834617 -0.019894904 -0.027350433 0.03711411 -0.011050986 -0.048068617 0.013321457 -0.017375056 -0.045426633 0.011791873 0.01664336 0.028679155 0.03502716 -0.0005952488 0.03639839 0.0069531673 0.033901993 -0.0151708685 0.013395921 -0.029067192 -0.004338802 0.01675105 0.0008449512 0.030536082 0.05028986 -0.02362095 -0.0023106884 -0.027052144 -0.009421656 -0.051664427 0.027520671 0.002461506 0.01628352 0.030484846 0.008731539 -0.010878657 -0.014614602 -0.025830224 -0.0448148 0.032221287 -0.04930629 -0.0088646775 -0.0004367379 -0.020299027 0.021322927 0.047360905 -0.001773773 -0.022464456 -0.050168544 0.035131417 -0.008579458 -0.021698426 -0.038835414 -0.024048332 0.040091988 -0.009752116 -0.03315853 0.0330621 -0.037828192 0.03752667 0.02558144 0.020785222 -0.048661396 -0.032178726 0.0025211647 0.04557576 0.0394757 0.010502528 0.03648789 0.023326403 -0.03168932 0.008165857 -0.023194466 -0.001030171 -0.021918464 0.01693752 0.029565552 -0.0076665496 -0.030929727 0.0022389637 0.027440647 0.033128086 -0.022897279 -0.024128243 -0.012962754 -0.014132882 0.0009810522 -0.025554208 -0.04098748 -0.012912249 -0.04641431 -0.00851253 0.022489032 0.03811504 0.033192586 -0.01609187 0.03516453 -0.029252587 -0.022339778 -0.017402746 -0.028074637 -0.007452229 0.0329848 -0.032508638 0.00819845 0.010142218 -5.3791853e-05 0.021244837 0.00828599 0.04631535 0.010781918 0.027141636 0.04292889 -0.0344349 0.04997673 -0.040447183 0.03856956 0.012933251 -0.03715326 -0.04404343 0.039324727 -0.009023524
september -0.034182593 0.012543276 -0.014992942 0.0046506384 0.015992505 -0.018032586 -0.03559745 0.040205374 -0.009162283 -0.016711762 -0.031294152 -0.021397315 -0.047133215 0.012982554 -0.04676962 -0.012021199 0.006067496 0.001842191 -0.033449676 0.053311095 -0.0317934 0.04541093 -0.033614483 -0.030653734 -0.045440383 0.03196334 -0.024197042 -0.019696748 0.0048657767 0.023735 0.016830375 -0.016392209 0.0020332767 -0.0038096292 -0.0019089 -0.009761715 -0.00059053453 -0.027100286 0.017814096 0.054301046 -0.022523455 0.026693122 0.03414454 0.036330942 0.028038621 -0.029016074 -0.022302223 0.034330294 0.029870976 0.051110946 0.001417553 -0.025117466 -0.0012418306 -0.018882116 -0.01610713 -0.039054535 0.039062195 -0.04703849 -0.030851241 -0.0016449156 0.030005578 0.011291249 -0.014995135 -0.016059993 0.038691718 0.0532374 -0.015883178 0.008883382 0.029643077 -0.039282653 0.004729965 -0.026454283 0.0033064177 0.016768128 -0.0328594 -0.008167449 0.020524235 0.026171817 -0.0136615 0.023557454 -0.029292786 0.014854258 0.03098223 -0.018872878 -0.05020354 0.046114817 -0.0061523975 -0.033493526 0.00083042774 0.032217596 -0.020456553 0.044270355 0.011288699 -0.0343719 -0.025927361 -0.03596296 0.008362075 -0.045823578 0.033042155 0.045689367 0.00515311 0.0051452247 0.01825179 -0.029109823 0.026669888 0.03580628 -0.043117225 0.041543726 0.005402905 -0.04117658 0.034047034 0.028627556 -0.0019492009 -0.013211506 -0.032602143 0.024332577 0.03943127 -0.04570987 0.0135662155 0.04146222 0.04971021 0.02649448 -0.026516257 0.021427266 -0.039233487 -0.0033763335 -0.018463193 -0.022406708
office 0.03496628 -0.042158935 -0.016975515 -0.026684046 0.01191393 -0.03552343 0.030119332 -0.052999064 0.006082038 -0.0046776463 -0.035441108 0.007907601 -0.009353492 -0.01415871 0.036057197 0.019313263 -0.028399732 0.037728533 0.02602295 -0.0052229324 0.0022535177 -0.0014730467 -0.04882163 0.036278047 -0.051277515 0.044999167 0.03756357 -0.018407553 -0.040431485 0.01891596 0.031047499 0.022703761 0.00609059 -0.012543659 0.0048887613 -0.006454723 0.050259065 0.04998676 0.05051857 -0.0031839719 0.00866483 0.001275232 -0.03896009 0.04496063 -0.026066875 -0.016881647 -0.019984512 0.045175824 0.029060002 -0.0031896788 -0.026334234 0.03672649 -0.015161433 -0.043947466 0.031981938 0.012727729 -0.010780401 0.024160841 0.027774978 -0.03161627 -0.04318124 0.019681267 -0.03056689 -0.045848515 -0.0057689277 -0.006727093 0.036251273 -0.0237173 -0.009945301 0.010540592 -0.018180791 -0.036149412 0.009356632 -0.02453658 -0.032118503 0.021473628 0.010812112 -0.026662122 -0.003362643 -0.040440574 -0.013225105 0.018007282 -0.044877358 -0.031225486 0.032146852 0.0027189353 0.009513503 -0.0067602796 0.00011661806 -0.02959202 -0.032010056 -0.01261722 0.0039195246 0.003790936 -0.009238691 0.04886054 0.02926039 -0.007410794 -0.017425423 -0.041207865 0.031589977 -0.0092078 0.0074430527 0.027841136 -0.0060562445 -0.0025169468 0.04859445 0.044567406 -0.010585422 0.041117344 -0.0033824998 0.022581782 0.03336358 -0.049147286 0.05069577 -0.02512052 -0.029450113 0.0406482 -0.004142673 -0.03539705 -0.025101691 -0.006111176 -0.025024243 -0.042631354 -0.021848263 -0.05012354 0.034320492 0.009048251
all -0.0071999594 0.0046299733 0.03847791 0.018773794 0.031338736 -0.044662155 -0.008079898 -0.0025913182 -0.020314895 -0.044607177 -0.033629473 -0.048754398 0.03188332 -0.014140351 -0.04736176 -0.03833257 -0.027318507 0.0077635073 -0.0061219665 0.02491676 0.02664113 0.014452631 -0.039326496 0.0017931665 -0.020165246 0.0061630993 0.004699918 -0.009651528 0.036889255 -0.045284737 -0.0012917968 0.0034202829 0.04078532 0.032312687 0.030171774 0.03841732 0.037456837 -0.018837756 0.019358229 -0.0061354702 0.02451429 0.039955694 -0.0331621 0.036877092 0.034103975 0.0045341155 -0.013740341 0.0047179833 -0.010673711 -0.044373553 0.012463605 0.032188654 0.04986975 -0.050475195 0.007244034 -0.027916877 -0.015158645 -0.024904128 0.03387958 0.045716118 0.05006165 0.0090665985 0.00964555 0.002297055 0.044891912 -0.03540649 -0.023997214 0.04651768 0.022735704 0.008975058 0.014200323 -0.023390114 -0.018616568 0.03324274 0.006481209 0.031641696 -0.008860073 -0.0098518925 0.0025750464 -0.026632776 -0.021106064 0.04594856 -0.0120835 -0.036735147 -0.0070174094 0.044929806 0.007370169 -0.0076769013 0.028739868 -0.010433013 0.043332234 -0.020039996 -0.015041906 0.031638864 0.04874723 0.026124116 0.019695861 0.026202539 0.035744593 -0.01148346 0.028917212 -0.018543977 -0.011750142 0.0034324962 0.016494408 0.029737659 0.0479502 0.030415297 0.017798053 -0.022269575 0.040002514 -0.00014634302 -0.0049293158 0.023248626 0.021327231 0.03987284 -0.018895604 -0.033273377 -0.047552757 0.04067667 -0.04582829 -0.00316817 -0.05221751 -0.006878464 7.7321834e-05 -0.038999714 -0.026932972 0.012563154
during -0.023480592 -0.0032824308 -0.017578654 0.025850214 0.026746307 -0.050090883 0.010238569 -0.023632424 0.0001529209 -0.048152614 -0.041178986 -0.05319172 0.009199464 -0.011414189 -0.04090457 0.01689654 0.04828784 -0.009727505 0.008888844 0.024711575 -0.038669627 -0.010716015 0.03579609 -0.014928482 -0.01266348 4.6900008e-05 0.014806549 0.023602871 -0.016274564 0.050313074 0.04781861 -0.050716788 -0.053498752 0.021703755 -0.040563714 0.04261555 -0.03159373 0.027939681 0.02240038 -0.029885998 -0.03605338 -0.01270549 0.007881232 0.027199473 0.005018798 0.017683582 0.012670406 -0.026169168 -0.0049426984 0.01856999 -0.017641423 -0.032256205 0.01849357 0.0030569155 -0.04354294 -0.010513736 0.02646823 0.02476278 -0.0060384683 -0.032159213 0.016865646 0.009479992 -0.011000763 0.028815392 -0.0014234032 -0.008415861 0.0025519226 0.016207429 0.01674127 0.029685127 0.03715619 0.037448123 -0.030315293 -0.0339539 -0.017367627 0.03954803 0.003223495 0.010580612 -0.031645928 -0.041285332 -0.01148234 0.010548251 0.028644904 0.024524972 -0.006916986 -0.04353651 -0.026091864 0.023373138 0.042910445 -0.03616396 0.0076709804 -0.019252766 -0.020869324 -0.00822396 0.025346117 -0.020685777 0.010261138 -0.016691074 -0.046025574 0.023621658 0.024723604 0.0071278727 -0.04713279 -0.045707002 -0.001950053 0.04195009 -0.0046633026 0.00035715074 -0.023674086 0.011280933 -0.044661686 -0.002267235 0.040310416 -0.04267212 -0.041856073 0.024667434 -0.0001482986 0.024804914 -0.028060885 0.04602973 0.00296198 -0.045188572 0.006084549 -0.031491484 0.030248623 -0.044588134 -0.04267157 0.028016625
statements -0.043280747 0.017919004 0.02148923 0.023607897 -0.018820962 -0.046771325 -0.02377256 0.0048418306 0.026728308 0.008107687 0.02185942 -0.038001098 0.018609758 0.027656823 0.019028855 0.024209216 0.052933093 0.0025908404 0.002717589 -0.044642136 -0.045211103 0.00559309 0.010933433 0.045966025 -0.005056622 -0.018578745 -0.024225768 0.0054389387 -0.010357275 -0.04272835 0.042268436 0.037465323 -0.0081660375 -0.019160118 0.0069216574 -0.04544383 0.052930713 -0.03806303 0.0055936943 0.023496665 -0.030339697 -0.0064938967 0.017981121 -0.03386366 -0.012725107 0.0040173936 0.024601843 0.004361009 -0.0015049197 0.05166931 -0.030992102 0.0075149015 -0.029082159 -0.04495403 0.044160273 0.0028044314 -0.03423636 -0.010194282 0.032044835 -0.0098544145 0.0068128305 -0.011219769 -0.027620524 -0.020131594 -0.044505768 -0.03064158 0.023206942 -0.014762283 0.00895559 -0.051527336 -0.018806009 -0.047611833 -0.01926463 0.006764804 -0.00798827 -0.034531593 -0.020421922 0.031207118 0.010668235 -0.04310461 -0.005621354 0.03132201 -0.0148859555 0.033368107 -0.017325068 -0.0119619705 0.028324187 -0.05361291 -0.04724496 -0.051436294 -0.037077647 0.0071735303 0.009357368 0.0267343 -0.043478224 -0.041835796 -0.050041642 -0.010474955 0.025384938 0.036100574 0.04593723 -0.0008598856 -0.031727716 0.025155284 -0.0053129033 0.010406093 -0.0018123941 0.036035605 -0.04859272 -0.044153567 0.039693467 -0.04499304 -0.050145395 -0.002551081 -0.011771732 0.04090256 0.041941453 -0.04168372 -0.008608521 0.03187141 -0.050041307 -0.0013738335 -0.027924359 -0.03145384 0.014701189 -0.048637718 -0.026668955 0.016648307
notes -0.027175307 0.03710349 0.015717573 -0.0156051135 0.02140039 -0.005930729 0.03238157 -0.049403157 -0.03962007 -0.045595456 0.022375163 -0.025288347 -0.035011522 0.0059426813 -0.0052946596 0.021410244 -0.029330205 0.035452176 -0.006941608 0.053564206 -0.04194547 -0.01607383 -0.009879343 0.014551419 -0.05173829 -0.041575547 0.04507553 0.024671314 0.00940485 0.03850707 -0.0110308705 -0.035640243 0.03125079 -0.04162162 -0.050130155 -0.04026941 0.0013084002 -0.015205105 0.042371705 0.04341795 0.026583472 -0.02988489 -0.04349268 0.051436957 -0.009570677 0.018074933 -0.011480943 -0.013646295 -0.03130117 0.017554536 0.042155977 -0.050457757 0.0078120534 -0.016790645 -0.03748385 -0.030585023 -0.006803526 0.047355626 4.5175548e-05 -0.01624516 0.00816751 -0.049100816 -0.0267788 -0.021155711 0.022921538 -0.024007216 -0.008101359 -0.015179683 0.028504336 -0.039231326 -0.017042832 0.019067196 0.046277266 -0.011764218 0.013225 -0.00021722456 0.005718309 0.03428985 -0.021261292 0.0210024 -0.023548057 -0.014185437 0.018372634 0.013180532 0.041276284 0.007465573 -0.032137994 0.01767682 -0.028305262 -0.0051978226 -0.041826185 -0.0013168885 -0.039153088 0.010213398 0.011730326 -0.01703675 0.044325776 -0.015014649 0.010974534 -0.003172785 0.03688618 -0.030906264 -0.036738854 0.020038337 -0.036616735 -0.046037875 -0.030765887 0.024907572 -0.047053125 0.017562028 -0.0044596964 -0.02956055 0.039053362 -0.0036566393 -0.029132131 0.047747143 0.04438687 -0.020568257 -0.0046552652 -0.0036689355 0.019923568 0.0074088494 0.00907709 -0.00028718478 0.039823703 -0.0078051416 -0.009591449 -0.03289886
not 0.021755062 -0.015958069 0.04842302 -0.020047056 -0.031729624 0.014051254 -0.03559638 0.03339938 0.017413316 -0.017399846 0.047671683 0.041881464 -0.01788503 -0.044048086 -0.048866585 0.009038961 0.017257422 0.04770936 -0.01097203 0.011517588 0.02003986 -0.011041377 -0.039630372 -0.026831886 0.04098058 0.0026455496 -0.0052781883 0.00024497497 -0.034498237 -0.04057217 0.0013183325 -0.026681205 -0.02596075 -0.020637766 -0.034521576 0.043094277 0.034001097 -0.0043341764 0.045773737 0.047133 0.015085178 -0.0247995 0.029989354 -0.015242595 0.03871931 -0.004597162 -0.002484114 -0.021344474 -0.04107084 0.053423263 -0.053392116 0.037682366 -0.027251674 -0.034165017 0.0041145384 -0.02145626 -0.03988729 0.025287272 -0.0046793707 0.00449922 -0.04540486 0.023972254 -0.021056619 -0.023768744 0.03919911 -0.0057736943 0.016685873 -0.042215373 0.009868047 -0.016329352 -0.007583938 -0.016641384 0.0047163498 -0.009548344 -0.022492437 -0.05050143 0.023660539 -0.04660877 0.04156376 -0.017291559 -0.018307794 0.040447373 0.014065815 -0.0027958206 -0.041597888 0.012989289 -0.041392762 -0.041352727 0.01978774 0.041304596 -0.050325174 0.031030986 0.018575225 -0.010876932 0.028206116 -0.012956759 0.030938363 -0.033412576 -0.044895448 0.007558327 0.037841167 0.046063732 -0.02597223 0.051032774 0.036155533 -0.025763175 0.028176492 0.013889436 -0.0059328685 -0.029273484 -0.026921641 0.036391858 0.018030755 -0.03824394 0.0059758523 -0.041080125 0.016937118 -0.002689809 0.03494039 0.02532668 0.049356103 0.021984141 0.005883051 0.020372838 -0.030533982 0.032939017 -0.02668932 -0.0042412546
