903 128
the -0.01958591 -0.036537636 -0.023526572 0.043036934 -0.047499683 0.033855323 0.013771345 -0.03682048 0.008374841 0.01487103 0.017623432 0.038388327 -0.0066489014 -0.032092437 0.012908536 0.00015810714 -0.0073579773 -0.045282196 -0.00538625 0.0018651407 0.03373203 0.031892456 -0.00042780332 -0.012786045 -0.037075784 -0.018542299 0.036535442 0.045301285 -0.03177168 -0.036487736 0.017531542 0.0016132818 0.0066634608 0.011155108 0.037469756 -0.0116119115 0.02050844 0.014564156 -0.043041658 0.013381498 -0.009840037 0.018065881 0.0034169483 -0.01671461 0.038180526 -0.039752617 0.018255347 0.028737571 -0.03283364 0.027837805 -0.01019271 -0.0031568375 -0.021176612 -0.046982348 -0.0441094 -0.01749277 -0.056212686 -0.016724525 0.049901094 -0.015307059 0.007693013 -0.015593543 -0.03366626 -0.013974 -0.026207317 -0.010453724 -0.046041656 0.020689135 0.024798537 -0.018056978 0.009308028 -0.025717668 0.049137127 -0.037143458 -0.043888006 -0.005207751 -0.05470274 0.014842843 0.02102938 -0.04173072 -0.02400651 -0.0058923406 0.0031128384 -0.033312164 0.04451416 -0.038581155 0.010479695 0.049083505 0.02283959 -0.011542607 0.01707659 -0.047163896 -0.03185682 0.054882508 0.022994082 -0.049685657 -0.028371379 -0.005051174 -0.033954218 -0.0037384713 -0.009823397 -0.011533592 -0.021178959 0.0034286915 -0.017654158 -0.048278075 -0.03863308 -0.035852846 -0.040137578 -0.04372156 -0.04969867 0.026819471 0.0033757016 0.05438948 0.04209028 -0.04821166 0.0049183285 -0.014577318 -0.02236795 -0.03546796 0.04920999 0.029655565 -0.05702251 -0.053575307 0.05629425 0.05650068 0.018874932 0.004914926
of -0.044690814 0.029992716 -0.009095774 -0.045048222 -0.0385854 -0.02832993 -0.022816904 0.010048184 -0.04867764 -0.0005518996 0.05077794 0.040085565 0.0003871451 -0.021317258 -0.016452858 -0.045973197 0.008457341 -0.021273496 -0.027192585 -0.034717232 -0.01442225 -0.037749294 0.013254326 0.022443118 -0.025447883 0.0040657357 0.0020987275 0.036321305 0.057538036 0.030747922 0.034680307 -0.056101196 -0.015576557 0.007644673 -0.008774191 -0.016879762 0.01843621 -0.05517763 -0.03698244 0.0017546102 0.009387518 0.038931463 -0.008542311 -0.039763995 -0.018969188 0.037478127 -0.033589754 0.004065794 0.015089048 0.028634327 0.018745856 0.037500024 -0.01037297 -0.049130842 -0.003831265 -0.026594318 -0.03616836 0.0051389625 0.04588903 -0.019863117 -0.017459579 -0.049942747 -0.044475045 0.011895475 -0.016542584 0.0005451051 -0.024408324 0.003583825 -0.0086111715 0.0021535852 -0.029266967 -0.011906001 -0.023006402 0.021309469 0.049800873 -0.0017463964 -0.02187028 0.018358871 0.04752095 -0.016709138 -0.039830755 -0.042909436 -0.01765904 -0.014225533 -0.0054547815 0.007547049 -0.018031674 -0.018409068 0.013814211 0.016984027 -0.016266502 -0.0007054367 -0.0018451152 0.0054733315 0.053128224 -0.037098713 -0.01867775 -0.0388042 -0.02513897 0.0027144873 0.006072521 -0.03342675 0.038774088 -0.014101229 -0.003916985 -0.029118322 -0.021752102 0.025265737 -0.004953043 -0.024466885 -0.058516733 -0.04757496 -0.0034288133 -0.002568456 -0.00895718 -0.00022055052 -0.018413322 0.025132412 -0.01169672 0.007297018 -0.009089369 0.0149812205 0.015106827 -0.017109985 -0.021980586 0.015700508 -0.042171035 0.027384836
and -0.007181475 -0.043818224 0.02282547 -0.022800485 0.016102681 -0.029723775 0.001650865 -0.047642246 0.012662279 0.025418147 0.038777925 -0.019896984 -0.013582507 0.016225172 -0.019176628 -0.034413323 -0.0029362217 0.009381899 -0.022878388 -0.032359965 0.0005702648 0.03765481 -0.023663476 0.055012908 -0.030721596 -0.04595112 -0.03511673 -0.025606614 -0.021374453 0.030302072 -0.022785287 -0.054100003 0.008629667 0.047426295 0.04500261 -0.009291488 -0.019952469 -0.056079347 -0.002882108 0.021789555 0.051607993 0.029707449 0.04680314 -0.047124818 -0.013404458 0.028039198 0.027864793 -0.02524437 0.027557664 -0.03640238 -0.0115089575 0.008792298 -0.04391085 0.02002575 0.044165067 0.015514579 0.027150882 -0.014090733 -0.020108975 -0.041850433 -0.017865628 0.021016698 0.0022079363 -0.043382227 0.011151162 0.004429436 0.013237015 -0.05116479 0.040795285 0.014557452 -0.010954947 0.040285736 -0.020490149 0.026595077 0.025127716 0.0405568 0.030413803 -0.040066417 -0.004346679 0.015120807 -0.023229461 0.017002394 0.01819246 0.001374616 0.010026846 -0.0067133307 0.04195917 0.02219726 -0.023481984 0.056326896 -0.006129374 -0.0037308082 0.04087152 -0.0016647838 -0.025096957 -0.031171907 0.014698773 -0.022466922 -0.035416223 0.032328952 -0.013164289 -0.054532286 -0.024079276 -0.013804372 0.015958637 0.022941442 0.00033602573 -0.002626591 0.01779436 0.0092663495 -0.032175243 -0.0012860573 -0.018335579 0.030049885 -0.017709348 0.03403149 -0.016440412 -0.020065246 0.012638105 -0.053641696 -0.04120794 0.03714426 0.025402397 0.013958461 -0.015733177 0.029010534 -0.051107105 -0.0006228372
to -0.044892143 -0.012163281 0.016777331 -0.010347895 0.0016582466 -0.03758066 0.028989518 0.0003936853 -7.763662e-05 0.01787472 -0.038495768 -0.046647683 -0.030121729 -0.043356083 -0.016533522 0.0124082705 -0.016296176 0.031365912 -0.048830673 -0.04875346 0.0007401788 -0.04820177 0.011931517 -0.013978177 -0.02147932 -0.002526877 -0.022127077 0.0012165767 0.051577065 -0.01344627 -0.039619382 0.01385116 0.009488554 0.011086613 0.028166527 0.013758751 0.0036152385 0.041667584 -0.010870517 -0.04350994 -0.027806288 0.0148465 -0.015502061 -0.009213401 -0.02758971 0.054607514 -0.016038105 -0.007552756 0.05411657 -0.029031303 0.003100682 0.015284005 0.004977123 -0.011436913 0.025513535 -0.035279956 -0.019655097 -0.035919733 -0.018855084 0.027360033 0.020907214 0.040912326 -0.013469086 0.03808632 0.036259357 -0.03767082 -0.010620474 -0.02924149 -0.017627956 -0.054050244 0.03462719 -0.04443249 -0.017074611 0.03927552 0.031452432 -0.013306658 0.008303095 0.03686765 0.025658486 0.006751724 -0.012745411 0.024966348 -0.004573674 0.013758429 -0.044155598 -0.03823234 -0.028513137 -0.036138847 0.028871737 0.03841607 0.013623425 0.016399594 0.009865016 0.022436606 0.034711625 -0.02003922 -0.004744732 0.01902547 0.021179765 0.004192884 -0.018262923 0.030254897 0.030072287 0.024357835 -0.043147016 -0.0045397165 -0.028264856 0.030050501 -0.0015385442 0.019956807 0.0063543515 -0.028677678 -0.023325026 0.03102439 0.04723319 -0.01892037 -0.014306498 -0.012483217 -0.0056412295 -0.0028761753 0.030119345 -0.025053576 0.01962246 -0.012354785 0.045263384 -0.042680647 -0.03593556 0.03981163
in -0.035831876 0.03316123 0.008985635 -0.033442296 -0.034298625 0.04154825 0.043502152 0.032041356 0.022411779 -0.012507088 -0.031684503 -0.0031528815 0.03585016 0.0003708707 -0.05596622 0.008380215 0.036881723 -0.0051557934 -0.031408526 -0.00016265275 -0.022185842 0.013736935 0.025775552 0.05093756 -0.008771922 0.019009124 0.0124094775 -0.0313089 0.047421232 0.03235994 -0.017628526 -0.049297173 -0.007860492 0.004451367 0.05373076 -0.035521805 -0.012169817 0.025593223 -0.034840565 -0.057108596 -0.024197387 -0.009208637 0.03235327 -0.009230452 -0.01941991 0.020952463 0.037163846 0.046828162 -0.026593676 -0.007208476 0.018368669 0.025489008 -0.0055792183 -0.04152476 0.043556776 0.001977901 0.0027455534 0.031364057 0.026790068 -0.029254703 0.03800941 -0.051227193 -0.041755937 0.001405467 0.0028414412 0.030965025 0.011420568 0.03453946 -0.005044721 -0.02315827 0.0066062207 0.025531128 -0.007319841 -0.0016131455 0.009127733 0.043838132 0.007442219 0.040947404 0.030113623 -0.010258757 -0.031675667 -0.021019746 0.0012997896 -0.05132009 0.056516044 -0.0075500812 -0.033243548 -0.0044314014 -0.018373154 0.0395613 -0.026050147 0.039915066 0.006506106 -0.0061247023 -0.025641238 -0.0373748 0.04959019 -0.0120414095 0.017256815 0.006251293 -0.041946 -0.028033746 0.00047009118 0.030188113 -0.046804115 0.02564604 0.042609453 0.00070604426 -0.021553243 0.01311016 -0.043421697 0.00537706 -0.010821402 0.013148777 -0.015682045 -0.0049835243 0.031211646 0.03569983 0.04322281 0.037968155 -0.044676434 -0.03566277 -0.008645114 -0.0041175303 0.03306903 0.027445855 -0.015504934 0.048506364
microsoft 0.029095503 -0.053104702 -0.022567779 0.023251837 0.03486051 0.009994628 0.028420813 -0.023786478 -0.031888675 0.004401759 0.0034442674 0.035739698 -0.029189458 -0.026948938 -0.034412213 0.04398595 -0.012964002 0.010423225 0.029690374 0.011276577 -0.044751287 0.028011568 0.02684065 -0.03992029 -0.030506704 0.014327414 -0.011106736 0.04612355 0.0030640708 0.037637446 0.02696163 -0.010608843 0.016513856 0.04343065 -0.0078496225 -0.021773495 0.013061801 -0.05185812 -0.042646933 0.0054223505 0.04674751 0.050139364 -0.017150015 -0.045048688 -0.015380727 -0.010491087 0.010020285 -0.020921933 0.03240499 0.009716127 -0.014126244 -0.0019841855 -0.00423125 -0.00077089155 -0.033446036 -0.018839227 -0.012118851 -0.037198003 -0.010521117 0.031223794 0.0021051075 0.045233794 0.036890075 -0.015691003 0.04670108 -0.009445829 -0.01715772 0.034687944 -0.011882572 -0.022003831 0.023621 -0.05225472 0.033793226 -0.030786827 -0.03557426 0.05756297 -0.017665826 0.026094941 -0.017011521 -0.024515986 -0.029235335 -0.022194799 -0.015841108 -0.01868118 -0.0044893646 0.005028835 0.0056898883 0.021325655 -0.008088211 0.0041597197 0.040668108 -0.03584664 0.0041232174 0.040384077 -0.013858213 -0.03958333 -0.020324284 0.04537444 0.029288664 -0.024053087 -0.027006142 0.02853088 0.053754944 0.05165836 -0.044657104 0.03686676 -0.00066818116 -0.0205454 0.04514189 -0.042418588 -0.027776118 0.042646274 0.0015735524 -0.03790276 0.05595579 -0.044382866 0.018419018 -0.006453786 0.040452387 0.047298986 0.01755913 -0.026527127 -0.046194755 -0.013333744 0.036782343 -0.029842852 -0.046992246 -0.021052755
1994 -0.02968404 0.0030491045 -0.014999839 -0.02585318 -0.028461577 0.03021359 0.012702958 -0.0071368753 -0.051777717 -0.0042310744 0.028788881 0.013074686 -0.0057091718 -0.017995402 -0.010152294 -0.026274102 0.014518169 -0.05360109 -0.049376935 -0.004063162 0.0034305346 0.0097207 -0.017308773 -0.017133474 -0.028603181 -0.038218908 -0.011791767 0.01345029 0.011712681 -0.02844783 0.033059012 -0.00727401 0.018525636 -0.030936208 -0.033806823 -0.012116994 0.022827951 0.03170024 0.00017232861 0.017354812 0.012372518 0.019542396 0.04186411 -0.054032855 0.012278195 -0.02385846 0.0014529033 0.020756625 -0.031854432 0.011511795 0.021013932 0.030861484 -0.008665336 0.022595625 0.042337347 -0.017832415 0.002317214 -0.015307311 0.033635803 -0.0058651534 0.019981565 -0.03949082 0.021755645 -0.041523736 -0.03494997 0.027264135 -0.04806034 0.003126718 0.051875077 -0.035870805 -0.030511705 -0.0009943713 0.045788586 0.016165273 0.026032122 -0.02071087 -0.04441092 0.03518881 0.04460593 -0.035479818 -0.013303762 -0.004800383 0.041349325 0.011797889 0.0070103253 -0.0008255568 0.03662088 -0.026295744 0.032394838 0.011902812 -0.027246322 0.035846375 0.003909838 -0.022802662 0.0156166935 0.013380188 0.031661104 -0.026001507 -0.047116347 0.037287664 -0.023543233 0.03269755 -0.0034733312 -0.014038487 -0.033360872 -0.020000977 -0.008996371 0.010045055 -0.030339545 0.015485162 0.011901649 -0.026414381 0.03848161 0.018938683 -0.03781145 0.013120666 -0.0048682066 0.041189313 0.018229282 0.009679519 0.044256177 -0.009233697 -0.025413843 -0.020695271 0.038817745 0.039591026 -0.023210326 -0.008135611
for 0.008112294 0.029297253 0.01830333 0.016960766 -0.047282785 0.03896141 0.024463518 0.024820877 0.022497784 0.032216575 -0.0132760685 -0.0003570254 0.04177654 0.03581492 0.0063861343 -0.007423761 0.035279818 -0.056135308 -0.041376203 0.023907457 -0.043373242 -0.0049704304 0.0058484813 0.043481946 0.010957595 0.034428276 -0.021924306 0.007195643 -0.042657115 -0.00017482258 0.036380496 -0.013520359 -0.04610355 0.007876134 -0.03950962 0.0040151794 0.0453607 0.015526863 -0.003870498 -0.007225342 0.0073677204 -0.031538226 0.026156368 -0.0053626825 0.018027743 -0.0028296101 -0.012720307 -0.023150936 0.028765671 -0.020050034 0.012538538 0.019612908 -0.05646131 0.011757189 -0.052278113 0.0035086581 -0.033058416 -0.021005636 0.01890887 1.47313185e-05 -0.009203631 -0.043079358 -0.056576293 0.030308703 -0.027515737 0.0060220845 -0.0015282895 -0.0016262018 0.04793471 -0.026026059 -0.05437513 -0.036256243 -0.00036952656 0.022836145 0.0489714 0.051837806 0.018735267 -0.02701511 -0.041333623 -0.028633244 -0.05038103 -0.029985556 -0.01818745 -0.05117179 0.016027037 0.04309207 0.03313181 0.052740082 0.045327846 -0.031572122 0.047483053 -0.019750562 -0.02927355 -0.006132799 0.022039004 -0.023652494 0.039440475 -0.034175675 -0.009341313 0.02052387 -0.028492905 -0.025320249 -0.033478484 0.018096788 0.029090175 -0.04695993 0.050551463 -0.04708988 0.02330675 -0.021829395 0.036264617 -0.013372217 -0.04243972 0.051935717 0.013521554 -0.0018857224 0.021891773 -0.049517307 -0.012451547 -0.008502048 0.023082832 -0.015992394 0.0009129629 -0.051066827 0.031464987 0.029312411 -0.03733657 -0.020679092
quarter -0.011815893 -0.04301626 -0.0153527 -0.020938534 -0.04106199 0.02540612 -0.022996312 -0.01524868 -0.028228829 0.0066388054 0.014196852 0.00027419685 0.045546275 -0.0019403504 0.04169556 0.011517596 0.025239246 0.030398672 0.018670563 0.033482064 0.037308402 0.039926667 -0.0268396 -0.0030145473 0.03336785 0.0010612466 -0.0069540013 0.0536562 0.015288623 0.023971815 0.040264484 0.037790757 0.010802535 -0.044673685 -0.0051046438 -0.02545843 0.04799019 0.03353252 -0.051227067 0.023851667 0.007291573 -0.0150826555 -0.041884482 0.028894838 -0.0201581 0.021475373 0.041462783 0.024409313 -0.030827655 0.040531565 0.008732308 0.035295576 -0.041635983 -0.021605846 0.03142728 0.025776187 -0.033772074 -0.00436222 -0.02666004 -0.032835647 -0.012147909 0.009341203 0.028029876 0.00977599 -0.025985327 0.04500802 -0.007844305 0.03793893 0.009066625 -0.046914678 -0.009850173 -0.033742473 -0.00036410004 -0.0004227528 0.048692968 0.0026455002 -0.03556435 -0.012614494 -0.016156847 0.0017411262 0.02302662 -0.019753398 0.038156345 -0.028640905 0.026908122 -0.031867456 0.044530638 0.04542681 0.040854633 -0.0019875239 -0.0012622577 0.029556189 -0.03988911 -0.027410377 0.014022916 0.014722439 -0.030902555 -0.031172194 -0.019225772 0.044705942 0.04464372 -0.044760354 0.017917681 0.009939651 -0.024095379 0.034385104 0.05401343 -0.04194029 -0.05469804 -0.0315521 0.02196184 0.025434216 -0.0038318855 0.025738787 -0.011174638 0.03760958 -0.016994465 0.008552966 -0.038180623 -0.014202491 0.033152875 0.04612478 -0.017847518 -0.029512612 0.02038643 -0.020986967 0.02410643 -0.039388258
on 0.024985204 -0.015847728 0.007136888 0.020997839 -0.008356059 -0.023386694 -0.028834708 0.030794855 0.025092803 -0.02577068 0.025659697 0.017543191 0.04864363 0.0031759152 -0.009235339 -0.05084536 0.018206703 -0.02654662 -0.04620957 0.0030183645 -0.043246686 0.008246269 0.04065644 -0.044731714 -0.037969403 0.013667603 0.0064585945 -0.045369003 0.034871854 -0.03304343 0.024450269 -0.02358818 0.010647639 -0.025381349 0.030367633 0.0304601 -0.03514217 -0.03708033 0.0471383 0.03571929 -0.024851572 -0.024851592 -0.004055623 0.00058799057 -0.025459392 0.042956967 -0.016144821 -0.008381185 -0.012199296 0.04700826 0.0075462195 0.04191431 -0.014103498 0.037193276 -0.028215164 0.04438158 -0.044131372 -0.014566101 -0.04473695 0.029242355 -0.026042463 0.04373572 -0.05046295 -0.013518654 -0.04708472 -0.007005554 -0.0027419624 0.0027996216 0.034673035 -0.020630078 -0.0348738 -0.03372762 0.011794554 -0.009755303 0.011595466 0.01789373 0.037193287 0.05452605 -0.014572948 -0.018474838 0.030213011 -0.03591909 0.044263627 -0.0008408927 0.048438717 0.031619724 -0.048854116 -0.0056315516 0.00046518334 -0.032050926 -0.009023465 0.04232388 -0.011358994 -0.00072769093 -0.044667713 -0.0448042 0.050291948 0.04206857 0.0062923143 -0.023085274 0.03465456 -0.042892992 -0.028016962 -0.0273017 0.041772455 -0.053603116 0.00081600284 -0.011052299 0.0034192079 -0.04196714 0.040709563 -0.054206744 -0.013306168 -0.019377884 0.036966257 0.041915286 -0.0117596835 0.026724698 0.030813523 0.010711479 -0.0111461375 0.034029435 0.013626678 0.04762714 -0.03207141 0.01481887 0.02753158 0.03815845
revenues 0.015565163 -0.043121986 -0.02392603 -0.006701376 0.044497717 -0.001256428 0.0069982656 -0.0072956528 -0.0482303 -0.0337476 0.04787506 -0.026126266 0.051501345 -0.04427284 -0.016113311 0.0169303 0.036442943 0.042017546 -0.029071083 -0.035135083 0.034629133 -0.03866272 -0.013025791 0.0040142955 0.0014091108 0.03365051 0.023882473 0.034754086 -0.01142203 0.022228235 -0.012350547 0.034449887 -0.04439288 -0.03335724 0.0031205174 0.006729823 0.015146795 -0.008461683 -0.020338679 -0.032746952 0.04995471 0.035117008 -0.010178651 -0.053955346 0.024288923 0.02155147 -0.03496223 -0.04044425 -0.043589804 0.042533305 0.031117154 -0.0032661764 0.034835253 -0.0057283645 0.008485246 -0.01144051 -0.05650011 0.00687172 -0.0017728377 -0.023224365 -0.03359327 -0.04334073 0.0060240664 0.029415986 -0.034436923 -0.008779277 -0.024500737 -0.048341457 0.030720806 -0.053215068 0.032458205 -0.057663742 -0.008415111 -0.050271083 0.031952642 -0.0246499 -0.014320165 -0.031243386 -0.019909557 0.0068019824 -0.021898782 -0.029158648 -0.03783078 0.039104573 -0.0011598489 0.021500187 0.052315675 0.0025031986 -0.029403802 0.05189801 -0.008007769 -0.05059817 -0.023919526 -0.0075103855 -0.022262191 0.01263478 0.023732709 -0.0030271353 -0.041228198 0.016520945 0.031400617 -0.051887993 -0.037602436 0.036425676 0.024444502 0.019082062 -0.034129035 -0.011437874 -0.04883613 0.026825845 0.023088714 -0.0045282356 -0.03146413 0.020531427 0.03602654 -0.041883174 0.016669692 -0.053793855 -0.0024232469 0.02899734 -0.027360309 0.0439646 -0.050389428 -0.022528429 0.045141693 0.000528838 -0.035781644 -0.02982904
first 0.03640496 -0.004190511 -0.023237545 0.029909665 -0.0339946 -0.0009232472 0.011214819 0.030725354 0.014578074 -0.021556444 -0.0038596783 -0.042818867 0.03227853 -0.0302134 -0.013448232 -0.040234134 -0.007869372 0.024660485 0.0072477143 0.011824613 0.02079271 -0.007493938 -0.0022479119 -0.015140692 -0.0017885652 0.034534298 -0.04407228 -0.035083923 0.045329344 -0.04044367 0.01860654 0.010918248 0.012837575 0.0024448358 0.0377332 -0.044361006 -0.03353252 0.008480432 -0.0027734814 0.009690609 -0.03881889 0.000897474 0.039806735 -0.05448868 0.040553104 0.043842033 -0.030245418 -0.04038426 -0.026151871 -0.031200608 -0.009831272 0.04049148 -0.003688339 0.045755327 -0.045424823 0.020664126 0.015464587 -0.049621016 0.006007348 0.039577883 0.035768915 -0.0032709208 -0.014048175 0.014657225 0.007875262 -0.036654983 -0.010887667 -0.005551567 -0.025820592 0.03336076 0.013002534 0.011425413 -0.012847355 0.020054597 0.0072012506 0.05282901 -0.035048526 0.0068597863 -0.010753648 -0.035738476 -0.039522927 -0.012183547 -0.02717236 -0.017911214 0.051730387 0.036396094 -0.019786097 0.03616637 0.020824898 0.05120802 0.048951104 -0.0057765767 -0.02968937 -0.015331126 0.018082907 -0.026363062 0.033458587 -0.009040514 0.039354738 -0.033201147 0.023863422 0.016339587 -0.009336129 0.0045388215 -0.025804756 0.029534113 0.0034179734 0.0050885472 0.013930369 -0.03683974 -0.003746526 0.005940328 -0.04737956 -0.013171503 -0.015247758 -0.033008948 -0.027275957 0.04302804 -0.042027038 -0.043501485 0.013880257 -0.015966188 -0.0029386578 -0.0022845445 0.00726375 -0.031248081 -0.0077817454 -0.035652768
million 0.011049135 -0.037468765 0.003405419 -0.012709827 -0.033644695 -0.032795217 0.04613436 0.03690462 -0.00957532 0.00026587112 -0.015446479 -0.045053117 -0.012192942 0.026399218 0.01943505 -0.054581765 -0.0382838 0.0016534887 0.02296618 -0.014656438 0.021474587 -0.040386565 0.030478826 -0.011313057 -0.040690627 -0.034557905 -0.050354462 0.029989254 -0.008961295 0.023753349 0.011051068 -0.035875414 0.016400922 0.044072494 0.041929714 0.013288725 0.052332543 0.01028933 -0.041689795 0.012620191 0.015226359 0.009125641 -0.03840222 -0.024901832 -0.009206722 0.04910288 0.04037085 0.037480112 -0.002952802 -0.022164686 -0.050792627 -0.038611088 0.033967957 -0.019003961 -0.02259499 0.020885168 0.012238378 -0.018463772 0.005482804 0.037577532 -0.0004588794 0.040860217 0.019523604 -0.053747095 0.015804492 -0.036200143 -0.020547282 -0.02548516 -0.011371464 0.027172567 -0.04606402 0.0074975546 0.038191743 0.02184224 -0.01694769 -0.02382432 0.0007714962 -0.010523085 0.019437645 0.0030598803 -0.024925608 0.0060843034 0.012133924 -0.0044595967 0.042956334 0.045306023 0.025859717 -0.0079671 -0.0059763445 0.05188715 -0.006340018 -0.030638268 0.02008142 0.008807431 -0.03902749 -0.007454995 0.016982673 0.029062018 -0.040114015 -0.00084031397 -0.039828572 -0.017445056 -0.0020656458 -0.023559956 -0.03816376 0.0045677195 0.045657933 0.041914877 -0.03687483 -0.005388469 -0.02538919 0.0192945 0.020136869 0.033124078 -0.04414618 -0.03736534 0.015552279 -0.02779397 0.047051422 -0.043306466 0.03182293 0.044233933 0.033710904 -0.022031665 0.0042395797 -0.026220636 0.0031197635 -0.00015669665
a 0.032066848 0.017134937 0.010091194 -0.030827625 0.027368618 -0.03507159 0.0049427045 -0.04813884 0.040528495 -0.009067629 -0.03764944 -0.0005885581 -0.035934087 0.032781806 0.043495588 -0.029731723 -0.007760255 0.025918625 -0.029676054 0.019375514 -0.03689817 -0.015121484 -0.03422815 -0.004666708 -0.01606491 -0.004266408 0.0009942764 0.004129168 0.004156906 0.04709397 0.00012272736 -0.008394394 -0.017365158 0.01584852 0.041651543 0.0304027 0.019712904 -0.0375888 0.02558338 -0.008788566 0.0034265365 0.028144341 -0.01208651 -0.034071777 -0.05214204 0.03562768 -0.014811116 0.025377832 -0.023406185 0.02527415 -0.029520014 -0.00046366185 -0.0010504569 0.028766999 0.011626717 -0.009055368 0.020833421 -0.017184846 0.057245813 -0.015488473 -0.032119744 -0.0073114093 0.0014956262 0.046142694 -0.03296221 0.021538815 -0.019384596 -0.001257551 -0.038121566 0.00733326 -0.04066683 -0.03441192 0.040038936 0.013817873 -0.031329174 -0.014630508 -0.049534477 0.01443879 0.0415356 0.054461643 -0.038100798 0.024879873 0.028583955 0.009451231 -0.027478946 -0.03068969 -0.0019490158 0.002973289 0.029563716 0.050914474 -0.015867313 -0.018052038 0.045172006 0.050870627 0.04138853 -0.025341393 -0.0007981635 0.036969747 0.014039959 0.009048775 0.0096474495 -0.037807208 0.04866789 -2.4885114e-05 0.023084987 0.012990487 -0.041937836 -0.047850013 -0.034371126 -0.01819796 -0.023772804 -0.008072 -0.04057346 -0.014375776 0.041195408 -0.027548717 0.010644452 -0.024501076 -0.024291242 0.025276626 0.025565367 -0.014242843 -0.01786179 -0.047673337 0.0030880303 0.0048981635 -0.009860113 -0.033340715
from 0.015134644 0.01739995 -0.01755481 0.01430215 -0.0069708563 0.009564385 -0.03681882 0.04458308 -0.05215333 -0.016188305 -0.017341262 0.04384615 0.011963497 0.04107772 0.0099357115 -0.017037192 -0.011987119 -0.02337838 -0.038405556 -0.029731313 -0.040337127 0.017767511 0.05244429 0.013434348 -0.02540757 -0.04247187 -0.04842167 0.040080838 -0.036524072 0.0040169987 -0.038987756 0.012413018 -0.03055175 -0.0421524 0.0064174617 -0.03213636 0.03171248 -0.034090865 -0.013962623 0.041165903 -0.0021635506 -0.040435474 0.0004549026 -0.006525641 0.003895233 -0.0021273121 0.012055342 0.02399453 0.043952037 0.0022152734 0.044502355 -0.048867542 0.006878753 -0.011034956 0.014354348 0.03331057 -0.04835768 0.028467415 -0.016044544 -0.013105961 -0.033285037 0.030802177 0.025378184 -0.01587766 -0.0038842193 0.049571052 -0.019358385 -0.047502957 -0.009732405 0.008275581 -0.040820707 -0.028424678 0.0071051307 -0.00032747193 -0.03540788 0.038890313 0.0439631 0.0278476 -0.01935523 0.050764203 0.04535353 -0.018657332 -0.028492533 -0.027568508 -0.00393842 0.023644239 -0.04600072 0.04322136 0.022614982 0.031596664 0.047084186 -0.013697374 0.030355904 0.0069803526 -0.020849522 0.03470709 0.032002084 -0.012957963 0.028982637 0.017457657 0.009821168 0.024897762 -0.031132251 0.043581642 0.03788912 -0.049009927 -0.018417304 0.008219605 0.01012142 0.029718632 -0.008316475 -0.009258791 0.026895754 0.0390806 -0.016586006 -0.014264273 0.029593468 -0.013751901 0.0071133696 -0.011625241 -0.010762877 -0.0058848355 -0.013395199 -0.046319366 -0.032556556 -0.029438047 -0.053020082 0.0332742
1995 -0.024695925 0.024631504 -0.056513287 0.037998866 0.041761335 0.0126784695 0.019855773 -0.04488404 -0.05712998 0.043582227 0.049760155 0.0010851171 0.04241627 -0.0068285353 -0.03600445 -0.028957516 0.055081084 -0.022917151 -0.010546247 0.0009090136 0.01234374 0.022841204 -0.04416072 -0.029443236 0.021660704 0.026052652 -0.031286415 0.044083606 -0.042894647 0.0067163412 -0.0072745113 -0.018314097 -0.03614264 -0.049948 0.04768213 -0.00983601 -0.03819782 -0.048829332 -0.040587094 -0.03127894 -0.019729681 0.009364259 0.014340244 0.008386905 -0.049913272 0.027352974 -0.037771102 -0.016343921 0.03411759 0.0394597 0.0010791018 -0.027476266 0.012486206 0.015395771 0.034596834 0.044967826 0.041066963 0.025202105 0.035635248 0.041334487 0.012006615 -0.04364539 0.039193716 -0.03626251 0.027218536 0.01427351 0.0032226914 0.030501654 0.019016268 0.0056435107 0.029077608 0.010920086 0.042227987 -0.052387882 0.012269065 0.009098087 -0.02303257 -0.0015993407 0.03025723 0.008679218 -0.00865434 0.0034499983 -0.0018954661 -0.0026521448 -0.019092148 0.026803618 -0.007894304 0.0065420815 0.023497853 -0.034825962 -0.009351495 -0.042203225 0.03513036 -0.0038490982 -0.021710526 -0.0042747357 0.02448887 -0.0002743706 0.020047914 -0.028942129 0.02905185 0.015559256 -0.03778135 0.055866383 -0.05563545 -0.033884402 -0.034512047 -0.054810505 -0.038939174 -0.0432766 0.021245833 -0.033637814 0.02566424 -0.023857009 -0.04178442 0.009172759 -0.033090737 0.03989911 -0.03518112 0.036638424 0.04999805 0.024602983 0.017519541 -0.05399969 -0.034370698 0.055875685 -0.031714626 -0.03420131
by 0.03264897 -0.02328971 -0.05305488 -0.014391748 -0.035975263 -0.03358067 -0.020581855 0.019294934 0.027031582 -0.0019758611 0.0059618647 0.045980573 0.02663239 -0.0040103705 0.009741168 -0.011547338 0.0068250527 0.018451577 -0.050635714 -0.05431806 0.034882113 -0.022141198 -0.049668126 0.00088633114 0.02579001 0.023314893 -0.03119965 0.011921931 0.03715778 -0.008282029 0.026261184 -0.045955896 -0.021511035 0.01621567 0.01275122 -0.013157202 -0.018243723 -0.02403159 -0.033455964 0.04116502 -0.030147465 -0.023766758 0.0007034044 0.00829457 0.022853017 0.050026502 0.0074146204 0.03685987 0.045956157 0.011723091 0.0071069174 0.032933045 -0.043562543 0.047994193 -0.032176197 0.024885315 -0.03525441 -0.043224044 -0.00067573786 0.030767096 -0.0048963535 0.027071955 -0.037120655 -0.045141727 -0.037194256 -0.012818536 -0.02999916 -0.039374765 0.023779202 -0.054193795 0.0020017324 0.035917163 0.04780026 0.021779653 -0.029729372 0.009433273 0.038749743 0.02571121 -0.03234902 0.012964496 -0.041720122 -0.047831018 -0.026623346 -0.037062813 0.056425087 0.04478539 -0.045896284 -0.018997421 0.010416208 -0.013056125 0.035710685 -0.021338262 0.004476256 -0.02431663 0.007230287 -0.010387911 -0.005484766 0.03703893 -0.015697075 0.0071786623 -0.036775872 -0.04305223 0.026590636 -0.014283555 0.0034159198 0.02926124 -0.038754813 -0.017467411 -0.026259746 -0.030373475 -0.039903987 -0.040361766 -0.030185336 0.04746837 0.009772017 -0.053061742 -0.029261313 -0.05316914 0.040163882 0.028845085 0.0077579333 0.0377124 -0.030784858 0.02543609 -0.014967673 0.0035274397 0.039766748 0.039713904
company -0.046651524 -0.048422396 0.0031889435 -0.02862205 0.032851692 -0.02742548 -0.03405152 -0.053405866 -0.011760395 0.015782898 0.0041928226 -0.03839513 -0.041070815 -0.003107799 -0.03663421 0.014309309 -0.019634783 0.042753275 -0.019199803 -0.0274694 -0.043824416 0.0039121965 0.023077628 0.02941274 -0.032496735 -0.018470526 -0.045980934 0.02371582 0.015096923 0.03311497 0.02046293 -0.015608076 -0.04804719 0.017684577 -0.033098385 0.036853846 -0.04161886 -0.03080168 -0.04840155 -0.03709721 -0.020720119 0.033537183 -0.01916326 -0.015310302 0.022820288 0.01674001 -0.007567104 0.04505215 0.01675905 -0.040077385 -0.040077716 0.037305083 -0.04545119 0.024115767 -0.025935244 0.049741082 -0.046689875 -0.029404674 -0.016550226 -0.012654396 0.045863546 -0.04285969 -0.009691314 -0.00014542893 0.0147966435 0.030010145 -0.01696483 0.029706988 0.018599255 -0.040632855 -0.009965477 0.0360082 0.032853898 -0.026977219 0.011153925 -0.04097905 0.033836473 0.0222014 0.037885305 0.041122213 0.018055633 0.03923047 -0.02461492 -0.03182019 0.0052207597 0.035248466 0.030446015 -0.0017976154 -0.030725641 -0.0039394083 -0.02675806 0.03583476 -0.045957517 -0.0021553934 0.04708006 -0.018429156 -0.016284749 0.032986153 0.021548728 0.024399722 -0.00039653803 0.040983245 -0.04326288 -0.019717334 0.04360304 -0.021405134 -0.036679838 -0.027941907 0.021127712 -0.02671628 -0.01587464 0.026062958 0.041394867 -0.013795703 0.043161888 -0.0005515015 -0.010281224 0.03789812 -0.041022696 0.008816192 0.012029183 -0.038052663 -0.03634536 0.024757659 -0.03590385 0.027745802 -0.032179054 0.011092748
stock 0.044736348 -0.023080904 -0.00026296655 -0.028317519 0.038967893 0.03512223 -0.043734327 0.045775324 -0.038320538 -0.039045833 -0.03293316 0.006418826 -0.025851093 0.03176536 0.0021429076 -0.03577631 -0.017196305 -0.010523173 -0.03411585 -0.006081071 0.04000166 -0.05453707 -0.017417828 0.029846618 -0.02305523 -0.026230307 0.019578705 -0.03765646 -0.018608289 0.012095039 -0.019359171 -0.04748715 -0.028317144 -0.038215518 0.042090893 0.014624478 0.01102205 -0.013363117 -0.023418501 -0.03922684 -0.006971826 0.017864827 0.025368841 0.009477839 -0.0037647192 0.03978227 0.023564687 0.041939344 0.035489257 0.05025024 -0.039520744 -0.04118204 -0.03609452 -0.0027579481 -0.035780057 -0.013311353 -0.0090973545 0.033437584 0.017948113 0.03726855 -0.01847011 -0.001491765 0.008747531 0.036039185 0.048253007 -0.0011700016 -0.0044816635 0.024761122 -0.040352438 -0.045705758 0.035027005 0.040482294 0.022070061 -0.032152038 -0.015758129 0.051769648 -0.030849932 0.050712977 0.0068673 0.035385184 -0.03691611 -0.04523487 -0.0068533015 0.0042130644 0.015772283 0.022384355 0.04529574 -0.011361937 -0.0089550475 -0.0467888 0.021330915 -0.004469439 0.002724703 -0.016670868 0.042056076 0.021307115 -0.008780195 0.008167722 -0.05372353 -0.000262041 0.0384549 -0.019011764 -0.044966746 -0.041370694 -0.020103905 -0.055794556 0.018761769 -0.042984705 -0.033440784 -0.005931784 -0.025994701 -0.0003012506 -0.011959201 0.0080911415 -0.044581577 -0.047583055 -0.0008885778 -0.03965749 -0.045145914 0.030608289 -0.027401444 0.0037767454 -0.021998191 0.03654278 0.029214684 0.01248003 -0.038880896 -0.033783097
3 -0.047499564 -0.012252141 -0.015545555 -0.02826826 -0.039830875 -0.037686724 -0.024748415 -0.027824963 -0.0040735607 0.009156931 0.03453836 0.0026566081 -0.0017348527 -0.021783475 -0.036571942 -0.009533556 -0.014721312 0.01341947 0.042194087 -0.012748674 0.02355718 -0.049259134 -0.03414935 -0.043322075 0.022940002 -0.041730385 0.041290097 0.018836726 -0.04229496 -0.0030286799 -0.024199087 -0.028624684 -0.035263266 0.009054012 -0.019854693 0.043141812 0.050595388 -0.014884557 0.042173848 -0.014562988 0.028284369 0.003008214 0.053759936 0.032988206 -0.04603599 0.029080264 -0.012334372 0.056627862 0.05369002 -0.027024807 -0.04719408 -0.0057307663 0.021643393 -0.049149137 -0.03793049 -0.0049679014 0.005766293 -0.011300221 -0.008707663 0.0052135475 0.046383202 -0.013624474 -0.006338507 -0.03955371 0.0067006964 0.034651395 -0.03882411 -0.03473266 0.030318895 -0.025306193 -0.054863304 -0.018910235 -0.009219568 0.02392553 0.022676703 0.042134214 -0.0047680307 -0.013906367 -0.018950108 0.019464491 0.0007266396 -0.0095900325 -0.008078847 0.020138092 -0.01582062 -0.004731776 -0.038697716 0.0025028118 -0.020353047 -0.03186058 -0.0034056304 -0.010437418 0.038822126 -0.030812798 -0.010866937 -0.042653497 0.013022264 -0.0042919037 0.039650954 0.030941268 -0.020298263 0.02286539 0.020658892 0.019795544 -0.031058164 -0.047563575 -0.00017494195 0.010147217 -0.008061265 0.0045716995 -0.03566861 -0.016080324 0.043875813 -0.0077589694 0.028340453 -0.029482653 0.03582152 -0.006667577 0.015537399 0.003106887 0.005837387 -0.002909924 0.032638863 0.04162858 -0.0023892836 0.030262137 0.012462424 0.03706364
were -0.04618492 -0.028024344 -0.052018695 -0.050835304 0.0050201365 0.006675847 0.022400325 0.038752943 -0.021104848 0.04226177 -0.021961754 -0.05328216 -0.04242889 -0.014477693 -0.010294574 0.015451189 -0.03508511 -0.041453164 -0.008367501 0.022591578 -0.0146913035 -0.020998899 -0.04519256 0.045064356 -0.02846082 0.007957105 -0.02897944 0.03065734 -0.02350198 -0.023185505 0.04198742 0.017688572 0.009443467 0.0395135 0.031929053 0.004134043 0.028883064 -0.02786284 0.030143324 0.033673726 -0.041907877 -0.03822653 0.031031774 -0.0337425 0.044351123 -0.014440363 0.029495923 0.05216966 0.047442507 0.018385677 -0.025284681 -0.03532601 -0.019990392 -0.039471228 0.004578667 0.008205199 0.018119391 -0.03462068 -0.033062235 -0.028486557 -0.036352783 0.012995149 -0.017667888 0.024629021 0.020143487 -0.038187195 0.018014548 0.042715825 -0.024811018 -0.042073462 0.041872792 0.038964625 0.007621973 0.015707335 0.041256316 0.01728323 0.04056837 0.039162096 -0.017531678 -0.00046318228 0.009987915 0.031027444 -0.03205135 -0.042797495 -0.004839548 -0.011334973 -0.02570446 0.019737955 0.022668174 0.042712446 0.02572021 -0.05373194 -0.021381466 0.04834231 -0.042445764 0.03618339 -0.04072737 -0.033221066 0.0092827855 0.028459229 -0.027661497 0.027879069 -0.029214172 0.03218034 -0.01300427 0.03874057 -0.0068587814 -0.029630138 -0.02100127 0.050711524 0.038794186 -0.001445213 -0.029134406 0.028559523 0.025020823 -0.028268639 -0.027460082 0.038814846 0.038329013 -0.03671556 -0.042561408 -0.037092373 0.020969562 -0.0020426102 -0.04317014 0.0029636938 -0.042323947 0.0064612534
financial -0.04444427 -0.0005507461 -0.032243364 0.02740222 -0.034609213 0.016005315 0.022433322 -0.032202873 -0.04311811 0.005650827 -0.039833747 0.017486619 0.0069408035 0.029791884 -0.021303702 0.028987035 -0.049307875 0.017879453 -0.03941204 -0.012180663 -0.022964185 0.021749584 -0.014948911 -0.022855451 -0.02362458 -0.04819157 0.008135792 -0.03360036 -0.008895305 0.0035375576 0.03394244 0.035711393 0.028940769 -0.027353395 -0.0356602 0.03620575 -0.04576413 -0.025274819 -0.037557498 -0.052644543 -0.024379736 0.012400705 -0.022617145 -0.02801499 0.010275401 0.0051116208 0.008804033 -0.013291812 -0.008029032 -0.04707202 0.015042595 0.009728609 0.0023401435 0.015306624 -0.013364492 0.034688115 0.027913006 0.02137538 -0.013556772 0.010861929 -0.037854414 0.009910949 -0.007919876 -0.0033486541 0.025452694 -0.030791173 0.014588784 0.024207136 0.031831734 0.012162874 -0.010574486 -0.028689599 -0.027788315 -0.03270453 0.044098407 -0.04124988 -0.042653516 -0.02853619 -0.03643516 0.0104270745 -0.010499658 0.014409203 -0.02319269 -0.04112927 -0.025265602 -0.041478347 -0.03704555 -0.0076085073 -0.03534481 0.039996587 -0.042231247 -0.013787869 0.03606869 -0.019094989 0.02749239 0.0196915 0.053827364 -0.017275548 -0.020279897 0.052673593 -0.01740468 0.013357594 -0.0022565227 0.006710514 -0.03186119 0.004419273 0.030827962 -0.045706924 0.011034045 -0.0363229 -0.0025882733 0.018584814 0.050202124 0.012963557 -0.0029761717 -0.0074382382 -0.020129373 -0.025989823 0.010030329 -0.046761923 -0.0042693373 0.036812797 -0.041125957 -0.044270717 -0.040898137 -0.014438804 -0.051793616 0.011807539
are -0.040661696 -0.019963678 -0.03618637 0.051033527 -0.035881665 -0.023289196 0.0005798779 -0.00022298089 -0.026729055 -0.036092643 -0.041227523 0.034557812 0.00060188165 -0.053061273 0.027012814 -0.037308514 -0.0392978 -0.0009622149 -0.022452367 -0.0033991656 -0.046314128 -0.0021513088 -0.023769204 -0.03167099 -0.0561325 -0.036258288 0.01717396 -0.00142768 0.01240588 0.02964735 -0.021735972 -0.016033022 0.03307689 0.043049898 0.04839288 -0.015724968 0.019652886 0.010185195 0.0029902288 0.019087054 0.00079407403 -0.0003610488 0.023611186 0.019832619 0.039131325 -0.024625432 -0.021918966 0.032988973 -0.0024099401 0.045794312 0.009964711 -0.019242477 0.025294991 0.042212687 0.024960073 -0.018759053 0.033823524 -0.015146461 -0.011890441 -0.0025699772 -0.038024824 -0.044881642 -0.03400149 0.0041680094 0.04235145 0.0094399955 -0.044677958 -0.052961323 0.033868123 0.04149909 -0.05106348 0.021414585 0.010888188 -0.030214747 -0.0141403 -0.03376417 -0.04114901 -0.025495224 0.04026726 -0.032984555 -0.051480338 -0.00078826357 -0.029630909 0.013508177 -0.047468863 0.030643117 0.033459652 0.03919777 -0.035517447 0.00479294 -0.021750508 -0.041211702 -0.029030137 -0.03604894 0.028168999 0.0014785517 -0.012882192 0.003439302 -0.007310203 0.042719733 -0.0017385387 -0.017054785 0.010694862 -0.020210184 0.022333026 0.0010808103 0.046633564 -0.0262955 0.042270876 -0.024227513 -0.0559617 0.048546456 -0.03384406 0.023471152 0.046466604 0.024843523 0.037580278 -0.024631422 0.04577704 -0.046545602 -0.034581166 0.039569933 -0.026789233 0.016955767 0.008694232 0.023494981 -0.022039602 -0.041522134
or 0.025874408 -0.009998163 -0.041611355 0.010515301 -0.018866733 -0.035600506 -0.043482758 0.03351705 0.003146086 -0.012778418 0.029037371 0.0046019377 0.042709123 0.041947823 0.031369127 0.050380368 -0.0397476 0.045902357 -0.04009821 0.008907703 -0.01455506 0.010093513 -0.008626207 -0.023279242 -0.01431441 -0.038013328 -0.045020543 -0.00867058 -0.024919761 0.014597989 0.003195141 -0.042144317 -0.052576307 0.028913144 0.03084942 -0.012523948 -0.0075745867 0.041559353 -0.03118044 0.042526294 -0.039702978 0.004005464 0.030571155 0.009496223 -0.013826218 0.005377921 -0.017169453 0.0043150117 0.011868521 -0.0030060054 0.048440024 0.04684066 -0.031154789 -0.00595855 0.008935655 0.039988622 -0.045563538 0.040329497 0.0400089 0.013783718 -0.0095431255 -0.031036282 -0.044544153 -0.048154157 -0.04255767 -0.012626766 0.0123154875 0.011254814 -0.027791547 -0.055482887 0.019053197 -0.02551982 -0.031336915 -0.00894796 -0.00022945285 -0.033302333 0.031476587 -0.015432829 0.021568181 0.002419205 -0.021702034 -0.05310225 -0.001474574 0.0110883 -0.009405231 0.05577829 0.010585573 0.014217739 -0.013724292 0.007500213 0.030299645 0.013319612 0.036916003 0.034966428 -0.04725496 -0.003085021 -0.0446351 -0.027798474 0.0068736025 -0.00585701 0.0033254407 0.028078169 -0.022224488 0.010500088 0.025415389 0.015264466 -0.02749224 -0.021583721 0.02324867 0.028078161 0.0119862305 0.03261138 -0.018231872 0.04107976 -0.041497726 -0.027417142 -0.053002767 0.024231829 0.014487985 -0.04260121 0.013356645 -0.014385323 0.046333786 0.018209409 -0.00058932765 0.0017868443 0.008392225 0.030959075
s 0.025744967 -0.0010045284 -0.004582841 0.049044777 -0.003545409 -0.02922708 -0.024582686 0.019740086 -0.0033981402 0.0236602 -0.007322826 -0.01325548 -0.017078742 -0.0016191902 -0.003621064 -0.042990126 0.010714433 -0.026807813 0.036137324 0.020457005 -0.019452635 0.03756894 0.014498193 0.051720172 -0.028084638 -0.0035058944 0.039434154 -0.03146954 -0.011240391 0.014486713 -0.04254871 0.024829742 -0.01795495 0.035428904 0.011962311 -0.01466389 0.050142754 0.023600398 0.032747068 -0.028931143 -0.023134792 0.019241719 -0.008977708 0.022691458 0.030589253 0.011129601 -0.018976448 -0.017053654 -0.029922124 0.022765476 -0.02130229 -0.02524613 -0.030154051 0.029241534 0.024372846 0.021309858 0.04241922 0.042168293 -0.037877105 0.00974629 0.03586424 -0.0018660527 -0.0411719 0.041206762 0.026910951 0.04512674 0.020197714 -0.015350983 0.045555487 0.0212203 -0.051041413 -0.009549783 -0.020016134 0.048159648 -0.0062817778 0.003099767 -0.029836914 -0.02265007 0.016950767 0.035706855 -0.05145196 0.04688124 -0.0020573477 -0.007859298 -0.032673217 0.04174315 -0.008843417 0.017215155 -0.047917284 -0.007993775 0.014627455 0.037911817 0.03827036 0.013227371 -0.009523905 0.024444193 -0.044281457 -0.05351219 -0.047418825 0.007311626 -0.04293306 -0.007605828 0.002175391 -0.011314802 0.013876366 0.012497869 0.03545632 0.005424521 0.048034992 0.047643095 0.0058723902 -0.04568795 0.019620605 -0.036702935 0.053848125 -0.003819817 0.025438726 0.012450532 0.016485723 0.0077958843 0.033430237 0.0024005119 0.0019806032 0.019091932 -0.009181873 0.020634187 -0.030398268 0.043701965
has -0.049426742 0.023430837 -0.01019522 0.026546763 -0.0034619293 0.0025950386 0.038152706 0.026812553 -0.045552794 0.029982407 0.01754129 -0.018365664 -0.047132153 -0.047675632 -0.03076639 -0.0029234998 0.044071805 -0.03668868 0.009758872 -0.04523813 0.048346564 0.024374774 0.021220783 0.026135882 -0.04576963 0.038171496 0.04809916 -0.016385192 0.01051857 0.0116575565 -0.029812472 0.028696002 -0.005878444 0.035569713 0.032343734 -0.010996498 0.041034825 0.006144457 0.012240367 -0.042665403 0.03392805 -0.021291004 -0.048687436 -0.020326741 0.016737517 -0.022180628 0.031148415 0.011878944 0.011759561 0.008038878 -0.02905217 0.031795207 0.01420892 -0.018192952 -0.04595536 -0.010776399 0.023816936 -0.042896137 -0.0046165064 0.03340216 0.030843597 -0.02754505 -0.029487185 0.005227468 0.0349678 0.033763945 -0.03850222 0.013247383 -0.031322483 -0.049764108 -0.0145494575 0.011767567 0.00014145853 0.016720595 -0.04135285 -0.0023692169 -0.02095941 -0.008696343 0.030414239 0.0054709497 -0.007151189 -0.027540997 0.023166666 -0.048136804 0.053898852 0.0071910964 0.028014842 0.0050487313 0.038326472 0.007047504 -0.041963335 -0.017502533 -0.05213122 -0.03535704 0.02216747 0.0061813616 0.026030108 0.039954796 -0.00010141554 -0.03858222 -0.01849453 0.008766571 -0.015175501 0.0041751713 0.033642232 -0.038669255 -0.021661978 0.04829715 -0.036892906 0.04542245 0.030673765 0.0061467597 -0.03243045 -0.041365646 0.047354367 0.00082419615 -0.011197788 -0.03180102 -0.04131573 -0.032927964 0.051338322 -0.0070502446 -0.049290102 0.0152446935 0.007427882 0.022033248 -0.014782738 0.029532632
that -0.035836045 -0.023938056 -0.047102112 0.0072083077 -0.037619013 -0.0030041775 0.034315802 0.033253565 0.00665284 0.047865536 0.038769953 -0.008820059 0.03812796 -0.04293624 0.0127972355 0.027274895 -0.022384768 -0.0097175045 -0.007616452 -0.02892375 -0.008707222 0.019701526 -0.010153179 -0.04671941 -0.03311891 -0.013293569 -0.016310863 0.044183996 -0.0074271727 0.034325127 -0.002002325 -0.042404458 -0.0046915766 -0.0016361799 -0.018173296 -0.04621573 -0.043405093 -0.037070863 -0.030938882 -0.01660388 0.0322898 0.022261303 0.041284874 -0.01418487 0.0035442647 0.030771479 -0.008666363 -0.029609239 0.05215693 0.03760573 -0.01443554 0.040631793 -0.022351222 -0.012177795 -0.014014421 0.03131157 0.041567158 -0.04224582 0.04915414 -0.030120786 0.010723249 -0.011676436 0.027174309 0.021141067 0.02826707 -0.005488811 0.021855412 -0.042782795 0.036657445 0.02908102 -0.044813607 -0.04301378 -0.0018807708 -0.018124709 0.022834066 0.032336622 0.023237638 0.039763875 0.00990874 -0.005830158 0.0041525527 -0.016636016 0.018232906 -0.028802773 -0.03034423 -0.035774153 -0.013311812 -0.01637504 0.033287287 -0.02825812 -0.01222102 -0.043935474 -0.020443117 -0.040083323 -0.019435521 -0.03212524 0.0077052857 -0.035048816 0.048734553 0.022613792 -0.0059688548 0.03340863 -0.034843747 0.046798997 0.0023024722 0.0005548326 0.011820802 -0.04856079 -0.02877017 -0.015324358 -0.013711818 0.001069078 -0.017073229 0.037783418 0.006812096 0.04323477 0.033513784 -0.015614409 -0.029092228 0.0068067526 0.005261503 -0.003520903 -0.033868346 -0.039342448 0.025612077 0.009231078 -0.018808078 0.04842108
2 0.0054211738 -0.03367476 -0.041186225 0.014817995 -0.044434674 0.007764272 0.047473796 0.00778181 -0.041486192 0.05112314 -0.024877168 -0.048953757 0.012067234 -0.030646319 -0.022806494 0.013044179 0.023292186 0.011422163 -0.0049203373 0.025692107 0.0235724 -0.019136677 0.03988469 0.052156683 -0.015009695 0.03078458 -0.023247495 0.04368954 0.044828437 -0.014691706 -0.039550185 -0.020640852 -0.034279346 0.02855307 0.021057352 -0.032650042 -7.652142e-05 0.0056286626 0.023857541 -0.0219833 0.00849829 -0.0035405417 0.03459363 -0.039050072 -0.019123683 0.029022252 0.034666784 -0.02433219 -0.037136387 -0.004837215 0.012631199 0.048139527 0.0074891504 -0.008530215 -0.0149079105 0.018201403 0.016459193 0.017468791 -0.023095816 0.015363377 -0.03955197 -0.047874838 0.031084452 0.042485893 0.00093332503 0.051603578 -0.04744304 0.042695686 0.01115628 -0.053369697 0.020619906 -0.018609772 0.041023117 -0.03869337 0.03829528 0.003883293 -0.047065612 0.019130355 -0.001641433 0.015743764 -0.020698676 0.008207029 0.0052979663 -0.02896501 -0.017663764 -0.04402786 0.01082952 0.015802525 0.02940236 0.01170824 0.025739688 -0.04946516 -0.03269319 -0.0016841156 -0.018935934 -0.040454905 -0.04198532 0.025363231 -0.027798165 0.013567991 0.009722528 -0.016140489 0.00044761185 0.009297613 -0.040839843 0.015750129 -0.0018353951 -0.042737063 -0.052748512 -0.02622478 0.04108072 -0.003712045 0.035345547 0.043358862 0.04556053 -0.016792795 -0.046978563 -0.04908581 0.03777358 -0.02359121 0.035366464 -0.017889822 0.012598499 0.03152992 0.005937166 -0.03495301 0.00061891536 0.042905573
share -0.0025458818 -0.02761735 -0.008970197 -0.03473957 0.021859746 -0.015315661 0.014745296 -0.039007097 0.015262922 0.043051157 0.019069778 0.021199588 -0.026818555 -0.009482889 -0.031628158 -0.029092647 0.001961865 -0.006287723 -0.056429476 0.026706954 -0.01976816 -0.0034481583 0.023650669 -0.025460152 -0.054074507 0.0042067487 0.033107124 0.026813312 0.01372334 -0.0006981868 -0.011864782 -0.05694689 -0.027712489 -0.004183375 0.04420081 0.018063992 0.020593425 0.016683206 0.017926997 -0.018470673 0.018794654 -0.023151243 0.031062512 -0.010282339 -0.0071915197 0.016179089 -0.038657896 -0.031978246 0.016186163 -0.017956438 0.036284596 -0.038470615 -0.03863007 0.027733056 -0.028173072 0.015917007 0.031386543 0.0024228618 0.005561336 -0.02975979 0.033479996 0.018101763 -0.03617144 -0.0399606 0.011755099 -0.036129124 -0.0048438255 -0.043545008 0.0038402812 0.007914646 -0.04515175 -0.051407672 -0.044854827 -0.006917958 0.01823325 -0.016216097 0.017663144 -0.014412753 0.046415787 0.013265535 0.0063996804 -0.03797791 0.0011916102 0.0385757 0.028115958 0.0051409383 -0.035776332 0.026667552 -0.007175184 0.04695897 0.029128803 -0.041832443 0.041374616 0.056303587 0.003541506 -0.05162239 0.049612723 0.032041144 0.021660754 0.035368055 0.0066688815 -0.022191824 -0.047745764 -0.012197974 0.03539917 0.0061262567 0.0074651116 -0.038246598 0.0068261004 -0.0031140998 0.00508965 -0.024211507 -0.025305677 -0.03243271 0.026039435 -0.032018207 0.03427998 0.029171744 0.013265136 -0.0021599315 0.03235475 0.04153777 -0.040057387 -0.030627135 -0.022031205 -0.040806916 0.039620187 -0.03858327
1 0.017697927 -0.01440805 -0.018706102 -0.0005824702 0.031488024 -0.02510227 -0.0393497 0.034824364 -0.017927205 0.032487847 -5.7992525e-05 -0.014987351 -0.029762398 -0.005303824 -0.048303336 -0.018392505 -0.027343396 -0.028536493 -0.028819056 0.03430052 -0.00030216202 -0.035953466 -0.020361245 0.05179269 -0.019276658 -0.027796801 -0.011003005 0.04128864 0.036373146 0.03633488 -0.018183399 -0.035572283 -0.047377195 0.047199603 -0.039517213 0.043002956 -0.013762955 0.037429765 -0.015349484 -0.033520926 -0.026008643 0.047740053 -0.009118997 -0.0071157548 -0.01068595 -0.02401382 -0.02366887 0.0042819926 0.029511744 -0.042472593 0.0005784066 0.013306595 0.023182495 0.0026079365 0.045056988 -0.020685827 0.0076725306 0.0035751332 0.023226684 0.01373386 0.0013350723 -0.042547584 -0.028098576 -0.0020667803 -0.015155123 -0.016814932 -0.026663324 -0.0021400067 -0.024911826 -0.04094252 -0.03395687 -0.013228519 0.020111438 0.024552349 -0.01749317 0.009725211 0.004764661 -0.03401596 -0.023096299 0.026437052 -0.03884869 -0.034047168 0.03711814 -0.04465861 0.027977303 0.027727949 0.05104268 0.010913192 0.048345707 0.04625522 -0.041857116 0.04185027 0.0061148554 -0.03139111 0.04751655 0.026781645 0.051537387 -0.049453557 -0.02539061 0.025958799 -0.009615314 -0.041951545 0.030000512 0.027314305 0.009686372 -0.021244679 -0.04896573 -0.025032286 0.04325358 -0.036424536 -0.043738555 0.043202136 0.031509656 0.0034263618 -0.02843334 -0.03045411 -0.04590524 -0.015538274 0.016130589 -0.023736969 -0.025176274 -0.03916683 -0.051667556 0.019928912 -0.0455238 -0.024477687 0.038551204 -0.005915047
as 0.036178704 -0.048353758 -0.052396648 0.026068179 0.02695403 -0.0021409804 -0.03134056 0.004904344 0.00784457 -0.033637688 0.00065986643 0.039101884 -0.014704343 0.01737818 -0.024145259 0.026707677 0.010656005 0.006424279 -0.024263883 -0.021768402 -0.04346672 0.02360912 0.03368455 -0.0069115767 -0.04656077 -0.023464877 -0.011063946 0.03920632 0.004364045 0.0031470654 0.032990266 0.0070489165 0.00789858 -0.025280042 -0.015709545 0.048754163 0.027464435 0.003215499 0.0050562723 -0.023761606 0.01903822 -0.027400972 0.031618234 -0.011256896 -0.023256458 0.007336895 0.028132023 0.017328309 -0.029609397 -0.04332731 -0.030888006 0.052044142 0.0055204853 0.05126153 0.043680884 -0.031072171 -0.030794032 0.039100476 -0.034840092 0.0012802922 -0.03899044 -0.036797363 -0.0076192347 0.039595183 -0.03089086 -0.024014622 0.00018459785 0.03284182 -0.016864754 0.012465724 0.015108062 0.024115192 -0.035291463 -0.016064715 -0.028780757 0.043971125 -0.04325371 -0.00017264206 0.04134161 0.027090034 0.02893764 -0.052278638 0.013208362 0.029649086 0.04498235 0.032378256 0.041147422 -0.043710582 -0.02017279 0.018759904 0.053449076 -0.030991187 -0.008177561 3.6199199e-06 0.020217173 0.03138628 0.04241942 -0.01619669 -0.021132186 0.0106867505 -0.008588387 -0.018274605 -0.034910645 0.013127113 -0.03403755 0.03364666 -0.036174588 0.009997242 -0.029782234 0.014923233 -0.041733105 0.010780182 -0.025920574 0.017568253 0.031107286 0.02689874 -0.03669972 -0.030647568 0.029737914 0.0016626936 0.029949337 0.022438101 -0.016256867 0.03770453 -0.03715368 0.025376117 0.018932497 -0.023107246
was 0.024202125 0.042592052 0.043192927 -0.040400345 -0.021301176 -0.010325203 -0.0433128 -0.034480695 0.04046553 -0.04505514 -0.01786156 -0.04225121 0.04583974 -0.05523439 0.039353658 0.0327695 -0.03705435 -0.050388213 0.014842597 0.021278935 0.0110567715 0.019627945 0.03232424 -0.0058233715 0.016864201 0.051984105 -0.022694072 0.012308102 -0.0029540886 -0.026349243 -0.017234705 -0.032497324 -0.0012237679 -0.0050203498 -0.037225172 0.052972578 -0.00850107 -0.033302993 -0.011765911 0.019728307 -0.034834925 0.037881665 0.049491283 -0.03924181 -0.050826516 0.02900088 0.042715423 0.023350827 -0.043316245 0.035426956 0.00335043 0.019749684 -0.030157555 -0.036292735 0.03234538 0.046236247 -0.007842862 -0.025179803 0.0057941955 0.05065949 -0.03303857 0.013530144 -0.04651287 -0.015428585 0.032104753 0.008895076 0.042688973 -0.024399906 0.0034588368 0.030716958 0.0014940657 0.002872189 -0.028338704 0.0065376447 0.011283452 0.004316906 0.0075775646 -0.0067924475 -0.041072045 0.00096374913 -0.03235341 0.008438535 0.026032295 -0.021354828 0.048757747 0.011835058 0.013088765 0.033217866 0.04154678 -0.039106987 -0.00097437855 -0.023766115 -0.0016321305 -0.010324032 -0.047184132 -0.013906846 0.04978495 -0.0066794837 0.038589105 -0.016744297 -0.03833066 -0.03116568 -0.030646322 0.022298072 -0.0011885834 0.012316374 -0.0046616583 -0.035571568 0.030887024 0.0015587101 -0.003981314 0.028039444 0.031086491 0.0064917565 -0.029327644 0.034511477 0.020893846 0.04498395 0.021944584 -0.03163378 -0.01268308 -0.0031868776 -0.029156893 0.011197142 0.016345976 -0.022081193 -0.015292136 -0.022123208
exchange -0.0365707 -0.04176514 0.004527049 -0.015950566 0.024113458 -0.03766171 0.036052313 -0.010093009 -0.023396038 -0.037563823 0.030465761 0.022470037 0.016135247 -0.0445179 0.03948002 -0.051727843 -0.0315781 -0.0069396915 0.0034237434 0.011175893 0.040337343 0.019282999 0.0030296964 0.025218321 0.018848881 -0.036203463 0.039798364 -0.026381565 0.0485852 0.043798383 0.052927252 0.042777035 -0.027794044 0.03788129 -0.040329028 0.0071803858 0.015468214 -0.002447909 0.006454411 -0.03784895 -0.031063393 0.04212301 0.036471575 -0.029377803 0.0021402487 0.024583025 -0.033318613 0.009887451 -0.033128936 0.042477522 -0.034153122 -0.036771156 -0.042256296 0.040209763 -0.0034392683 -0.026278319 -0.05057377 -0.031145295 0.036419556 -0.013994273 -0.05194961 0.027038548 -0.040986728 -0.018888079 -0.034102052 0.033140626 0.029700954 0.025604678 0.038444992 0.027392026 -0.009314379 0.0059553357 -0.015160994 -0.03665464 -0.04369258 0.022137616 0.04276561 -0.016261177 0.013313817 0.044002343 -0.00435619 -0.02877216 0.0032357625 -0.051143434 0.03478436 -0.03445826 0.00094250106 -0.033597775 -0.010162251 0.041309007 0.0533095 0.008960446 -0.0029513824 0.0094226245 0.03960849 -0.04691548 0.003614531 -0.039129138 -0.042299557 0.020471478 0.009718026 -0.020558558 -0.0036520208 -0.029038155 0.020398742 -0.04428463 -0.012517983 0.042471368 -0.043796524 -0.0060408395 -0.024624582 -0.034097627 -0.039298028 -0.013847148 0.01020709 -0.035116706 -0.04308664 0.008670457 -0.031361297 0.016025897 0.0070364214 0.023037504 -0.037693046 0.034313384 -0.02951101 -0.036031567 0.0052486914 -0.010080044
30 0.023426568 0.007743462 0.026769865 -0.024194028 0.03609513 -0.013020192 -0.0063486625 0.005503132 0.019758105 0.0151328165 -0.008997036 -0.041284576 -0.013267943 -0.03359139 -0.041604806 0.016177755 0.014985934 -0.018909696 -0.0060528973 -0.032514017 -0.033755567 0.03609987 0.025449257 0.0061111436 -0.043121025 -0.013816699 0.031194445 -0.013705051 0.0014636021 0.044563293 0.04709536 0.042600643 0.032052208 -0.027114363 -0.00420982 0.027161488 0.027726341 -0.04053896 -0.036380842 0.04494109 -0.040144205 0.00085729023 -0.011368183 0.004243906 0.017711736 -0.0125414925 -0.014362091 -0.04324236 -0.011936767 -0.02827154 -0.008630167 -0.004168843 0.01842483 0.023532212 -0.01267019 -0.029263629 0.009844952 0.048676882 0.03363954 -0.033984426 0.010712954 0.04053252 0.04187563 -0.02082022 -0.051283315 0.051842865 -0.05551177 -0.011131141 0.03912096 0.040478375 0.008079555 -0.016948309 0.0028248508 0.009212415 0.0008162329 -0.025088083 -0.011222536 0.023885373 -0.024799755 -0.027629778 0.025458787 -0.0468 0.000988218 -0.034255877 -0.038301602 0.011515209 -0.0040071006 0.016157074 -0.02477729 -0.03702305 -0.0022625534 0.032820977 -0.016857434 -0.013320913 0.020006621 -0.04988995 0.039315086 -0.04732791 0.037730504 0.009318147 0.0021190224 0.018289346 0.004776682 -0.01996064 -0.012960591 -0.005856734 -0.034420945 -0.0064237663 -0.029614953 -0.04238035 -0.010038155 0.010918737 0.022064414 0.023910806 -0.011934143 -0.038380884 0.023786778 0.038276292 -0.028372748 -0.0009886678 -0.02735213 -0.018040277 0.042114876 -0.012966063 0.020040635 -0.038434282 0.029658372 -0.038066156
be 0.03765263 -0.011703544 0.02023095 -0.010091128 0.044137906 0.05638015 -0.035135813 0.009172586 0.042708844 0.027819596 -0.038906287 0.025148323 -0.03292539 0.029938031 0.020613804 0.0031470966 0.022091731 -0.04154243 0.010224023 -0.005128731 0.04888274 0.003463096 0.002995422 0.01468838 -0.009056194 0.04881992 -0.044961106 -0.034554426 -0.043248963 -0.029426876 0.03257061 -0.046250757 -0.022442665 0.038943432 0.011473693 0.015794132 0.034015767 0.033014774 -0.004541433 -0.006328735 -0.024280518 0.022780117 -0.018028826 0.044380013 0.008513284 0.042277724 0.009434803 -0.010342894 -0.018884156 0.01986245 -0.0030514358 -0.038214855 0.016199123 0.008791141 0.052655987 -0.0006876575 -0.016467197 -0.013965456 -0.036362913 0.04346575 0.039010156 -0.017871128 0.0470676 0.009536819 -0.022533705 -0.038628187 -0.017962841 0.008499649 -0.009998168 0.041588567 0.02996692 0.041106526 0.047697198 0.031488843 0.010243147 -0.015796568 0.029045174 -0.03749225 0.036013994 -0.03659736 0.011260838 -0.031094871 -0.025090493 -0.031324167 -0.029476905 -0.0024241745 -0.0076752314 0.031224886 -0.006486789 -0.019387659 0.033533763 -0.008469175 0.03381077 0.0074462686 -0.037111554 -0.004555898 0.029253935 -0.019902982 -0.034683753 0.02898183 0.034609187 -0.044076756 -0.00055629964 0.013523746 0.00074563746 0.028578581 0.023473812 -0.0018386286 0.023025962 -0.007972986 0.010389255 0.0151065625 0.010738342 0.026125908 0.010346745 0.006730183 -0.045747228 -0.03987914 -0.025595127 -0.014155041 0.013750146 -0.014226388 0.013415808 -0.035007462 -0.032574877 0.038176805 -0.00412445 -0.003610357
per -0.0007080487 -0.0076382495 -0.03387947 -0.0097526815 -0.020825827 0.0144199245 0.04318694 -0.011520375 0.038790617 -0.033518046 0.02604864 -0.05156838 0.017291585 -0.034739126 0.0027720693 -0.047424532 -0.009391325 0.015336845 0.020710856 -0.042838283 -0.047911875 -0.0419548 -0.033587266 -0.0041002748 0.002121279 0.045477226 -0.032314524 0.055422936 -0.011046403 0.052986216 0.050521422 -0.041181184 -0.052325033 -0.0148152 0.017902043 -0.019888762 -0.017363477 0.04588785 0.024974924 -0.029830508 -0.023920136 0.024252636 0.041389983 -0.012025197 0.013461179 0.034391005 -0.01458187 0.026805364 -0.0034909225 0.03270104 -0.022536915 -0.006450644 -0.0474299 0.03254509 -0.031673085 -0.052406617 0.027440673 -0.023654824 -0.044592682 -0.039053746 -0.05540739 0.051586326 0.013454685 -0.03530011 0.04635272 0.046358395 0.0064503164 0.028036451 0.024132477 -0.031283908 -0.021823453 -0.05190735 0.039533976 0.013736903 0.03467279 -0.017830346 0.023035267 -0.021611582 0.016269952 -0.02955999 0.033833046 0.0029685057 -0.050949194 -0.043550875 0.0056053055 0.011228146 0.04501384 0.018881707 0.025641637 -0.0249386 -0.022516333 -0.046847075 -0.041827902 0.039457127 0.027800012 0.031536046 -0.027391447 0.035255622 -0.011315962 0.045731913 -0.03498146 -0.041837465 -0.0077002905 0.011541302 0.033983637 0.036578413 -0.032836147 0.013274222 0.024972104 -0.008424978 0.025665797 -0.013301228 0.04178391 0.027047677 0.051022615 0.005958559 0.042993452 0.039542355 -0.0026796842 0.0040185302 0.016678764 -0.042991485 0.02032055 -0.033967916 0.030961549 0.026286334 0.03034364 -0.021886673
income 0.041313086 -0.018784354 -0.029620437 0.019257668 0.05215339 0.047486555 -0.004696079 0.04048802 -0.034079764 0.041264575 0.03709063 0.036532957 -0.00062803435 0.0072504403 -0.045406643 0.00581783 -0.013725242 0.026394494 0.020951444 -0.05357363 -0.01481182 -0.044134755 -0.0007400331 -0.020302681 -0.0031950863 -0.017880123 -0.044802584 -0.035783574 -0.005715725 -0.043281943 0.021504452 -0.028769337 -0.052783992 -0.03904133 0.032938182 0.007860161 -0.0025362726 0.02316015 -0.044627726 0.012460391 -0.044659317 -0.0051447204 -0.010793375 -0.034252357 -0.022952178 0.048062913 0.007829536 0.018182043 -0.047664925 -0.031953424 -0.03244896 -0.0257515 0.039580308 0.043533426 -0.028863084 0.051642913 0.023643227 -0.0015082004 -0.00764902 0.0017697276 0.022112755 0.043170094 0.0047146697 0.01354625 0.005027438 0.050929543 -0.030349458 -0.015550161 0.009031091 0.037703305 -0.016830845 -0.025997177 0.007097547 0.03949758 -0.010670748 0.0344569 -0.021371057 0.03065843 -0.007261702 -0.03518104 -0.026713565 0.0127565665 0.040565826 0.009639944 0.0061106095 -0.016883556 -0.05073715 0.0005913166 0.032002546 -0.024217157 -0.01116357 0.00087511074 0.02524304 0.0034613216 -0.04161098 0.03516936 -0.043978956 -0.022073189 -0.04473489 -0.0042022765 -0.0015196695 -0.03596794 0.01409183 -0.0007431332 -0.03594271 0.024768295 0.0030301092 -0.03708557 0.033558175 -0.0013944197 -0.048663285 -0.014979677 0.036830887 0.013542848 0.05565999 0.026449999 0.01465472 0.043353878 0.008714 0.014296669 -0.037502006 -0.02325772 0.0018916496 0.013958576 -0.025660377 0.049369533 0.015203109 -0.03960086
u 0.01667592 -0.050878707 0.0068648322 0.029319711 0.030812059 -0.013124162 0.020802027 -0.044273876 -0.032299038 -0.03432148 0.014086365 -0.04604773 -0.030522581 0.03409109 0.023262661 -0.01817817 -0.035595626 -0.034141716 -0.0058403905 0.01508378 -0.0348156 0.03899804 0.046273757 0.008237446 -0.04739445 -0.015937917 -0.040208533 -0.041219667 0.02747884 0.013265583 0.0120528145 0.02286902 0.03718844 -0.02199852 -0.034596615 -0.013301986 -0.025161836 -0.002683248 -0.020027805 0.033218943 -0.0009400211 0.0146388775 0.046525907 0.037463956 0.019843286 -0.032283295 0.025914252 0.018661154 -0.04113641 0.03248759 -0.04575337 0.0441664 0.03621237 -0.022439584 -0.052338365 0.01983964 0.013869428 0.008263419 0.030534608 0.0070292978 -0.00991833 0.019582145 -0.036520563 -0.055480547 -0.04372096 -0.014408483 -0.05282621 -0.046337992 -0.0059408424 0.021962406 -0.050075367 -0.035621807 -0.0027806796 0.007740304 0.03454325 -0.030847771 0.024460776 0.036830794 0.045838423 0.019203058 -0.049043443 0.011111739 0.053551495 0.011838652 -0.0152610475 -0.0005594706 -0.026872333 -0.027618255 0.025131676 -0.02159462 -0.01357259 -0.040728696 -0.027521593 0.01218189 0.02706057 -0.032465197 0.027783185 -0.013148808 0.019935215 -0.025105175 -0.002350594 0.023143271 0.019570021 0.0034723955 -0.04454294 -0.037198745 0.042282816 0.04198214 -0.011623147 0.02240596 -0.03816084 -0.018973254 -0.0059272177 0.0446639 0.046720468 -0.012408521 -0.0446297 0.032394316 0.041256882 -0.041773293 0.025749834 0.04644544 -0.0046489397 -0.0063383733 -0.021126857 -0.020262055 -0.047314968 0.046780255
sales -0.042163316 0.04203887 -0.017895784 -0.049182612 0.035664808 -0.0028337443 -0.0037465661 -0.0025303548 -0.044538207 0.034692734 0.010494059 -0.015219042 -0.011592587 -0.004403512 0.0055364813 -0.02140578 0.02615965 0.030067503 -0.046884444 0.0065921596 0.045074385 -0.027171336 -0.040904313 0.05238927 0.004920799 0.013278565 -0.046902772 -0.01631491 -0.023409117 0.03465268 -0.0050077043 -0.04760304 0.04087634 0.0059247944 -0.018684404 0.046022583 -0.032101363 0.011036638 -0.020831564 -0.033753686 0.0007839919 0.03929888 0.015726054 0.006016609 -0.04315503 0.036161557 0.003274579 0.0163654 0.018443238 -0.04210727 0.030135674 0.049323283 0.0141266575 0.018586464 -0.042581737 0.014511538 0.033033155 -0.0073571606 -0.03685673 -0.034117777 -0.008752896 0.022585135 0.032025043 -0.040638663 -0.023213657 -0.031368475 -0.026440099 -0.035186373 0.033293907 -0.04333626 -0.02964681 0.040827155 0.04969959 0.012568055 -0.030553848 0.008764431 -0.054672305 0.032377806 -0.015336273 -0.018245539 -0.037681457 -0.047480486 -0.014395173 0.006353338 0.047497753 -0.05077599 -0.04277579 0.030770088 -0.022218877 -0.0012459569 0.012918927 -0.02392373 -0.022914609 -0.009478356 -0.039649293 -0.0385585 0.0147245675 -0.027524121 0.007886232 -0.038528915 -0.019912515 0.007129941 0.04694119 0.049212143 0.0175729 -0.028656285 0.032005824 0.027540674 0.016205901 -0.025834765 -0.052696146 -0.037602212 -0.030269584 0.017027203 0.041880436 -0.033120442 0.015842404 0.011238952 -0.016721075 0.045370903 0.03333136 -0.0011901105 0.016098062 -0.04614992 -0.033448793 0.022266448 -0.04015274 -0.049615066
cash 0.0049001384 0.03469422 0.033257704 -0.006316803 -0.020528655 0.038507234 0.018190539 -0.021090861 0.0032266842 -0.036719933 0.052037124 -0.01165604 -0.013589445 -0.026593471 -0.015533405 0.03560349 -0.026608061 0.04089372 -0.026354697 0.026754335 -0.023767155 -0.045624256 -0.042961523 0.052089613 -0.0069997814 -0.043660644 0.031177504 0.017159516 0.028033063 0.007400149 0.039339647 0.03211473 -0.0068193763 0.034112383 0.015017597 0.0023086492 -0.0046579004 -0.04418533 -0.043551516 -0.038890883 -0.0035243605 0.004251214 -0.0046654535 0.026753029 -0.03528257 0.045296088 0.046785735 -0.0139283715 -0.008802671 0.015239411 -0.01650429 0.021870906 -0.033166658 0.04163632 0.014256766 0.02695449 0.041693937 -0.039083567 -0.006365697 -0.03810199 -0.00734084 0.03883307 -0.052699585 0.037648257 0.021995528 0.049606968 0.035031144 0.018000476 -0.033821944 0.03955529 0.030284882 0.02940994 -0.008682047 -0.01889213 -0.0328401 0.017303761 -0.01569505 -0.037497018 0.026591003 -0.036386304 0.021542257 -0.005370643 -0.015842453 -0.013122135 0.04331118 0.042327825 0.032147426 0.0041795634 -0.021154031 -0.0016392703 0.033981603 0.017585412 -0.008230728 -0.035550565 0.0010256349 -0.030861467 0.048703197 0.037875786 0.027383067 -0.028151993 -0.0025368235 -0.022758372 -0.049045734 0.017155739 0.0090745585 -0.046094257 0.040059343 -0.022193294 0.026212886 0.008650522 -0.008486844 -0.046054605 -0.04063779 -0.046268217 -0.041583717 -0.046425123 -0.019145578 -0.005199448 -0.038539264 -0.025846537 -0.05331926 -0.026620775 -0.031024119 0.043022543 0.022794914 0.0025964053 0.0014609993 -0.029049255
with -0.04018877 0.043876983 0.035787273 -0.033508535 -0.042001884 0.009596008 0.02600519 0.026251376 0.0026943074 0.0026644254 0.016253559 0.006208882 -0.037456855 -0.05454769 0.013180107 -0.04315817 0.031882614 0.036177706 -0.05316793 0.0012271658 -0.011951325 -0.022891132 -0.03381704 0.012690832 -0.012789244 -0.044218097 -0.045965705 -0.0025148937 -0.027294932 -0.017450474 0.036051497 0.022660712 -0.015369229 -0.047735687 -0.008699313 -0.03190665 0.020783018 -0.010469877 -0.0076108486 -0.015264418 0.047525607 0.039261732 -0.03219839 -0.009762863 0.007903142 0.017088113 0.015501133 -0.035728857 0.041729026 -0.024414394 -0.039910033 -0.041449405 -0.03907386 -0.033038832 0.0074633304 0.0051952056 -0.007161238 0.023153316 0.018102372 -0.02927839 0.04312929 0.03600636 0.008688152 -0.03494697 -0.046224218 -0.0038406695 -0.0058597294 0.033703297 -0.03351077 0.018295664 -0.035412714 0.03132511 0.047433153 0.021382619 -0.007500833 -0.026684087 -0.001011366 0.025280349 -0.034698866 -0.006599222 -0.030978747 -0.0464771 0.007262115 0.042051636 -0.011953306 -0.039084863 0.01596678 0.00055043533 0.015757093 -0.0037291069 -0.014635733 -0.021876205 0.043268047 -0.007876526 -0.021616729 -0.049782027 -0.044255935 0.016691528 0.028291468 -0.032801483 0.026113547 -0.027253667 0.037666045 -0.008664961 0.03449862 0.010250057 0.0029672398 0.046146642 0.03982022 0.034604788 0.015222638 0.04254032 -0.0013612312 -0.008188913 -0.02663606 -0.0031350928 -0.024388956 0.032214545 0.021822298 0.012443915 -0.039049085 0.04088036 -0.039746426 -0.045245253 -0.025704691 0.017458677 -0.0066816835 0.019839568
is 0.031144131 0.044994153 0.002220229 -0.012407079 0.012370575 0.029287254 -0.011451279 0.024766697 0.040983096 0.042511415 0.009092805 -0.004156873 0.032360718 -0.022668308 0.027718283 -0.00674377 -0.0094660865 0.038268916 0.018544167 -0.019515185 0.050327595 -0.0074834996 0.03490418 -0.006001645 -0.00449855 0.015264335 0.037502117 -0.039882813 -0.0425332 0.016606756 -0.03701608 0.028178673 0.02178152 0.020301236 -0.0015037751 -0.029916815 -0.03419828 -0.020307595 0.014421689 -0.022942945 0.03215998 -0.04786185 0.011904905 -0.05571516 -0.025875637 0.021726616 0.010492275 0.009442694 -0.026934722 0.05181108 0.015596032 0.037869666 -0.01833545 0.008329699 -0.0046236645 -0.04425025 -0.043193262 0.026515711 -0.014441668 0.04390595 -0.043850724 0.02151051 0.022835318 -0.030145997 0.022798082 0.023647143 0.042264476 -0.045850344 -0.034708 0.04289476 0.010257772 0.006551191 0.000113282586 0.03154195 0.04218617 0.00075323356 0.05048279 0.043913763 0.037962962 -0.023117503 0.026913181 -0.053066947 0.019281968 0.037557144 -0.004100683 -0.04428227 0.049609687 -0.042002033 0.043977123 0.03764666 0.005863455 0.025460789 -0.032989576 0.04090361 -0.0027994416 0.0074689183 0.022586789 -0.014436802 -0.0059921322 0.028264241 -0.040034533 0.03161836 -0.026403155 -0.010914943 -0.041018978 -0.049451616 -0.034737956 -0.006164426 0.03249794 -0.0055520707 -0.0032781446 -0.051710807 -0.01797649 0.044145726 -0.010813177 -0.051377136 -0.030684372 -0.040794745 -0.0004765804 0.020049572 -0.013536284 0.013075402 0.034427058 0.039630637 -0.009887236 -0.039448757 0.02408782 0.024833456
oem -0.031592857 -0.018099837 0.018412959 -0.037498455 -0.015307281 0.0037916182 -0.004813454 -0.04036596 -0.043088168 0.025299735 0.03069065 -0.0285485 -0.014794607 0.03578169 0.021377074 0.03222444 -0.0366794 0.02892379 0.02852483 0.037674725 0.046110652 0.018994676 0.024728794 -0.0067972858 -0.0012896091 0.0024189507 -0.021046937 -0.0365198 -0.01909335 -0.033147532 0.046109285 0.0329739 0.042566005 -0.05143756 -0.033146463 0.051703878 -0.01965909 0.024375202 -0.020003507 -0.03951263 0.05117482 0.040078364 -0.014612317 -0.019328075 -0.025804441 0.009961214 -0.05342772 -0.02661655 0.015909422 -0.039252196 0.0083787525 -0.017948184 0.035427053 -0.039389446 0.039723158 -0.014823928 0.029216498 -0.00604076 -0.03440732 -0.018374024 0.01335713 0.019148812 0.038013343 -0.036472484 -0.022441033 0.04098537 -0.013055268 -0.04629354 -0.041631356 -0.024901643 0.025838004 -0.034873266 -0.04498525 -0.0112857185 -0.033841558 0.038570642 0.0328343 0.021774918 0.012532576 0.023153631 0.014781542 0.029982725 0.051693182 0.010733992 0.026247283 -0.03650219 -0.040585354 -0.015576067 0.01835092 -0.031212851 -0.037874017 0.038764462 -0.017652327 0.009373477 -0.006334007 0.011605862 0.04388989 0.021849578 0.022445915 0.047692604 0.020021541 -0.03818493 -0.03537583 -0.0045584524 -0.011957924 -0.0397232 0.026526412 0.0025019425 -0.036001865 -0.020833148 -0.014507712 0.037438903 -0.018354705 0.025973689 0.046810616 -0.012886327 0.017793193 0.036312383 0.03847981 0.03603239 -0.04214493 -0.014862049 -0.020667406 0.03967679 0.049647592 0.0019376681 0.03386651 -0.017389843
operating -0.0025044358 0.007912465 0.03075172 -0.02787413 0.00071495795 -0.020255232 0.008120193 -0.018739993 -0.04270908 -0.022193968 0.009853122 -0.04986297 0.04216706 -0.011043813 -0.050741065 0.012235654 0.041165166 -0.04122908 0.035013705 -0.03514883 0.00073274266 0.003940054 -0.04214178 -0.005943587 -0.050557345 0.022527922 -0.009628399 -0.018013021 0.035109285 0.0077813887 0.015503029 -0.017334703 -0.0031008362 0.034203168 -0.046979696 -0.03395331 0.015571462 -0.047820956 -0.007772221 -0.0085770795 0.0021461302 -0.020559663 0.048656486 0.0031028287 -0.034095343 -0.014340313 0.022465661 0.030194549 0.0022959171 0.012252672 0.025699364 0.032619398 0.014959657 0.024725918 0.043750674 0.02133384 -0.002217154 -0.027523674 0.036396887 0.035777032 0.018364538 -0.0073729428 -0.015767079 -0.039025694 -0.028868232 -0.032422557 0.041894298 0.01717628 -0.0069120363 0.04410076 0.017632173 0.005930131 -0.03952011 0.02376548 -0.044519562 -0.028491134 -0.0023574466 0.027492099 0.010149791 0.013749425 0.0008205336 0.03834096 0.045711637 0.020638408 -0.04346754 -0.035593335 0.04720411 -0.028628822 0.024281139 -0.035474624 0.024574678 -0.033539046 -0.0048104255 -0.0056228475 0.013635924 0.014184961 -0.017743286 -0.04205452 0.03979532 -0.013599517 -0.05199128 -0.049898602 0.029024158 0.0008210728 -0.040033616 -0.032725167 0.019779397 -0.0451081 -0.030251864 0.049817473 -0.049523395 -0.034266777 -0.024267543 -0.014904107 0.045201436 0.006715512 0.024269022 -0.01750779 -0.044276893 -0.04175183 -0.031005997 -0.019534959 -0.01639504 -0.00997966 0.009679241 0.022417724 0.014512596 -0.008189727
securities 0.010849864 0.015076641 -0.0115966955 0.0035995643 0.040204 0.025841406 -0.03453436 0.002032882 -0.02808945 -0.014641996 0.037443962 -0.02714727 -0.0041265525 -0.020887034 -0.026991067 0.04511266 0.026395509 -0.041795935 0.04028998 0.008365437 0.0038298669 -0.042111557 0.0065823025 -0.02091955 -0.015563035 0.012339825 -0.017693516 -0.01260791 -0.037676346 -0.03703439 0.018117711 0.022005385 -0.056123413 -0.0021123353 0.04642405 -0.0032105925 0.02222949 0.007141252 0.014643073 0.0049820337 0.034133453 -0.041817058 0.014312711 0.017380621 -0.0016318976 -0.00017428386 0.02125405 -0.018620297 -0.01584605 -0.028483974 0.01576712 -0.021813378 0.0031862496 -0.039302867 -0.005543318 0.04000261 0.02088494 0.041157916 0.0033293974 -0.00557094 -0.040047113 0.04117003 -0.005346018 -0.030181678 -0.033629395 -0.030461326 -0.01348719 -0.04275834 0.013037045 0.04414609 0.044906676 -0.010182725 0.035712186 0.042489376 -0.02996991 -0.03150308 0.0033442683 0.015537487 -0.03350188 -0.036429107 -0.018393604 0.03991726 -0.024115374 0.015356958 0.01934639 0.030256528 -0.044879586 -0.042778675 0.02246836 -0.024451872 0.030934734 -0.011392135 0.046077307 0.045034375 0.024973584 0.00583845 0.013537739 0.031949725 -0.0430526 0.039266594 -0.033596918 -0.010167432 -0.008723706 0.03257573 0.003181866 -0.046348765 -0.0012693284 -0.03006197 0.006268077 0.008562084 0.040380277 -0.04718156 -0.025461482 -0.042834554 -0.033770673 -0.022156844 0.04083433 0.042233407 0.022006864 0.01626341 -0.007623647 0.022633485 -0.021375718 0.0030678194 -0.013634941 0.004584305 0.0311485 -0.020341085
been 0.004187167 0.03546267 0.031182658 -0.009954134 -0.04644523 -0.032293223 -0.0047126897 -0.04128798 0.025800854 0.028508583 -0.040292285 -0.015801959 0.03909201 0.03676412 0.031392366 0.010453492 0.031854432 -0.035665803 -0.02735866 -0.046750404 -0.044749904 0.042968635 0.0016103159 -0.012798006 0.03929155 0.019199504 -0.02906248 -0.010939597 -0.049434476 -0.022983495 -0.031115154 0.031342477 -0.05292792 0.04145327 0.0056585995 -0.04544155 0.004515878 0.01506563 0.04501221 -0.00034426863 -0.016814442 0.020050028 0.02395867 -0.04077229 0.050396375 0.007756246 -0.030113686 -0.006366158 0.017631289 0.014237098 0.02118345 -0.0058865356 0.029353725 -0.027131103 0.01894378 0.017419543 -0.05331976 -0.048860237 0.040747505 0.03229515 -0.047261946 0.030325681 0.027279451 -0.03832279 0.01960843 0.02571488 -0.021698518 0.049386337 -0.012668435 -0.046325542 -0.024536395 7.8166544e-05 -0.02254917 -0.012258564 -0.015650949 -0.019062497 -0.029298348 0.0521377 -0.036637638 0.03605883 0.03001689 -0.026545824 0.0053911074 -0.052035853 -0.0331169 0.027344566 0.030092355 -0.045801952 0.030990843 -0.007239694 0.008118387 -0.029086022 -0.039600823 0.021524519 -0.04342219 -0.006299854 -0.03434402 -0.05023287 -0.0020715664 -0.031907197 0.0016576943 -0.0032107597 0.029265326 -0.041696113 0.012627503 -0.013942932 0.01196678 -0.0021894346 0.04602732 0.03083116 -0.03952316 -0.030295556 0.008345184 0.0056306208 -0.045063224 -0.014496409 9.170442e-06 -0.045903 -0.019482233 0.017728541 0.04688847 -0.020803455 -0.017237885 -0.0104916785 -0.002982941 -0.03593342 0.01634735 0.00118758
shares 0.03531965 -0.0348703 -0.04233544 0.012691468 0.008803834 0.043487325 -0.026903719 0.047409426 0.029473763 0.034568258 0.048608415 0.04011786 0.016377771 -0.018701712 0.022446718 0.011354864 -0.0222416 -0.002348944 0.03731531 0.017679982 -0.038646523 -0.010537866 0.04307088 0.026093027 -0.042603165 -0.008328351 -0.012074839 -0.0060472456 0.05385811 0.023621583 0.018464608 -0.03288884 0.009194046 0.015243088 0.035818767 -0.04518334 0.0014553065 0.008904327 0.033787746 0.0029984538 -0.04395084 0.013156164 -0.018262923 -0.027885085 -0.013512114 0.0056191757 0.009673004 0.01511695 0.04611003 -0.04405059 0.015197894 -0.041502737 -0.030059792 0.05250725 0.00037064112 -0.036074504 -0.022306211 0.029340137 -0.012881703 0.018751036 -0.030086914 0.042663354 0.043628074 -0.011760092 -0.04967389 -0.029603545 -0.023539292 -0.010512658 0.014893251 -0.0380465 -0.031589493 0.032601904 0.027202783 0.03675226 -0.009197731 0.049245 -0.03399695 -0.012287549 0.0065575643 0.028777326 -0.0016359672 0.046161015 -0.04269034 0.030188711 -0.039117724 -0.016092662 -0.010931339 -0.008954305 -0.03743207 -0.021605529 0.028734913 -0.022626648 0.009972194 0.04315211 -0.022554453 0.029840868 -0.0031052716 0.047419198 -0.0022811752 -0.008058161 0.0045460504 0.015597565 0.011434692 -0.008289238 0.029513827 0.0023231013 -0.011729798 0.041530482 -0.048935622 0.042516265 -0.027794497 -0.03815587 -0.017827854 0.04965178 0.019242175 -0.03619313 -0.006025008 0.015108811 0.036067415 0.050775956 -0.009438037 -0.004968886 0.050019637 0.044087157 -0.0381596 -0.0424755 -0.048857782 0.03003461
company's -0.04142531 0.0047401907 -0.035612613 -0.005071024 0.043154866 0.006825179 -0.000483005 0.023490341 0.028314807 -0.01993835 -0.023447663 -0.024403835 0.04509085 0.025353007 0.020071805 -0.0011224332 0.031625375 -0.028245311 0.019933663 -0.0487132 0.032190632 0.012207349 -0.004560544 -0.002013585 -0.04501311 -0.008531278 0.043575764 0.0410803 0.020986069 -0.0355747 0.047856722 0.040577732 -0.032626867 -0.04339972 -0.0065981545 0.023461387 0.0023582997 0.040464062 -0.029497417 0.035584774 -0.025562717 0.0298191 0.020915683 -0.02576537 0.048508763 0.04451332 0.009643916 0.035868432 -0.03105488 -0.013975189 0.04159346 0.009420487 -0.026953656 -0.011585365 0.00050900143 -0.009503802 0.027460115 -0.028152518 -0.0076649585 -0.045387223 -0.019276047 0.020686924 -0.03376242 0.035049383 0.018857121 0.027973078 -0.044497237 0.049523238 -0.009131718 -0.02694941 -0.014286458 -0.0029092832 0.023413451 -0.01182623 0.023610957 0.04222703 0.02889854 -0.042963248 0.05220543 0.027830318 0.026210943 0.023184005 -0.026186485 -0.007447119 0.0052470034 0.031962596 -0.022618191 -0.012744519 0.054245744 0.02390099 -0.047007993 0.024975237 0.040720396 -0.026094059 0.005039703 -0.025490256 -0.023805574 0.007902709 0.012151301 0.007984938 0.03689484 -0.039962467 0.014108211 0.02440666 -0.04416122 -0.031862255 0.048795223 0.034820613 0.024722146 0.022644378 -0.0342657 -0.05186524 -0.042016853 0.0255507 0.027582653 -0.017832747 0.016367694 -0.045435615 -0.011755345 0.048242725 -0.042567547 0.036694985 -0.046667844 -0.017940158 -0.019484745 0.00012368307 -0.012945761 0.008127673
court -0.026797319 0.03959585 -0.0049890024 -0.042182527 -0.0047296295 0.008996343 -0.046057947 -0.009574548 0.0031338427 -0.023370383 0.040699195 -0.042250562 0.0076428493 0.032058805 -0.03143143 0.02547841 -0.008648678 0.020745313 0.012087475 0.03222782 0.012762353 -0.0304215 -0.018638415 0.026460882 -0.037818693 0.044031184 0.0132109495 0.02137881 0.012520871 0.006007715 0.012158002 0.018419309 -0.0005596738 0.022433145 0.03668253 0.009441663 0.031352684 0.0015994078 -0.041564606 -0.048898637 0.027042357 0.02491981 -0.023392282 0.005137627 -0.014255076 0.0076957634 -0.024598869 -0.0076170824 0.050439563 -0.034573503 0.05050224 -0.033757955 -0.011051351 -0.038158316 0.014066789 -0.024291856 -0.014981301 0.0030359593 0.020779474 -0.03446458 0.02031605 -0.016711216 -0.043927494 -0.04438013 0.04731876 -0.009020373 -0.00933894 -0.03338999 -0.038893502 -0.028831149 -0.006868123 0.0011788171 -0.030901046 -0.0023691612 0.0065626022 0.0008864337 -0.010757496 -0.030065546 -0.017280824 -0.020507159 0.048538033 -0.008762867 0.04575442 -0.025624597 -0.017714757 0.04455563 -0.0018269789 0.0342548 0.0006987748 -0.0067369035 -0.021895073 -0.029979687 -0.040497214 -0.010554168 -0.040369537 -0.03012846 0.027268305 -0.016314458 -0.03301842 0.016604299 0.027905583 -0.009210873 0.020408696 0.049865454 -0.0031774023 -0.0029103416 -0.037970543 -0.04440667 -0.005946205 -0.016655684 -0.011025414 0.018518377 0.014143506 -0.0024278215 0.045527924 -0.050637357 -0.040744264 0.007622983 0.012887748 -0.048558585 -0.03868694 -0.039601672 0.03853699 -0.048356913 -0.023692707 -0.039632175 0.0020116793 -0.016809
apple -0.020682592 0.016576324 -0.012302516 -0.032943457 -0.004797809 0.011559732 -0.048178516 0.0087797465 0.037338443 0.009090132 0.02022978 0.016898803 0.033625808 0.04156205 -0.042786628 -0.047771975 -0.020228531 0.04392381 -0.015445397 -0.009811637 -0.0075303195 -0.017224535 0.021722129 0.041969955 -9.0411166e-05 0.010686383 0.012295703 0.035076857 0.03566588 0.0378903 0.043270983 -0.047439802 0.018537438 0.04886244 -0.042718742 0.017566545 0.0004360483 -0.020558171 0.013962128 -0.008265496 -0.028335303 -0.003263989 0.010154524 0.03940992 -0.011870938 -0.01300845 0.03661761 0.01452951 0.038379405 0.013425403 0.008901544 -0.017754273 0.03027889 -0.025694959 -0.015889296 0.027239362 0.0064903847 -0.02127461 0.026418172 -0.023863161 -0.031088486 -0.0036238264 -0.04217028 0.03804365 0.00041121946 -0.031499613 -0.040680595 -0.0434161 0.02906617 0.02782437 -0.00043022906 -0.02550508 0.034035437 0.00629126 0.02710475 -0.039572634 0.026524752 0.023041312 0.00197658 0.018413898 0.041813083 -0.040117558 0.044882543 0.015189094 0.032896154 0.038786046 -0.047945566 0.048855092 -0.038000025 0.039235704 -0.0165374 0.035409797 0.009433695 0.012085398 -0.023277365 -0.04542945 0.04453079 0.016031805 0.035649434 -0.010767076 -0.040762357 -0.05104971 -0.002613284 0.045300204 -0.030623525 0.032558944 -0.0485987 0.007342332 0.030332051 0.031110035 0.005527355 -0.005593592 0.044695873 -0.036088802 0.014454808 -0.012169024 -0.031756207 0.041302674 -0.008476011 -0.04871571 -0.023109589 -0.04130359 -0.004690133 0.025733082 -0.035593793 -0.033455107 0.0076921997 0.0058743497
inc 0.0044901175 0.022022817 -0.0033424157 0.008101319 0.0059378133 -0.04687815 0.033816412 0.030175753 -0.009861012 0.02711542 0.048927438 0.048619088 -0.018836506 -0.028754763 -0.0009807902 0.003246529 -0.047757596 -0.011558121 0.011137286 0.03438989 0.02411638 0.00981885 0.03439356 -0.017313533 -0.016671682 -0.03743643 0.04166122 0.04290071 0.03406465 0.011419779 -0.012352019 -0.002537514 -0.020191366 -0.015009227 0.039258078 -0.04823481 0.015757846 0.02217922 -0.03330064 0.03656838 0.021969065 0.050223432 -0.012923811 -0.033896975 0.035443008 0.0043670703 0.004968898 -0.03402387 0.016302284 0.0075698304 -0.012590831 0.048820604 -0.0263408 0.026379157 0.018600404 -0.037186116 0.018446766 -0.00328338 -0.024729673 0.026359057 0.030378295 -0.0047419453 0.015524321 -0.025463868 0.035612024 -0.029920341 0.014240594 -0.00490556 -0.030712482 0.041766066 -0.03853618 0.019835373 0.030764347 0.01909247 0.02754402 -0.030957496 -0.02551889 -0.010800468 -0.035790015 -0.014122534 -0.007652492 0.0074852826 0.04698697 0.020015271 0.03385007 0.03358411 0.023298267 0.019176053 -0.029341735 0.001380932 0.011081561 0.034353998 -0.024732847 0.04939319 -0.022504555 0.04389081 -0.016656755 -0.033684522 -0.033438634 0.0420979 0.0451426 0.035518732 0.04452513 -0.011795263 0.021983841 0.018645838 0.032009024 0.042615887 -0.010478565 -0.019473352 -0.0029338528 0.038096573 0.039637458 0.03831866 0.0500005 0.027359258 -0.0027382765 -0.012597779 -0.0019842766 0.0025357315 0.03603771 0.033652 -0.04924523 -0.040260393 0.015446818 -0.017554995 0.036454238 -0.024153255
expenses -0.029988663 -0.004351436 0.027087264 0.0058469973 -0.013729406 -0.028156962 -0.040453028 -0.009829707 -0.041018624 -0.030945998 -0.007269847 -0.053679086 -0.017922709 0.04754823 0.05019283 -0.044497736 0.04946558 -0.042881463 -0.020637566 -0.011110175 0.031617057 0.0022572041 -0.0023100993 0.043976862 -0.0513068 -0.031977855 0.024375545 -0.02502142 -0.039063256 0.04858524 0.051629476 0.02917987 0.019608898 0.017587338 -0.040524747 0.034354206 -0.044443093 0.010373711 -0.0456056 0.036033534 0.0044421237 0.03865059 0.01954029 -0.025745414 0.0040706736 0.028536525 0.03240101 0.018088687 0.026210848 0.003681627 0.016325448 0.017864361 0.012806637 0.048483107 0.010276704 0.011820286 0.019735612 0.0010935052 0.03572889 0.024853632 0.017954381 -0.040754516 0.043597877 -0.042781696 0.037272345 -0.000214495 0.036737304 -0.03594376 0.016436318 -0.03939234 -0.02577066 -0.04254721 -0.02172949 0.008012489 0.021243853 -0.037420668 0.03933438 0.011720748 0.014838459 0.0006919501 -0.041080378 -0.0018774328 0.033197798 0.026466966 0.002181549 -0.028918896 0.00573704 -0.025406927 -0.03596652 0.040361855 0.008449092 0.03850902 0.015958281 -0.01589255 -0.042324934 -0.020447468 0.0014515523 -0.016801279 0.03633465 0.016583107 -0.009345421 0.030645825 -0.0067413123 -0.035120156 0.011547292 -0.03379076 0.005567117 -0.00035822537 0.046292357 0.02383159 -0.03331149 -0.036554996 -0.010648402 0.019725092 -0.0056489566 -0.013111345 0.010431815 -0.012944518 0.045357246 -0.00097496994 -0.03823571 0.0016225105 0.042912398 -0.047636 -0.040881373 -0.038188625 -0.040915333 -0.031790514
form -0.027976448 0.042208042 -0.012878114 0.04194073 -0.004972461 0.020900581 0.04798295 -0.040719036 -0.031367198 0.005428914 0.051332925 -0.0063236626 0.031190332 -0.030377427 0.01606859 -0.025952496 0.04514958 0.048262276 0.010012703 0.014471315 -0.0247006 0.02181065 0.039997306 -0.023675142 -0.041832138 -0.0014454297 0.047328267 0.0423032 -0.02074731 0.020898664 0.036361706 -0.016903393 0.025270112 0.030420769 -0.031694166 -0.008555341 -0.030160904 0.048241377 -0.009396255 0.017495448 -0.015577143 -0.037698288 0.041765228 -0.032084845 -0.03708566 0.023354987 -0.019690655 0.020079575 -0.00092308933 -0.012485008 0.031209536 -0.03677546 -0.054058928 -0.046149265 0.04017869 -0.014080937 0.03092758 -0.038813274 -0.0096509475 -0.036164127 -0.05139751 -0.020210523 -0.052647784 -0.011601913 -0.050644726 0.02510831 -0.018712807 0.04378178 0.05269006 0.00058694405 -0.0149907665 -0.012810521 -0.0068154973 -0.012993368 -0.046764933 -0.032456156 -0.046548933 0.03865162 0.035786327 0.009099019 0.05081837 0.0068146135 -0.02221803 0.021502623 0.002240569 -0.043385286 0.036074102 -0.009829296 0.024642171 0.025606496 -0.038634907 -0.016412111 0.010370032 0.02270955 -0.044397086 -0.021969903 0.0058250516 -0.043956045 0.0137819555 -0.01652507 0.03553135 -0.0029795691 -0.0019079095 0.04945922 0.0047400845 -0.005124031 0.015515615 0.041661825 -0.007741399 0.042591233 0.010019229 -0.032732368 0.03301625 0.031734265 -0.0046692407 0.039333794 0.024782976 0.008677571 0.0067376834 0.020159934 -0.033665296 0.020102559 0.03617261 -0.012833581 -0.023045769 0.014705844 0.0016540795 -0.0213864
september 0.028794343 -0.024571612 -0.008492729 0.0042134076 0.021518225 0.05213274 0.016349152 -0.01672007 -0.045885824 -0.037297104 -0.017738692 0.002315832 -0.03294103 -0.019636286 -0.02710191 -0.03716893 0.027972864 -0.042975385 -0.00067783403 -0.018506551 0.023808738 -0.010301692 -0.03869321 0.04453541 0.03786293 -0.032923102 0.029747244 -0.009553156 -0.0231322 -0.00814322 -0.046410862 0.0065799677 -0.025623467 0.02992867 0.047800444 -0.039854478 -0.0065147164 -0.03977976 -0.03676572 -0.005072305 0.0061233668 0.00068573945 -0.015179027 0.011939815 0.020233639 0.031323656 0.025330896 -0.034878977 0.021683352 0.01081335 -0.019713907 0.049835674 -0.0044955676 -0.0017916316 -0.016451918 -0.018009359 -0.0041106213 0.015516199 0.024087295 -0.035736926 0.04759933 -0.006785144 0.038900446 -0.034585807 0.045070507 -0.01921804 0.03277165 -0.028515667 -0.0043814154 0.0068412754 0.040454343 -0.008545212 0.02899417 0.05206028 0.013750692 -0.040048342 -0.01333636 -0.04018714 0.0064494205 0.035456248 -0.04637268 0.04022744 -0.012451827 0.044306874 -0.0075739813 0.04914801 0.03913897 -0.027791409 -0.04478329 -0.041734572 -0.012739388 -0.009654916 0.027242525 -0.022567106 -0.0060598357 -0.03530342 -0.013043634 -0.03922157 0.028884493 0.054394826 -0.03586641 -0.022513583 -0.022959987 -0.023654133 0.04373348 0.03550261 -0.02006586 -0.03876008 0.035884287 -0.022508034 -0.03758235 -0.018475275 -0.023235902 -0.012612064 -0.012056809 -0.030572439 -0.015729178 -0.026263932 0.045914397 -0.03973583 -0.027534658 -0.0048314156 0.027557092 -0.01787481 -0.014417247 0.03342038 -0.035048764 -0.040269405
its -0.055510305 -0.033434935 -0.033845875 0.011757842 -0.014935388 -0.0028730999 -0.037379693 0.031155495 0.009184564 0.015327811 0.0177116 -0.034027252 -0.022748336 0.029810078 0.037401978 0.034280192 0.007249029 -0.045031067 -0.03611595 0.0423548 -0.012518042 0.017123485 -0.028477397 -0.03572898 -0.032243434 -0.020593815 0.030368393 -0.0048884945 0.00033433898 0.01200125 0.042016115 0.034952704 0.016663296 0.033351276 0.011679577 0.012706061 -0.032238975 0.025730617 -0.0015050378 -0.00038559356 0.022680422 0.038763452 0.023672186 -0.040363148 -0.0007032531 -0.026559925 0.01593285 -0.033173315 -0.025519166 0.03998283 0.020112902 -0.027485352 -0.03353035 0.045480397 0.01629588 -0.008112874 0.014795378 0.019391803 0.042032633 -0.052986678 -0.03737039 0.018601503 -0.030072313 0.03799259 -0.025276102 -0.022914119 0.011949717 -0.013069127 -0.008397986 -0.037484813 0.007836011 -0.04596146 0.021797813 0.043427434 0.04971607 0.013805405 -0.011174512 -0.043584812 -0.03942712 0.037775315 0.02172829 -0.04469595 -0.006835969 0.041344434 -0.02002669 -0.02571714 0.029352855 0.00027812872 -0.009171172 0.0099209 0.021619512 -0.016158769 -0.0107317995 0.045195114 0.025251899 -0.0418456 -0.036786873 0.027729787 0.045776352 -0.030019369 -0.011851027 0.03336177 -0.02954121 0.009025954 0.00077351416 0.0022105714 0.035818744 -0.042161796 -0.03720233 -0.032246478 -0.038439557 -0.03775752 0.014794649 0.0008796335 0.045921598 0.028348621 -0.01476985 -0.042175766 -0.019634292 0.008015119 -0.013501068 -0.022749742 0.04418931 0.034481734 0.040762685 -0.018841805 -0.028638469 -0.039947346
office 0.015334048 -0.006330562 -0.009146186 -0.018002618 -0.02631945 0.028201157 0.0294461 -0.013740982 -0.04693207 -0.018886277 0.01968558 -0.051167455 0.0072381888 -0.043642804 -0.042628303 0.00825062 -0.009613987 0.037375953 -0.005983004 -0.007167645 0.035089783 -0.023060171 -0.007872408 0.028395012 -0.050200306 0.02115601 -0.039173536 0.045553368 0.030392604 0.050498445 -0.029661845 0.022586681 -0.030901687 -0.0343334 -0.047922377 -0.038336273 0.009060681 0.025570823 -0.034179732 -0.029032968 -0.006141011 -0.030712694 -0.03541143 -0.020066833 -0.031409983 -0.04388242 0.02171124 0.0035253076 0.016495012 -0.007928607 -0.042120792 0.009680103 -0.05244214 0.03024855 -0.048823044 -0.0113292225 0.0005657006 -0.015830511 0.0193454 -0.0032546017 -0.037025735 -0.047533195 -0.023108393 0.030441333 -0.045004994 -0.027525438 0.026496375 -0.019493856 -0.044013176 -0.013404158 -0.013132046 -0.051717587 0.00046199368 0.04545368 0.023164455 0.023807889 0.0032604793 -0.0030891565 -0.03356995 -0.045060415 -0.03289576 -0.029098704 0.022013841 -0.027028881 0.017659562 0.04123943 -0.03213736 0.0006604882 0.020659434 -0.0079304995 -0.038269684 0.02250566 0.04122518 -0.034984507 -0.018923132 -0.020416943 -0.033570502 -0.00098018 0.017295549 0.023025956 -0.046562146 0.021063218 -0.028499693 0.013354083 -0.042074215 -0.028882263 -0.019929936 -0.036657166 -0.024743265 -0.0029978375 -0.0547294 0.016845694 -0.021392379 -0.018448263 0.048936464 -0.0016668366 0.047864858 0.017319938 0.043646585 -0.031256005 0.04169954 -0.049986087 -0.052513175 -0.020552188 -0.044139702 -0.014470765 -0.037612464 0.02608604
during -0.022766303 -0.027598474 0.0069865813 -0.048537206 0.024862241 -0.010388818 -0.036817644 -0.04126261 -0.050000962 0.005841082 0.04084274 0.027067972 0.021037623 0.0083024055 0.039968807 -0.049185194 0.014794248 -0.034463316 -0.0100111775 -0.013044723 0.021150341 -0.049006376 0.0239492 -0.0037595797 0.033462323 -0.026064662 -0.037333153 -0.017175198 -0.01389819 0.04183507 0.037540376 -0.052081447 -0.01754576 -0.03948062 0.00065939006 -0.011982163 -0.009769488 -0.013994308 0.02399761 -0.035052974 0.0069952896 -0.00014821393 0.050672762 -0.016937593 -0.004363774 0.018052522 0.031115904 0.04288622 0.0025560206 0.0009887494 -0.0025792988 -0.0366691 -0.030288806 0.030952161 0.04317721 -0.016043961 0.008601994 -0.012278864 -0.03986571 -0.032513022 0.012916537 -0.04471116 -0.004314252 0.020466382 0.042805407 -0.043987885 0.031348478 -0.044627685 -0.03616181 -0.017288761 0.016144887 -0.051029842 -0.0072141443 -0.015433147 -0.039120287 0.002009519 0.0119229 0.050782356 0.010096882 -0.02920835 -0.021349046 -0.034584157 0.0016888706 -0.0267153 -0.019411944 -0.035821415 -0.0029088855 0.004000767 0.030425357 0.036705296 0.01959136 -0.0053279307 0.017676169 -0.020792255 0.034599677 -0.046108767 0.034561843 0.050397504 -0.04758574 -0.008470724 7.467056e-05 0.0181184 -0.018400306 0.028450964 0.034419667 -0.015326362 0.02727135 -0.039364416 -0.04514077 0.046711802 -0.011989053 0.028035995 0.023969082 0.017273108 0.010159798 -0.023233788 0.04043846 -0.03997414 0.035666388 -0.02210609 0.01265437 0.0019622494 0.044201445 0.031518426 -0.02181798 -0.03434536 -0.03173622 0.039244827
statements 0.01441872 0.04664135 -0.05526969 -0.013816161 0.032886118 -0.0028066507 -0.0034732777 -0.032439 -0.03353721 0.017489253 -0.0023461415 -0.02997862 -0.02415511 0.030679898 0.031049496 -0.0101720495 -0.025196007 -0.040052824 -0.028159123 0.014207252 0.032837536 0.028873214 0.030864416 -0.016827159 -0.048071057 -0.049937453 0.028609484 0.02224784 0.003213538 0.04402871 0.025481844 -0.009635393 -0.039660886 0.026174372 0.0065880283 0.034052506 -0.04626013 -0.02796569 0.015956365 0.014669458 0.023193283 -0.0014944421 -0.018469922 0.03895948 0.028252253 0.049359065 0.04897799 0.004697417 0.0018875336 0.04232828 -0.008800545 0.04144285 -0.05274019 0.01585814 0.051410846 0.015877778 -0.023043228 -0.008186644 0.0051995125 0.0017085257 0.017073534 0.0123116905 0.022105655 0.016456902 -0.027660212 0.053254228 -0.012030035 -0.05067637 0.016169164 -0.053382203 0.028024176 0.023814155 0.04041263 -0.04184875 0.0422851 -0.020804824 0.015546946 -0.011364243 0.005362196 -0.0032913713 -0.030966997 0.0022936887 -0.002252202 -0.013197244 -0.007701066 0.03462914 -0.04381783 -0.03268469 -0.035590854 -0.011546714 0.020071832 -0.00630425 -0.050582882 -0.027708586 -0.026399111 0.007959368 0.026014684 -0.018142283 0.010149643 0.031933904 -0.01072683 -0.0326427 0.00046071986 0.0058587776 -0.021454107 -0.034896314 0.0395398 0.023669267 0.025348252 0.024583248 -0.0051355837 -0.03989344 -0.033128746 0.042952448 -0.036730528 -0.014671393 -0.03777717 0.024342837 0.019231893 0.019607019 0.030185046 0.0027833616 -0.0047952905 -0.040060002 0.04305907 0.046955723 0.0039304057 0.008494475
notes 0.043753862 0.02140976 0.04440013 0.008259996 0.04211956 0.025807263 -0.02528913 0.005857338 0.028452601 -0.03432278 0.029071903 -0.032818757 -0.04583951 -0.027644396 0.04383765 -0.03190022 0.01993343 -0.041435692 -0.005285439 -0.033357877 -0.037581827 -0.04151965 -0.016337208 0.02151356 0.015585418 0.029302044 0.0050207744 0.05138816 -0.01695304 0.009943685 0.02003024 0.03160542 -0.047179464 0.026829867 -0.0020162764 -0.014587844 -0.01848135 -0.036281247 -0.05346656 -0.027177228 -0.032782376 0.030323211 -0.023617413 -0.02308977 0.03701502 -0.038566764 0.03890275 0.042288467 0.005976315 0.02670905 -0.007046922 0.005030634 -0.019247448 0.019851891 0.033193983 -0.03502122 -0.017121742 -0.009164271 0.04577401 -0.020452425 0.013967059 0.03488331 -0.009952713 -0.011645771 0.039376877 0.0367594 0.024189599 -0.05341416 -0.0070998175 -0.040524755 -0.049734566 -0.040560573 0.048299596 0.03065909 0.049578283 0.04658121 0.020161467 0.04367831 0.01137861 -0.029461019 0.031222902 -0.026329372 0.039612256 0.044476442 -0.011445326 0.016718037 -0.0017423963 -0.0028955752 -0.027756354 0.026673492 0.014968762 0.0010612728 -0.00828025 0.03454397 -0.00047977676 0.02893871 0.05419824 -0.03281266 0.0027170961 0.018729467 0.03214823 0.030374028 -0.053116474 0.04277387 -0.037973408 -0.05120129 -0.007615561 -0.034291264 -0.02451615 0.008773438 0.007245925 0.05050354 0.016047355 0.012602088 0.044074904 0.019096732 -0.01807957 0.0028102745 -0.03915348 0.023226868 0.04522297 0.026585894 0.034031197 0.018387614 -0.023062833 0.04693969 -0.034700762 -0.0057938206
not -0.007874754 0.009511628 -0.020035263 -0.0116104 -0.047993064 0.043408614 -0.043138374 -0.0060678455 -0.033107564 0.016386397 -0.011648168 0.04030978 -0.0007981319 -0.030066693 0.017382786 -0.044438552 0.0029361648 0.041230578 -0.04196132 -0.02393624 -0.016539302 0.024886703 0.039674826 -0.005916788 0.035470545 -0.0066011213 -0.043376617 -0.010995493 -0.045166787 -0.03250874 -0.023907673 0.0097261425 0.04016761 -0.024283728 -0.014586252 -0.044308744 0.0461739 -0.029884696 0.022437919 -0.045602508 0.007208262 -0.0285721 -0.048788812 0.0032607997 0.036544718 -0.026665136 -0.02906839 0.028763635 -0.019421704 0.03748254 -0.03229758 -0.018673254 0.02861719 0.04821451 0.03454681 0.00047712785 0.009478864 0.039427076 0.036193073 0.014702377 0.010863208 -0.05083974 0.004899117 0.041589074 -0.050320204 0.02597715 0.03915691 -0.012744596 0.0480669 0.012276106 -0.01668658 -0.020877827 -0.009058549 -0.03360335 0.033150386 0.036153708 0.019279074 -0.026218286 0.0048031886 0.0016945422 0.043021776 -0.031276807 0.030555885 -0.024267344 0.006142883 -0.04879286 0.0425222 0.0008632718 0.015000019 -0.03761014 0.024930667 0.046672396 -0.0082566375 0.028960621 0.037315197 0.04474997 -0.015115814 0.013497228 -0.023481306 -0.018387392 -0.022473522 -0.02495826 -0.0006365018 0.03379211 -0.0017155134 -0.011814134 0.036382068 -0.0244023 -0.02000647 0.009796655 -0.0050535966 0.036021087 0.044707805 0.037756898 0.02854642 -0.017903639 0.0076026623 0.012586475 0.0026347486 -0.017437099 -0.008503435 -0.0044872984 -0.03770174 0.016567186 -0.023093285 0.030583443 0.017084321 0.032511596
6 -0.05078574 0.007227958 -0.012466435 -0.021797951 -0.035128564 -0.036139477 0.03606082 0.03942048 0.002991856 -0.020364081 0.03805528 0.01729615 -0.020553038 0.02811275 0.013151271 0.026284838 0.007916443 0.047493424 0.02679358 0.008623961 -0.048560902 -0.04110113 -0.0028802387 -0.0137453815 -0.038256813 -0.006414414 -0.010068701 0.018982394 0.026794147 -0.03559367 -0.036231495 0.050996628 0.028163271 -0.046228282 -0.005898987 0.023546766 0.007548213 0.030297179 -0.007779359 -0.016274193 0.04111067 -0.04014707 -0.013845649 -0.027222743 -0.04950833 0.045782775 0.05089773 -0.041403864 -0.006015459 0.012170191 0.030338729 -0.03725357 0.004653315 0.004399851 0.043665532 -0.045597587 -0.017942196 0.0030110346 0.004946513 0.015546222 0.004437926 0.046155695 -0.02622544 0.025580112 0.03206196 -0.022717824 -0.04240046 -0.023723723 0.047877572 -0.027373917 0.012345202 0.0016104087 0.0030558323 -0.04316285 0.047671493 -0.0095621 -0.043973397 -0.00069565605 -0.01092859 0.037793435 -0.0077412077 -0.04002338 0.020585947 -0.022493673 -0.042159937 -0.031450544 -0.032488428 0.010904397 0.026268592 -0.02833116 0.05323008 0.023515832 0.031217374 -0.02954102 -0.013503043 0.03169885 0.045371585 -0.033492234 -0.045188397 0.033751283 0.026037863 -0.040087506 0.0095461635 0.042302806 -0.016425138 0.03879782 0.033010673 -0.01986 -0.01757551 0.010925486 -0.041873656 0.03586676 -0.00813228 0.023475895 -0.03838484 -0.026534794 0.037028126 -0.016134156 -0.037704248 -0.04153432 -0.011540555 0.00040540905 -0.0494196 0.02940214 0.03909614 -0.041300174 -0.038425215 0.004878369
fiscal 0.012421846 0.015450826 0.015206762 0.040541973 -0.030512279 -0.04410969 0.044049546 -0.04082367 0.009208803 0.024051988 -0.033958536 -0.023098594 -0.026851509 0.044381604 -0.015237009 0.04211256 0.011701789 -0.04540956 0.032467403 0.029769065 0.027463911 -0.04694072 0.0031007007 -0.041595127 0.032219753 0.02155741 0.0375784 0.0018567331 -0.013544437 -0.03714979 -0.04201558 0.028093653 0.0051479307 -0.04176879 -0.02191905 0.009217953 0.033415627 0.039530307 -0.007110575 -0.017542727 0.014357206 -0.0065424284 -0.004541434 -0.022559278 -0.03310627 0.0044800397 0.03721266 0.032672904 -0.041503094 0.036261372 -0.008682823 0.0026610568 0.029410878 0.0072550196 -0.008452523 -0.020128522 -0.012823372 0.042952083 0.027960408 0.0042143506 0.016036114 -0.03886839 0.016659206 0.0064516203 -0.00973575 0.04539774 -0.0013017331 -0.014119021 0.0071499613 -0.014995759 0.048243463 -0.048261628 -0.04153609 0.0012455594 -0.0014557211 -0.042927746 0.034179755 -0.0063039977 0.012658771 -0.02698495 -0.009284838 -0.05484631 0.043305665 -0.042048644 0.029759323 -0.005247431 -0.001992008 -0.0035957424 -0.0076745534 -0.014366027 -0.026590811 -0.04176394 0.00892543 0.038841847 -0.0445866 -0.022103343 -0.0043806164 -0.003991154 -0.030034065 0.042499214 0.016659163 -0.010806479 0.042800836 -0.03320135 0.031761378 -0.03994072 -0.032067295 0.022281624 0.0115371365 0.0070720087 -0.04798417 -0.044385508 0.03924952 -0.002028907 0.02052976 0.031098157 0.00049562345 0.0017211582 0.012692128 0.03722943 0.008000285 0.008857972 -0.036802303 -0.003929891 -0.020764524 -0.026036162 0.022155277 0.045078345
