991 128
the 0.02041273 -0.056003157 -0.03804242 -0.027502652 -0.049085267 -0.05057642 0.029157376 -0.018746877 0.009492841 -0.0098010395 0.050573383 -0.013766676 0.03607189 0.030498698 0.026004663 0.029076444 0.039955374 0.043869454 -0.0025590232 -0.00816861 0.032253027 0.0028336542 -0.012843235 0.04420849 0.008297137 -0.030659853 0.042299803 0.046875905 -0.026834454 0.018174408 0.01475843 0.03568553 -0.022392968 0.003202495 -0.027394908 -0.043610193 -0.047158968 -0.006582938 -0.01859376 0.0052557574 -0.040625315 -0.016074736 0.053907543 -0.017248627 -0.053782836 0.03402465 0.029246697 0.022732561 -0.031131165 -0.027674904 0.007824444 0.020573635 -0.0054402165 0.04505803 -0.044484764 0.048383195 0.026693309 -0.012081084 -0.013514581 -0.018049827 -0.031242024 -0.0045017432 0.031508844 0.006962095 0.02653181 0.024256228 0.025182204 -0.023554474 0.026067525 0.01457845 0.041913778 -0.031584382 -0.002770077 -0.028072506 -0.004028104 0.04892052 0.03211814 -0.043943517 0.05570365 0.039837994 -0.032867525 0.0011801168 -0.046133507 0.020102974 0.011783502 -0.04621715 0.03774507 0.03524742 0.048866294 -0.048739478 -5.607109e-05 -0.05406659 0.0077976757 0.036713842 -0.0037982953 0.058139425 0.005730597 -0.031028217 -0.0080400845 -0.030016828 -0.013697384 -0.009391456 0.050714206 -0.023883034 -0.049051158 0.03982747 -0.039451685 -0.048201896 -0.013670938 -0.011977549 -0.048047923 -0.02303413 0.05277535 0.037432104 0.046462122 -0.03856161 0.03262653 0.03325929 0.009465434 0.019715244 0.044140536 0.012387603 0.0030050403 -0.050350733 0.04122675 0.009539738 0.051912714 -0.011280125
of 0.016081806 0.006094602 0.042505443 0.050380528 -0.007008992 0.0136336535 0.025298592 -0.03808557 -0.04446964 0.02207354 -0.011917622 0.038608972 -0.02346538 0.029412052 -0.011697461 0.045778826 0.030341199 -0.021485075 -0.00758185 0.044002704 -0.027914071 -0.038600616 0.015753837 0.010824431 -0.04588089 0.008630586 0.02000622 -0.022862053 0.013900323 0.023865333 -0.047113582 -0.045773894 0.024687685 0.014085037 0.0049682776 -0.04026062 -0.00591049 0.031103542 0.01756588 -0.047624804 -0.034430318 0.0022041413 0.048134103 0.018064745 0.03824481 -0.040852953 -0.016568402 0.0024885954 0.049280915 -0.026196063 -0.02707349 0.020829478 -0.0123008825 -0.0139360735 0.03559309 -0.049390778 -0.016471079 -0.040835742 -0.009065022 0.037844144 -0.041779306 0.0045952704 0.019023266 0.028751329 -0.040885363 -0.05652977 -0.035314817 -0.016142774 0.04707923 0.022092298 0.0039560106 0.009480102 0.0123581 -0.04751594 0.032258105 0.005336967 -0.051012896 -0.041335516 0.03061927 0.014730891 -0.014767094 0.015092597 -0.009240743 -0.04716598 0.027349979 0.00068677415 0.008405018 0.032768983 -0.02405987 -0.045180764 -0.022434225 0.0134608 -0.03879771 0.03466249 0.028798738 0.041085947 -0.017563889 0.031777665 0.0025174604 -0.021162186 -0.02848648 -0.021693142 0.035333864 0.047785103 -0.04277181 -0.013616497 -0.042484965 -0.029613618 0.005453203 0.0237904 -0.041815616 0.0032899468 0.025899034 0.02333297 0.056083616 0.0411699 -0.019609842 -0.01520498 -0.020624172 0.006194579 0.029588003 0.038001187 0.053112146 0.01750322 -0.026040494 0.026344873 -0.029493582 -0.0052977134
and -0.03327846 -0.05421011 0.028897595 0.054399572 -0.021761635 0.017593702 -0.036570363 -0.054314125 0.019644044 0.04864883 0.005742701 -0.00448542 0.01371712 -0.04855913 -0.040406536 0.044304073 -0.025817541 0.054315474 0.005066926 0.05389888 0.023184353 -0.027642872 -0.026256211 0.0028993895 -0.014944754 0.021684537 -0.0013760945 0.009464005 0.05188818 0.019618193 -0.018217107 -0.0019592429 -0.053047158 -0.040159468 0.00951401 0.034630373 -0.0018729747 -0.0039073094 0.011007035 -0.018742291 -0.0571304 0.012691093 0.030158795 0.046257287 -0.043941688 -0.02646228 0.0347437 0.011867059 0.040881958 0.034317072 4.3586188e-05 0.0075956113 -0.05028137 0.017921967 0.046146363 -0.05280261 0.023241982 -0.017418645 -0.010960861 0.024121098 -0.05012074 0.04197618 -0.04375668 -0.030323079 -0.029350143 -0.01628828 -0.007363017 -0.018603804 0.038242456 -0.036830112 -0.02612669 0.017949373 -0.029744964 -0.05589752 0.02294219 0.05613665 0.014833836 0.03241957 0.017957043 0.023868036 -0.00089385675 -0.028897557 -0.041365176 -0.023191204 0.043298945 -0.017377462 -0.033602815 -0.037451025 0.03273385 0.005730544 0.0059102704 -0.009526643 -0.03727047 0.0101873195 0.03746174 0.033293184 0.00016502995 0.016616175 -0.015716057 -0.012220708 0.037284322 -0.012339294 -0.006236312 0.010135481 0.039938085 -0.025958458 0.051145528 -0.042483855 0.0060424698 0.018752657 0.006753678 -0.028392876 0.028171737 -0.018459707 -0.0046189125 0.025741313 0.038042713 0.018560844 0.035309 0.02200462 0.044517264 -0.018028408 0.020766826 -0.0016835432 0.045150395 -0.027239814 -0.0044516074 0.011644322
in 0.014090299 -0.028083844 0.020551736 0.0463846 -0.023271529 0.012541424 0.017509544 0.017412532 -0.0028536716 0.012172399 0.0028865922 -0.03171775 0.02847162 -0.0414135 0.036334086 0.029983688 -0.016221484 0.03511237 -0.00961272 0.0032427255 0.028589318 0.016058901 -0.011589463 0.011892996 -0.006068867 -0.025509708 -0.04225985 0.0038356055 0.008880697 0.03213036 0.043238994 0.031886116 -0.04360211 0.009072317 -0.04993312 -0.005065767 -0.022083592 -0.053538814 0.014648143 -0.044664834 -0.021113126 -0.011173072 0.03802594 0.03923365 -0.048472967 0.03843897 0.019222792 0.052497055 0.051319793 0.013435433 0.025442353 0.05609364 0.0020714663 0.019365445 0.037690688 -0.029692788 0.030772198 0.002688613 -0.01605068 0.011116311 -0.014417475 -0.051344566 0.0008746608 -0.042301215 -0.04131706 -0.036800485 -0.040104333 -0.002067648 0.034188323 -0.032649457 0.006144519 0.0029567312 0.03890406 -0.013453801 0.048771676 0.019090926 0.011391833 -0.05747943 0.008586839 0.04221468 0.006392762 -0.042761877 0.017166508 -0.024900861 0.015405811 -0.04373238 -0.02543709 -0.016779257 0.04751293 0.011936138 0.019697433 -0.001858356 0.036885805 -0.027209723 -0.03412016 -0.007152626 0.021519164 0.0579129 -0.01920091 0.02986151 0.01313387 0.037120584 -0.017910646 0.032722514 0.008226554 -0.024043348 -0.042444613 -0.022282368 -0.018913392 -0.021904303 0.018462453 -0.026838928 0.026956908 0.026508112 -0.037541877 -0.0064160367 0.0072637834 0.0069268085 0.0025622053 0.008342449 0.0013393881 0.03570582 -0.0043090703 -0.052640196 0.0029106261 0.031051785 -0.020769812 -0.03697767
to -0.00847172 -0.033307344 0.047742452 0.027100233 0.03243592 0.022136694 0.0042551905 -0.0075779473 -0.024810703 -0.029493792 -0.026799038 0.02906708 0.05022195 -0.015036877 -0.040465247 0.05226582 0.045200314 0.017457405 -0.047719292 0.006295514 -0.0288044 0.008832131 -0.04075339 -0.020686723 -0.021657519 -0.0012339442 -0.017750159 0.049305145 0.020575842 -0.01844808 0.041520182 0.011862309 0.042673487 -0.025771398 -0.012265605 0.008654444 -0.038786348 -0.021782925 -0.029239357 -0.04885212 0.012763725 -0.037054118 0.055116072 0.0011081022 -0.025512101 -0.025779815 0.042267863 -0.019939534 0.007584905 -0.052772425 -0.021576142 0.0033964426 -0.02244151 -0.048662134 0.04241353 -0.046018254 -0.050453737 -0.016723976 0.0051862607 0.043081038 -0.02117426 -0.033942934 0.0007025164 0.0071497965 -0.045493145 -0.025771502 -0.04598047 -0.013271316 0.04222002 0.008155935 0.0050035645 0.02489361 0.034359574 -0.025234045 -0.033266503 0.029926514 0.012770369 0.042526573 0.042318776 -0.032118384 -0.034163278 0.007879861 -0.038395397 -0.030879153 -0.035756588 0.033661194 -0.0428873 0.025847873 0.0061814203 -0.046222202 0.0225624 0.017797753 -0.044738557 -0.013834549 0.02298182 0.036325537 -0.019148583 -0.010163729 -0.01117176 -0.044094943 0.0246214 -0.011949531 -0.03475632 0.056566082 -0.049338955 -0.011791955 0.008101238 0.01809528 0.03593551 0.001084974 -0.041208904 0.0055362904 0.0062981364 0.03645803 -0.025330063 0.0409251 0.04984366 0.05327052 0.036708675 0.04798042 0.03446058 -0.012124902 -0.0026674352 0.011718788 -0.030581243 -0.03751968 0.046619363 -0.0036258085
microsoft -0.010239207 0.033753198 0.0017966935 0.020793172 -0.05396587 -0.05423669 -0.044278853 0.030760594 -0.039501067 0.040512428 -0.018552989 0.036785387 -0.033879053 -0.030328903 0.05413762 -0.04410314 0.030573228 0.007912108 0.04744437 -0.0007675902 -0.014611257 0.03870565 0.03438937 -0.0125798555 -0.026647074 -0.043727424 0.0124237435 -0.014254773 -0.01867802 0.0027669275 -0.04073646 -0.020145927 -0.054529183 0.03575004 0.035014544 -0.03097088 0.028443133 0.021808928 -0.020326091 0.00057891686 -0.024140827 -0.018293621 -0.01694409 0.028455477 -0.029381966 0.025867753 0.0023337372 0.054202147 0.0048330845 -0.0075059934 0.04306378 0.008655592 -0.016391328 -0.043532576 -0.015930885 -0.011379204 -0.032619517 -0.038726345 0.0112086395 -0.011977588 0.032051284 0.020785494 -0.043293875 -0.0138487425 -0.04160286 0.029179841 0.022898944 -0.007651621 -0.027671894 0.037043456 -0.02954641 0.011143862 -0.04014196 0.0065904707 0.034067992 -0.044064518 0.021213932 0.021704083 -0.002541142 -0.026914842 -0.045649033 -0.042835355 -0.02802199 0.035289988 -0.04948322 0.01936488 -0.03427126 0.021385966 -0.028883463 0.0070402836 0.012197063 0.004796798 -0.020352257 0.042626616 -0.022661034 -0.0073680775 0.013960164 -0.034709144 0.011662306 0.027469546 -0.039113425 -0.030485151 -0.043389376 -0.0008356301 -0.000115078175 0.03161682 -0.026938483 -0.025852809 -0.026280094 0.009562517 0.0407741 -0.040058468 -0.028322112 0.0041337493 0.01832722 0.02896624 0.040759828 -0.035405554 0.04809083 -0.003099794 0.008242134 -0.008381341 0.0021068202 0.04387004 0.013682478 -0.019548653 -0.0011413042 0.038755227
1994 0.052286293 -0.03931737 0.050998352 0.041005287 -0.013803801 0.0046017775 0.02923684 0.009020505 -0.0046251 -0.021087607 0.041811094 -0.0016699256 0.017197985 -0.035890523 -0.024026513 -0.030278085 -0.035833057 0.019529792 -0.010706666 0.028744366 0.016363705 -0.026779357 -0.024830937 -0.024134709 0.010596039 0.004586171 -0.041607752 0.018619195 0.0019463566 -0.01045042 -0.02035327 -0.045980886 0.028372174 -0.0030663335 0.03525708 -0.04105911 -0.0045415247 -0.051210992 0.038769647 0.020715442 0.001823704 0.013953822 0.027036494 0.027402189 -0.01834123 0.050513495 -0.040152214 0.019645203 -0.046079185 -0.0024000744 0.01733882 -0.002558106 -0.033975344 -0.030990673 0.025966186 -0.028572012 0.00095477613 0.031989016 0.020288259 -0.033881165 -0.009699665 0.027359819 0.00854275 0.015435004 0.021901432 0.026564643 -0.019257372 0.021269036 0.030536015 -0.02822602 0.04878091 -0.042371556 0.03821805 -0.032888852 -0.03508307 0.027512925 -0.045283373 0.03458941 0.05124269 -0.02559724 -0.044502992 -0.04327093 0.022148035 0.03203433 -0.04788067 -0.043323446 -0.03561434 0.022694048 -0.020689145 -0.00035116007 -0.023012104 -0.017596098 0.008069016 -0.03936353 -0.029445378 -0.017528795 -0.05339257 0.01348648 0.0074547958 -0.03308352 0.03646875 0.036627524 0.008733129 -0.03436775 -0.035159897 0.020730697 0.043248408 0.0012942477 -0.011400623 0.017143847 0.0027176687 -0.01578909 -0.026786692 -0.040244505 0.0048865327 0.020710561 0.012401157 0.049813963 -0.0046499586 -0.040679365 0.026129825 0.010940058 0.029666394 -0.014762092 0.038394056 -0.04834365 -0.01589537 0.054211494
a 0.026832106 0.016431168 -0.01582985 0.016570443 -0.03230373 -0.027239839 0.013934145 0.012034423 -0.05174772 0.027430052 0.0397838 0.04971508 -0.039065976 -0.012979244 0.01911681 0.045596674 0.034442574 -0.025637014 0.02775606 0.05056261 -0.039635547 0.006825156 0.0077695195 -0.015001234 0.0006124243 -0.05642116 -0.041854173 0.050116803 0.004982547 -0.019120568 0.01832081 -0.038706835 -0.00029128772 -0.03212354 -0.039106198 -0.042914174 0.019486101 -0.048293132 -0.0134854475 0.0054948335 0.0178716 -0.023629917 -0.023594655 -0.029633503 0.013248058 -0.029622287 0.013793983 0.030492764 0.030286046 -0.002750154 0.006681036 -0.018051136 -0.04726367 -0.04097199 0.011506832 0.012496563 -0.028429788 0.0063135573 0.020385725 -0.054837514 -0.04655457 0.0034690532 0.041894462 -0.03877763 -0.04073924 -0.032432765 0.044401158 0.019897355 0.03209357 -0.043687183 0.033409555 0.011409115 -0.03798592 0.009945145 0.0060453927 0.0014524632 0.010018853 0.03716299 0.030844495 -0.044186722 -0.0015158751 -0.03982747 -0.051193155 -0.0125297755 0.0119334115 0.021346154 -0.003477006 0.053633686 0.047379985 -0.0044800616 -0.0380367 0.012783553 -0.049322408 -0.028666936 0.020317486 -0.00188368 0.019249603 0.034095924 0.008245745 0.027706642 -0.028756449 -0.03128812 0.0018890286 0.006882163 -0.010304305 -0.0015135111 -0.016061476 -0.001363339 -0.046511635 -0.019103074 -0.042107712 -0.043579254 -0.032702584 0.0061368467 -0.029223077 0.032248758 0.007855927 -0.013726756 -0.0049447906 -0.0053530145 0.0019387836 0.02423207 0.009962183 -0.051164847 -0.012514335 0.04337229 -0.0221299 -0.031055724
for 0.045114506 0.01936296 -0.04018864 -0.019755047 -0.046716608 0.033366233 -0.006992584 -0.044961017 0.040573526 -0.027439376 0.02565741 0.004842187 -0.022361772 0.041605048 -0.042091064 0.009342248 -0.048478104 0.007943641 -0.039632235 -0.026667023 -0.041653533 -0.035821714 -0.030863956 0.034820765 0.015727775 0.018838251 0.026229095 -0.0038107056 -0.038232904 0.006429071 -0.04790886 0.015728619 0.021132363 0.009888015 -0.014206276 0.013042358 0.0022492036 -0.04884516 -0.019942746 0.02999798 -0.04904533 -0.044041924 0.019070702 -0.013243461 -0.032668017 -0.03331695 -0.012674744 -0.015699508 0.035167273 -0.049647436 -0.02244326 -0.024795793 -0.0058337105 -0.04420497 -0.020144572 -0.023401694 -0.046019204 -0.030132337 0.03908623 -0.021277426 -0.028649777 0.042995222 -0.032161552 0.01045929 -0.040123977 -0.02302901 -0.01883009 0.0040892744 -0.026116269 -0.01686529 -0.017281199 0.0459626 0.0015369314 0.0037748571 0.039535526 -0.029491708 0.020005181 -0.056262694 0.047152363 0.0030263085 -0.0042525367 -0.030638523 -0.054094717 -0.0053354898 -0.016494373 0.012451811 0.037287425 0.045782678 0.00021295354 -0.039562892 -0.021746533 0.011682778 0.017380754 -0.02366641 -0.027386328 -0.0011900248 -0.026181199 -0.0060010124 -0.041478455 0.010114415 -0.028135996 -0.041411467 -0.02494181 -0.026568288 -0.040853605 0.050183542 0.036178183 0.0064720465 -0.025881676 0.052901816 -0.036445633 -0.02576108 0.0025054126 -0.035852738 0.00175604 0.052288663 0.04127476 0.003328842 0.05476949 -0.0027133427 0.033423297 0.017306585 0.02358666 0.02537247 0.03194956 -0.03534347 0.048645698 0.052417085
million 0.0013807743 -0.021324256 -0.027847374 0.014031286 -0.0023943884 -0.03411174 0.032740984 -0.011053009 -0.036453813 0.040236603 -0.0071306825 -0.024666298 0.028699823 -0.021691166 0.0035299351 -0.021405736 0.0045916075 -0.015886135 -0.008586245 -0.026179556 -0.022191675 0.0068886313 -0.04376059 0.039065287 0.040742032 0.0073067886 -0.020339338 0.03450394 -0.0067366064 0.03806409 -0.036894836 0.011321994 -0.025697367 -0.045371242 0.0052332925 -0.027519044 0.011024548 -0.05614849 0.034175903 0.041875653 0.038495615 0.043246217 0.056483626 -0.02850062 -0.01551354 0.008388466 0.052425012 0.03421979 0.036284197 -0.016663242 0.002307869 -0.028677814 0.048504636 0.048939563 -0.033964068 -0.025869543 -0.041748546 -0.044336315 -0.01694452 -0.045320187 0.034209665 -0.05110581 0.008203663 0.038298044 -0.014348183 -0.050570942 -0.037274823 0.026529454 -0.026174223 0.04325238 -0.032533772 0.052236296 -0.004733838 -0.0077304067 -0.04105168 -0.03432063 0.022679696 -0.04803742 -0.03437714 -0.0042487956 0.046150338 -0.019206833 -0.0488569 -0.018747808 -0.04467464 0.023299772 -0.012380075 0.02620194 0.0066072196 0.027877042 0.05101271 0.03652044 -0.04847056 -0.017458418 -0.04912764 -0.036255673 -0.024490505 0.03572603 0.020591002 -0.026806733 -0.031197317 0.01767727 0.023332251 0.00016108266 -0.048290413 -0.029226884 -0.047361534 0.022314658 -0.0046841823 -0.002042708 0.0032940519 -0.00999466 -0.044232517 0.016955825 0.044171326 0.03479696 0.045138925 -0.009559117 0.0018582132 -0.018837415 0.010725865 -0.027536068 0.017199846 -0.01068877 0.026094101 -0.0067866235 0.008395773 -0.018207323
on 0.052072003 -0.05100965 0.014434041 -0.014822067 -0.011819145 -0.030968593 0.006380304 -0.01323913 -0.009671216 -0.02593189 0.044057187 0.032892305 -0.026882876 0.025731975 -0.0063447203 -0.0054344293 0.022806851 -0.03908245 -0.027682172 -0.030984746 -0.02466998 0.003868268 0.033518694 -0.015510978 -0.04633186 -0.014024973 0.023938224 0.015311064 0.02261634 0.036216605 -0.032832008 0.031547695 -0.04457381 -0.015390736 -0.048198506 -0.049738448 -0.044736754 0.044084713 0.03948953 -0.018001912 -0.0437403 0.049245924 -0.031173253 -0.023000376 -0.007974699 0.01660097 -0.007521105 -0.030685322 0.05421513 -0.05463595 0.0066040405 0.026160127 0.004840756 0.045835298 -0.038813606 -0.019527957 0.002676907 0.002594095 0.024670549 0.0015423578 -0.041487962 -0.038395766 0.04518096 -0.027671902 0.012904735 0.0425567 0.0028016435 -0.0029203065 0.057607867 -0.0020499371 -0.010407725 0.0010035194 -0.0034718993 -0.027035164 -0.028933374 -0.040231496 0.018429512 0.004236607 0.04056071 0.04250363 -0.016118262 -0.041541573 0.007735591 0.03750395 -0.017419456 -0.039921775 0.022018205 0.047754504 0.0024684186 -0.012857544 -0.02515238 -0.024526233 -0.0046603284 -0.02647586 0.009655818 -0.031922325 -0.03158853 0.057355434 -0.012139513 -0.013236742 0.03757429 0.02101786 -0.023279151 0.012024379 -0.032003902 0.03462359 -0.038343284 -0.00087192544 0.00084804185 0.028228857 -0.015147242 0.024915371 -0.028375696 -0.017638369 0.008855399 -0.027004942 0.039043993 -0.014652917 -0.006954189 0.017817525 0.025389127 -0.0025003715 -0.048920415 -0.0530617 0.043303773 0.023904689 0.02710918 0.014739683
revenues 0.0052741407 -0.049536992 -0.017034577 0.021018866 -0.011127135 0.037334185 0.03840883 0.040807016 0.026671171 -0.030116526 -0.04061888 -0.023407351 -0.030692749 -0.015927542 0.039091278 0.043456186 0.0329072 0.027923629 -0.029173676 -0.029453265 -0.014302005 -0.02374104 0.01681065 0.0050097005 -0.024985023 -0.029480916 0.050692096 0.04353615 0.022876572 0.012424669 -0.024402644 0.046774805 -0.026994407 -0.015563473 0.030264115 0.031192053 0.009638241 0.019179694 -0.03526875 -0.027061468 0.019088151 0.02315064 -0.00097358454 -0.004427439 0.020282824 -0.016154751 0.01940889 0.036825914 -0.027048491 0.04016307 0.042442456 -0.011021578 -0.04834884 0.031265303 0.039423358 -0.0354721 -0.037659574 -0.010487256 0.00034272458 0.044264995 0.035723694 0.021977479 0.0057049575 -0.026360797 -0.03454656 -0.011578685 -0.04902043 0.022756226 -0.0040084654 -0.035328016 0.016150057 0.046842236 0.01572195 0.0247908 -0.005674975 -0.049221225 -0.039010078 -0.05148229 -0.026892511 -0.023325143 0.049072485 0.046842642 0.023893058 0.022616701 -0.026797494 -0.047930293 -0.030932007 1.2435019e-05 -0.016542204 -0.051094808 -0.015841741 0.018337805 0.034508266 0.022889974 0.011218689 0.054309636 -0.0058783544 -0.0055226907 -0.03863258 0.00796559 -0.009066993 -0.053339515 0.028273169 -0.00675965 -0.010565847 0.0107149575 -0.0027370828 0.0008644251 -0.00246417 0.048728663 0.0063823992 -0.022583352 0.049322497 -0.01416079 -0.009778447 0.053907175 -0.0418216 -0.0066262996 -0.042160243 0.03513887 0.02388085 -0.03176939 0.023625806 0.012029748 0.034692504 -0.017543063 -0.03068815 0.049540162
quarter 0.0013348013 -0.028929943 0.048972145 0.0107914675 -0.05409296 0.0035003768 -0.02582455 -0.0046318374 0.0128457425 -0.012781255 -0.0022651805 -0.016242681 0.018943056 -0.042750835 -0.030845555 -0.0029074787 0.037143875 0.053830985 0.030524937 -0.024482226 -0.0028296341 -0.032939598 -0.039343756 -0.014100603 0.029696846 -0.024657527 -0.015024223 0.035325844 -0.022164922 0.019641483 0.017763143 0.015353026 0.042218484 -0.046716195 0.034515183 -0.019661892 0.008837061 0.018814882 0.01906413 0.028523851 -0.052500658 -0.024236875 -0.0006180342 0.039910436 0.008579815 0.032491397 0.0047898004 0.04518129 -0.034143955 -0.014868284 0.008944311 0.016331669 0.030875474 -0.018989382 -0.016801635 0.04212185 -0.035505086 0.024582224 -0.012675103 -0.007103236 0.006694293 -0.025872627 -0.0060724393 -0.0037928433 -0.0015223606 -0.040458232 -0.0052443906 -0.0101877125 0.0080203125 0.029066486 -0.019051531 0.03477145 0.009523791 -0.016053544 -0.03884311 -0.010056296 -0.002719322 0.008796618 0.0029075774 0.02772471 -0.03990652 -0.032311875 0.0308726 0.03931857 0.025387904 -0.024503654 -0.028802441 0.04707046 0.023543218 -0.034692023 -0.0074108285 0.018980455 -0.030179609 0.031450182 -0.008506495 0.022609862 0.023971265 -0.027040748 0.007772803 0.011354834 0.0006081788 0.019465009 0.0020640357 0.017096344 -0.03477144 0.02249357 -0.001713578 -0.04710617 -0.017338993 -0.029615242 -0.0130290175 -0.04909398 0.030253634 -0.041589744 0.01778073 0.018204808 0.030059863 0.00195514 0.030728973 0.029694175 0.041415773 0.01967392 0.018389916 0.00044472393 0.03160079 -0.030825693 0.004129437 0.05386932
1993 -0.02259309 -0.00027163886 0.042475674 -0.040271282 0.017005024 0.030112479 -0.04177275 -0.0018513917 -0.017477877 -0.004505998 0.036153577 -0.007521109 0.009302281 0.033800516 0.014830184 -0.011921284 -0.049843784 -0.03868828 -0.037327666 -0.0031090425 0.03881503 0.040493723 0.0013608827 -0.0074666366 -0.01817777 -0.017406035 -0.009360075 0.05729287 0.008957079 0.0001553396 -0.032121494 0.0361324 -0.013584084 -0.050808467 0.015395931 -0.050203305 0.03600396 0.014566953 -0.0063297027 -0.02331292 -0.014257551 0.014357461 0.009716048 -0.007181752 0.024985291 0.0002781591 -0.012909641 0.020956308 0.012755713 0.0034985912 0.016957296 0.0041758567 0.04449698 0.002690289 0.034316216 -0.036030225 0.025442746 -0.05559751 0.0237972 0.010479161 -0.0179096 0.04275507 0.017890811 -0.028542105 -0.0023700143 -0.018090408 0.036841128 -0.0007883385 -0.03794551 -0.03536705 -0.008613858 -0.020523624 -0.013289195 -0.020090872 -0.026663616 -0.043933533 -0.031286996 -0.009101504 0.028952742 0.006510776 0.01936536 -0.030074926 0.034430716 -0.047552228 0.0056451275 0.0407603 -0.04895882 0.04315085 -0.010769016 -0.023280319 0.010706888 -0.011301217 -0.0168038 0.041623924 -0.008160017 0.021442374 0.03302098 0.0049121967 0.039459664 -0.021324819 0.04166457 -0.0012990115 -0.041529056 -0.021105424 -0.021658314 -0.032508284 -0.0039413446 0.0151715 0.037505183 0.03631453 0.044425774 -0.0037464837 0.0058527305 0.049609043 -0.02633481 0.021861002 -0.020241626 -0.023715433 0.0516905 -0.017546985 0.01130773 0.012722667 0.005252788 0.049805377 -0.014926768 -0.051388443 -0.003311539 0.0010685923
that 0.037306916 -0.011579182 -0.03504874 0.02516753 0.012316301 -0.041640528 -0.046192292 0.041571993 -0.039604902 -0.0010509179 -0.032891706 0.025864044 0.01774513 -0.04738547 0.03813897 0.043477133 -0.037119042 0.0034677095 -0.05283396 0.024454545 0.030141313 -0.038407907 -0.02614247 0.0074540675 -0.02152615 -0.021736884 0.042128548 -0.035423923 0.037688073 0.038381528 0.03627778 0.029497012 -0.0039016553 -0.011427458 0.011639153 0.0022520304 0.029139673 0.036299136 -0.0007075093 0.029881893 -0.01696157 -0.0013677771 0.033391193 0.022309162 -0.016802678 0.023758132 -0.0032928418 0.052772228 0.01623079 -0.043863527 0.02453165 0.038007956 0.022009417 -0.013809242 0.0050233123 0.019058563 -0.046364002 0.0005988571 0.03914726 0.009788421 -0.042773664 0.039355118 0.036248803 -0.048366677 -0.016035773 -0.04581333 0.015371186 0.013739195 0.0019134635 0.034652803 0.021082439 0.042950116 0.011092212 0.006623019 -0.022586983 -0.02023946 -0.024318416 -0.0035857204 0.047923636 -0.020466741 -0.03684659 0.003032927 0.019980563 0.03298727 -0.029027661 -0.022521058 -0.048246607 0.0029989234 -0.0107699605 0.00405556 0.011123381 0.005966938 -0.048049033 -0.012879168 -0.04404681 0.028280834 -0.008595126 0.0569469 -0.0012298061 -0.045979053 -0.033567086 0.04154865 -0.022480104 0.03451784 0.031922217 0.0098098675 0.038528968 -0.014772103 0.023204977 0.012753106 -0.03837065 0.014053029 0.03567049 0.05055094 0.040678896 0.020036329 -0.026030684 0.04997534 0.044670407 -0.036704324 -0.025661085 0.052172966 -0.007989565 0.0038751417 -0.034608353 -0.0043582264 -0.019430382 0.025769705
third 0.0027048164 -0.047923464 -0.012885521 -0.040053822 -0.0063706934 0.012382688 -0.042773258 0.012884113 -0.03721409 0.026550084 -0.044740856 -0.02394382 -0.040171083 0.013737376 0.03729202 -0.042934988 -0.007999286 -0.031150445 -0.014284272 0.04869113 0.016155768 -0.040433563 0.034895405 0.040471975 0.033725653 -0.008189475 0.0034786537 -0.031818748 0.01622823 0.013478715 -0.014632445 -0.01702255 0.029117307 -0.048602253 0.029671255 -0.048026606 -0.048740275 0.027031403 -0.0009493505 -0.02355066 -0.04959986 0.034700356 -0.03052616 -0.017610902 -0.0059420257 0.008063111 0.051394198 -0.006228785 0.031960815 -0.055571586 0.025502 -0.023488035 0.040530782 0.024232881 -0.046886515 0.01248975 0.021302193 0.036907192 0.011618551 -0.021168293 0.03101873 -0.00960938 -0.026988676 0.046537947 -0.0039007443 -0.043035187 -0.0023353836 0.0043327394 0.021837743 0.035801373 0.028781809 0.015787315 -0.03547839 0.009215488 0.017337449 0.044004638 0.009910883 0.013068486 0.0091814315 -0.0013547076 0.02975197 0.04868301 -0.0151280295 -0.034415107 -0.0028873717 -0.05448936 -0.043005098 -0.037306283 0.028905896 0.0402397 0.018325116 -0.0057649296 -0.008306538 -0.03221012 0.0054456037 -0.002075015 -0.02564344 -0.0046055308 0.044497147 -0.004652772 0.021685597 0.020460816 -0.01059989 -0.00893802 -0.022280797 0.0069618067 -0.02780475 -0.050356254 0.0009803851 0.055847153 -0.04239087 0.008845834 0.008329112 0.054618247 0.012542663 -0.018847134 0.046651896 0.05030185 0.036385152 0.0450081 0.03840397 -0.008498445 -0.025664655 -0.0033678531 -0.03164238 0.0459495 0.034641616 0.0041655446
from 0.009920815 0.029158555 0.045227848 0.05253055 0.017257353 0.012701607 -0.030917916 -0.050166767 -0.027268577 0.020853925 -0.042985488 0.010529872 0.038870398 -0.00842007 0.02125846 0.015904589 0.041452985 0.03259108 0.03935436 0.048988085 0.039393738 0.0014751963 0.051108453 -0.00850177 0.037242502 -0.01449439 -0.037059233 0.003546196 -0.04307209 0.03708544 -0.027324863 -0.041649546 0.00054370164 0.020472484 -0.021111608 0.014644729 0.025808847 -0.03247861 0.031141268 0.02525678 -0.018412653 -0.04173894 0.011739676 -0.050376017 -0.014474027 0.019293994 -0.014824424 0.03469383 -0.0102785295 -0.007910846 -0.028158814 -0.020008702 -0.04412613 0.0339943 -0.023061546 -0.028593369 0.031826694 0.012572251 0.048942015 -0.021910766 -0.04375707 -0.020754632 0.006741505 0.042219903 -0.016996453 0.02658188 -0.02291728 0.009720253 0.023712968 -0.04602802 0.0018305352 -0.033786844 0.010589605 0.029331123 0.032506414 -0.02341574 0.040321194 0.047375716 0.0088923555 -5.336653e-05 0.015805798 -0.043498155 -0.019423233 0.011177359 0.009921961 0.011479535 -0.0055809976 -0.032716546 0.007906712 0.028030429 -0.021409364 -0.013521019 -0.044836603 0.021988291 0.0021493335 -0.0078077177 -0.041568723 -0.0066049625 0.012708554 -0.03833279 0.03987037 -0.029831817 0.025230294 0.013292462 0.028157081 0.030554805 0.00474105 0.035019774 -0.036840905 -0.0031629093 -0.02382592 0.037711956 -0.031212194 0.003275916 -0.041787386 0.0040942165 0.053445805 0.017196054 -0.014042689 -0.031315763 -0.038867433 -0.01112014 0.056546267 -0.023074865 0.017084816 0.018669061 0.044495214 0.013391984
by 0.0009963973 -0.04240792 -0.011713003 0.029105946 -0.015908096 0.0067625153 0.02067371 -0.019277617 0.027450437 0.026004205 -0.0034841103 -0.0034277835 0.037033748 -0.046993025 0.03306915 -0.030950516 0.009021277 0.02355261 0.04514166 0.008268911 0.01638881 -0.0378616 -0.022220276 -0.04369749 0.006898049 -0.023950808 0.028123796 0.044643685 0.014622021 -0.025180215 0.030322487 -0.00012212763 0.011414805 -0.019904878 0.042234905 0.043745346 0.0063949255 -0.04102994 -0.011324162 0.04346194 -0.011949138 -0.038676452 0.010518604 0.010949073 -0.04560427 0.019865919 -0.023847697 -0.013292037 0.015798558 0.02814479 -0.04292275 0.010268681 -0.029695176 -0.002100195 -0.042764775 -0.01496495 -0.031497322 -0.02588479 -0.043018557 0.0022011034 -0.0034441364 -0.031908557 -0.005088222 -0.00301665 0.008884631 -0.027983826 -0.043851513 -0.036206644 -0.018364038 -0.04163198 0.055675983 -0.013383755 -0.008292971 0.0060274657 -0.034708224 -0.045688532 -0.03203052 0.00046550483 0.053134125 0.0065299426 -0.008913983 -0.035095796 0.032076117 0.039285116 0.00038583038 -0.05006585 -0.043324348 -0.018169057 -0.04120728 0.025492897 -0.031140542 -0.029929036 -0.031017968 0.006395828 0.009643732 -0.04045142 -0.052918136 0.03726261 0.043909244 0.00025110773 0.052500807 0.03639019 0.032494884 0.0088687455 -0.05642596 -0.042794514 -0.00957146 -0.041678667 -0.00628873 -0.015713595 0.016516952 -0.008955955 0.004861757 0.043463808 0.021956978 0.035748184 0.003218343 0.03272756 0.034047462 -0.023492612 -0.016212862 0.049830187 0.05085056 0.022246359 -0.0119517455 0.01564755 -0.0021500238 0.04702775
were 0.008382838 0.025556518 0.040496603 0.032623954 -0.043294247 -0.027180443 0.029483676 -0.009228695 0.038426757 0.045378476 0.019897878 -0.02476239 0.04200471 -0.046857737 0.007957985 0.047156032 0.034765784 -0.010786396 -0.022488253 -0.0040685334 -0.029630935 0.0022832318 0.022432989 -0.027889783 0.043132793 -0.04317535 0.014241995 0.051459085 -0.0077517824 0.04418485 -0.015538567 0.03700808 -0.023843832 -0.050063916 0.047984857 -0.039726965 -0.0019441557 0.029312387 0.03895472 0.0058928733 -7.347058e-05 -0.0007395474 0.011656473 -0.050938983 -0.023334265 -0.013480233 0.0319 -0.026894633 0.034293443 0.007812841 -0.0011909629 0.022530671 -0.01780868 -0.05443012 -0.007068552 -0.040679596 0.012924847 -0.016745243 0.033075046 0.017987132 -0.0042858366 0.037589036 -0.02846943 0.03820247 0.04075416 0.037446506 0.010981708 0.01519362 -0.0004516113 -0.046098802 -0.044976823 -0.008739978 -0.014504379 -0.02908633 0.0072760214 0.034476437 -0.046847798 -0.031735223 0.007765158 -0.006788275 0.0016932017 -0.021998357 0.025442107 0.011469368 -0.0034639442 -0.0035984719 0.029268092 -0.013221098 -0.017338023 -0.049012203 0.009794239 -0.028172592 0.039542213 -0.035067864 -0.04132491 -0.029654892 0.024980396 0.029042756 -0.05060369 -0.030206377 0.041286204 0.015757712 -0.003922809 0.049231015 -0.05105216 -0.0006861741 0.031439364 -0.029428972 -0.024115207 -0.04275062 0.04533846 -0.033261582 -0.032309722 0.013808632 -0.036131617 0.04789649 0.03730256 0.036772475 0.0036742196 0.03284382 0.027160244 0.045434393 0.022847157 -0.031693954 -0.025888566 -0.04880742 0.03717456 0.029840466
has 0.006854769 0.015632799 -0.035957124 0.035551608 -0.038594577 -0.055285748 -0.022713203 -0.012797227 0.04286976 0.030555464 0.031418767 0.031200368 0.03837023 0.029991 -0.043183632 0.008550448 -0.039913356 0.0009845272 -0.03240139 0.040869102 0.0020379692 0.0007573405 -0.0063131927 0.016895056 0.04295667 -0.010784176 -0.013688458 -0.019592728 0.016129091 -0.002543128 -0.022414614 0.03943804 0.040386036 0.018770358 0.027092682 -0.03634113 -0.008005128 -0.005624582 -0.032337353 0.0055914465 0.0030413812 0.024221936 0.017660279 -0.023536032 -0.009726418 -0.03649646 -0.0052928748 0.016325708 -0.021461474 -0.003750341 -0.0075522587 0.03133711 0.033909004 -0.01551282 0.016595628 0.0010358485 0.014432284 -0.047760665 -0.009855428 -0.01088157 0.036021426 -0.025356272 -0.042563263 0.00020445876 0.022716522 -0.05064005 -0.01965934 0.024505204 0.006198271 -0.028684568 0.023122646 -0.008726489 -0.024452008 0.023854949 0.042024203 0.0012991771 0.006687145 0.00026301487 0.055878423 -0.016121184 -0.012052767 -0.0026946615 0.036347907 0.03205222 -0.013130574 -0.05254923 -0.02638243 0.022354586 0.024732605 0.0104196565 -0.003087742 -0.05023634 -0.021249188 -0.01586875 -0.047129035 0.04605494 0.042292327 0.046610657 0.0021323645 0.0015029901 -0.017961424 0.016796503 -0.012036239 -0.032617066 -0.03962072 -0.031038452 -0.020742219 -0.0022867015 -0.048079286 -0.016705645 -0.025657166 -0.02935408 -0.04344066 0.022521008 0.00995435 -0.0064253975 0.030565117 0.0095082745 0.004256753 -0.0108535 -0.019023532 0.039231393 0.027437855 -0.004303958 -0.024150109 -0.01955285 0.05427338 -0.02541888
was 0.00017550803 -0.016547002 -0.018499669 -0.010903113 0.042028494 -0.003675853 0.024999097 0.011729116 0.014747293 -0.028780319 -0.0009672947 -0.022619186 -0.029802078 -0.043627355 -0.0019832435 0.051094532 -0.010564536 -0.020308297 -0.035799384 0.02757669 -0.046020634 0.028867286 0.020673165 -0.006414917 0.03323959 0.032963447 -0.02454204 0.04253117 -0.028074395 -0.010448037 -0.03987542 -0.035242267 -0.023728631 0.050473794 0.003871971 -0.018426843 -0.03366079 -0.041685503 0.007991635 0.045695554 0.04412991 -0.019034496 0.008410478 -0.03493632 -0.052065924 0.010383607 0.049587823 0.015407282 0.0023174696 -0.024074547 -0.05037293 0.044698562 -0.022156715 0.0006204635 0.035836913 0.011312883 -0.05158048 -0.04768536 -0.008166461 0.014036784 -0.014649833 -0.022723593 -0.04638682 0.0013591718 0.0441402 -0.023987716 -0.04368806 0.039129656 0.024664016 0.025038902 0.02630105 -0.044032853 0.012934806 -0.011470279 -0.027237408 0.044946253 0.042624652 0.010519658 -0.017080866 0.047438726 0.022167735 0.01600674 -0.04526522 0.023896895 0.022659067 0.019109847 -0.039579727 -0.038378615 0.053975224 -0.041109424 0.040196992 0.018261256 -0.009841255 0.016654437 0.022347244 0.006669488 0.026183534 -0.00024571875 0.018894432 -0.024806939 -0.018320719 0.021161417 0.029662617 0.0068620103 0.027267989 -0.023342535 -0.009852874 -0.023107152 0.02562524 -0.012943218 0.0049857125 0.0113130305 -0.016435735 -0.035227705 0.019457906 0.035789426 0.0063096993 0.04141696 0.016923346 0.0052363216 0.009537353 -0.00438587 0.02537887 0.026269507 0.02703004 -0.03622661 0.021460459 0.030843893
1 0.051008213 0.005619759 -0.0443911 0.02747839 0.011172604 -0.047812592 0.046572026 0.019403689 -0.012044323 -0.034273323 -0.04700643 -0.042703863 0.036523744 -0.018808804 -0.042272083 0.021741383 0.03690346 -0.034532696 -0.004052766 -0.0092956 -0.018047068 -0.0054971403 0.024263013 0.025740124 0.0018622731 -0.020166889 0.006738682 -0.0051492965 0.045442823 -0.008928597 -0.04563754 -0.04243865 -0.049085204 -0.039821032 0.0041540326 0.03979949 -0.0128816 -0.026508207 0.009098237 0.041827243 0.032971747 -0.03362869 -0.042518806 -0.019177228 0.024903858 -0.025209656 -0.019584857 -0.0070003024 -0.03600708 -0.055880155 -0.036458902 0.021986334 0.007921209 0.015622712 -0.02963131 -0.02471418 -0.0025157908 -0.035324354 -0.03358092 0.011553723 -0.056349125 -0.03910805 -0.0051232963 -0.011284251 -0.007723017 0.013114956 0.041501902 -0.04854783 0.030770106 -0.030641891 -0.042213887 0.036483478 0.021623233 0.033697195 0.005705376 0.016232708 -0.026690109 -0.015071714 0.0060447846 0.045700397 0.034376573 0.0038219586 -0.04162782 0.035278175 -0.011348015 -0.017114405 -0.037560966 0.04451125 0.010518496 0.007996322 -0.034003776 -0.03462385 -0.027146854 0.04577334 0.0052415654 0.051638436 -0.045258123 0.031026669 0.013399712 0.016691178 0.009441195 -0.015913347 -0.029284142 0.038112946 0.011616768 -0.03157003 0.027090812 -0.003113859 0.038329124 0.02566788 -0.004146436 -0.053222694 0.0019654504 0.049047362 -0.020574482 -0.022425987 0.02906898 -0.014221929 0.0039922358 0.04366215 -0.012028614 0.04787607 -0.045728624 -0.0064651244 0.033454437 0.007923291 0.005390636 -0.0019559045
2 0.018377285 -0.031117897 0.044735037 -0.003598127 -0.051654138 -0.05365754 0.003431087 -0.030060895 -0.035380144 0.045683585 -0.038348965 0.005521113 -0.013987483 -0.03228486 -0.01596996 0.020909602 -0.025565453 -0.0033877036 -0.010362524 0.03443996 0.048141357 -0.04240145 0.00015453604 0.029371295 0.04644365 0.02587358 0.032102507 -0.020411953 0.02088431 -0.022528348 0.0039970344 0.02426902 -0.040991146 0.043806594 -0.044075098 0.011472096 -0.035153814 0.0041725338 0.00832939 -0.051716767 -0.023938922 -0.04248132 -0.03889307 0.0004155249 0.014175942 0.045150366 0.048904948 -0.004245226 0.0014222183 0.022148302 0.024361845 0.037642315 0.024549033 -0.03793713 -0.015654918 -0.03525832 -0.019895516 0.0080538485 0.04192213 0.000116960786 -0.011062471 -0.018137021 0.03244408 0.037948675 -0.0034161394 0.045743633 -0.021071848 -0.030054817 -0.04193732 -0.0079408735 -0.026092093 -0.0028719874 0.040617295 -0.010616817 -0.011129191 0.0034247627 -0.0475245 -0.018112898 0.018260779 -0.010101358 0.019273527 0.05073822 0.0076682977 0.02224245 0.021295 -0.018302144 -0.040493235 0.009035633 0.016711537 0.0019648687 -0.044191282 0.043618012 0.012636001 0.03392041 -0.053965524 0.0451717 0.035969518 0.040839978 0.03157163 -0.03595987 -0.032555494 0.038977575 0.014341167 -0.008013865 -0.01370512 -0.041222423 0.007613887 0.010695659 0.016003491 -0.021686928 -0.051671065 -0.007363907 -0.014456849 0.05499772 -0.035401583 -0.014445405 0.03980184 0.0036841552 0.045256272 0.013422808 0.02542586 -0.026850447 -0.045926612 0.047502086 -0.015565134 -0.027963022 0.00080838497 -0.018572604
company -0.042805865 -0.009669815 -0.034163896 0.026573945 -0.045008242 -0.021910746 0.037679102 0.0044601155 -0.0046241274 -0.000134604 0.008011625 0.0032885543 -0.029621292 -0.04341434 -0.0010846051 0.0006003939 -0.024715569 0.04508906 -0.03194593 0.0020806917 0.0052088657 -0.04201268 -0.010400372 0.040714204 0.038487453 0.015752692 -0.045167048 0.03167331 0.051433045 0.024064526 -0.041900124 -0.0042837816 0.028900515 -0.037941482 0.016813844 -0.04380676 -0.008837323 -0.027187128 0.045791086 0.04785749 -0.027937343 -0.017918715 0.008510737 -0.013989923 -0.009834737 0.03552058 -0.046235893 -0.03342759 0.0150008695 -0.04822539 -0.04107586 0.046746474 0.049494453 0.012998502 -0.018154679 0.01377178 -0.03607949 -0.040520854 -0.022526367 -0.030760217 -0.05059759 0.02657463 -0.042995665 0.034099944 0.0054815053 0.0077589685 -0.029416243 -0.038563844 0.05388181 -0.012548366 -0.024057223 0.03600864 -0.014144857 0.01103753 0.02328602 0.016861822 0.016530741 0.03990276 0.022249721 -0.02291761 -0.032945164 0.02060822 -0.046869237 -0.038331043 0.019455988 -0.004775934 -0.0045613027 0.0033791265 -0.027096469 0.044200942 0.00048283406 0.042995594 0.033654373 0.009123028 0.003959419 -0.0051296335 0.0068121315 0.047683112 -0.01771896 -0.0061607603 0.019863896 -0.04150156 0.04636895 0.014090639 -0.01190835 0.04588262 -0.027531866 -0.01648305 0.046806686 0.05224549 0.024962518 -0.015634367 0.013490967 0.00095778774 0.021646276 0.047362942 -0.025726765 -0.033932764 -0.034224164 -0.043689918 0.010031664 0.045247905 -0.03484384 0.04130609 0.039191846 0.029712863 -0.0008263283 -0.009136772
as 0.020794189 0.0025526825 -0.00024074392 -0.03923909 0.009158542 -0.025195267 0.029919665 0.026398236 0.047904477 0.015436544 -0.045465305 -0.029869605 0.0009417536 -0.038314536 -0.0018696822 0.03191721 -0.04342681 -0.011673326 0.044365905 -0.03347089 -0.02922824 -0.039806604 0.024463573 -0.03196935 -0.033819474 0.011313818 0.043690477 0.016629556 -0.033230323 0.021053817 -0.031691935 0.024473751 -0.008467517 -0.011305689 -0.029147757 -0.00513376 0.03996502 0.039598808 -0.007160282 0.03916853 0.015836498 0.03640399 -0.009569737 -0.017255431 0.017560791 -0.010962919 -0.008036494 0.047460184 -0.044105746 -0.03172292 -0.014628352 0.047510087 0.024267472 -0.004419811 0.00923253 0.043801125 -0.02015883 -0.043955274 -0.033742625 -0.028191121 0.03771853 0.047112297 0.017534487 -0.0074128252 -0.0015881833 0.0058945897 -0.031189863 0.013632899 -0.051367085 0.03161931 -0.00048122305 0.021573892 0.014291002 -0.022626031 0.028067408 -0.03281385 -0.030396625 -0.038946394 0.048902884 0.02843783 0.0008018166 -0.021882946 -0.027701994 0.041375708 0.024307257 0.0042049596 0.025865024 -0.036103986 0.039400563 0.025458928 -0.016020684 0.015267975 -0.012871294 0.046833698 -0.03257669 0.050479114 -0.021649789 -0.028471751 -0.035540055 -0.04960324 0.017874189 0.029317765 -0.02566802 -0.023851424 -0.026148751 -0.033143785 -0.040941637 0.011658609 -0.051990323 0.051420595 -0.006099913 0.00588587 0.039902586 0.0008413459 -0.010825447 -0.015770357 0.040932413 -0.013516298 0.010757882 -0.04190434 -0.04789245 -0.028351696 -0.041051082 -0.016779773 0.047157355 0.031231476 0.014808796 -0.020478275
6 -0.03600762 0.006600642 0.028794328 0.039961822 -0.035301685 -0.029240845 0.022810759 -0.02030558 0.018854452 -0.025449399 0.033984546 0.05166479 0.039740562 -0.016378649 0.017349612 -0.012418974 -0.014382015 -0.012025882 -0.010310566 -0.038282104 0.038296178 -0.04037593 0.046503607 0.035772976 -0.03164182 0.02018713 -0.026594913 -0.03961784 0.0438885 0.01651583 0.008694347 0.0038983277 -0.014537443 0.02843253 0.031623688 -0.032340292 0.03498643 -0.026611667 0.0365825 0.036998946 0.033507798 -0.020125886 -0.009451309 -0.049292725 -0.027442882 -0.009959611 0.04772528 0.044738073 -0.03419446 -0.004190037 0.043323766 -0.044309814 -0.035529915 0.038388222 -0.024986941 0.016796162 -0.034750696 0.038652185 -0.029712005 -0.012644675 0.013571221 0.024647787 -0.0012935097 0.016712721 -0.03572614 0.009605339 -0.025503222 0.0077661 0.015889198 0.015242748 0.029598722 0.049103923 0.012232699 0.041453227 0.010777655 0.046825226 0.037443206 -0.008536993 -0.012623716 -0.012149182 -0.044750143 0.032949787 -0.008825168 0.0066750194 -0.029168898 0.043328226 0.009724557 -0.03152419 0.012182923 -0.0091096945 -0.026446233 -0.034203295 -0.002197356 0.0068861498 0.02029295 -0.028831983 0.01556221 0.028092323 -0.024177613 0.03358585 0.018014815 0.03797354 0.043625347 0.035228875 0.036086597 0.020747574 -0.027250702 0.03764755 -0.05045544 0.015391328 0.0069292067 -0.042492907 -0.019601183 -0.02245314 -0.014420084 -0.029065378 -0.037731227 -0.0136245005 -0.02995872 0.04096834 -0.037224375 0.010445114 -0.013681902 0.028047122 0.00038198614 0.018582264 0.001142629 0.040370405
is 0.046288192 0.008552034 0.05378198 0.030374339 -0.020740647 0.043281417 -0.024441458 -0.02820428 0.041207723 0.04057333 0.05160342 -0.014895979 -0.03494619 0.021949839 0.041563578 0.03609242 -0.002483401 0.05104039 0.011278741 -0.024660993 0.012563183 -0.04272098 0.04281547 0.04896258 0.04458336 0.03863344 0.047241803 0.024576183 0.053839304 0.045332156 0.012624843 0.036560483 0.017369682 -0.023994355 0.0007208409 0.03331285 0.034526993 0.015606537 -0.0039858567 0.039175726 0.0061394977 0.038062915 0.03431696 -0.044041358 -0.015914025 0.006376274 0.002767628 0.03692005 0.004776095 -0.02270135 0.041915882 0.034537833 0.008095455 -0.03855095 -0.050491553 -0.0013132542 -0.04672543 0.027687779 0.049283307 0.020304712 -0.036338065 -0.015645344 -0.03426115 -0.028526831 0.025358638 -0.027775599 -0.0484338 -0.04445459 0.029626964 -0.033569884 0.045655236 0.035612553 -0.028350824 0.024763828 0.008810826 -0.04567583 0.004738357 -0.02095152 -0.030241573 -0.04691388 -0.0483713 -0.011824377 0.006673748 -0.047743056 0.020392768 0.00424755 0.017515138 0.026714025 -0.007906487 -0.031279705 0.0071255555 -0.022786988 0.007645498 0.051331323 0.032838203 0.022313014 0.026538914 0.055292603 0.026577367 -0.01531227 0.028974077 -0.013660469 0.03968616 0.03658804 0.0088665765 0.050143477 0.033949837 -0.04373079 0.0010007404 -0.0072650616 -0.04265562 -0.012015478 0.0042844866 -0.04708411 0.020662077 -0.03935349 0.034024082 -0.021902513 -0.042996015 0.0014274213 -0.00060711714 -0.026557662 -0.037884627 -0.031972554 0.0092394175 0.04043232 -0.042934343 0.047016412
dos -0.030516706 -0.04974387 -0.027831715 0.04578876 0.019697463 -0.04010233 -0.034981567 0.0020642625 0.03376441 0.05246211 -0.039101824 -0.011193909 -0.018209985 0.046205156 -0.0009302569 -0.015324836 -0.041670162 -0.008368344 0.008499422 -0.03562205 -0.040189087 -0.0028198268 0.021117272 0.03605858 -0.011784516 -0.025059517 0.020805623 -0.03847433 -0.020449981 0.019710748 0.03621473 -0.02648934 -0.026078155 -0.041043255 -0.0044275904 -0.025736433 -0.04595639 0.02409473 -0.044161867 -0.04814139 0.032547466 0.03902901 0.041562483 0.0019606878 -0.032231297 -0.04307461 0.0468264 0.04237992 -0.011190569 -0.03236056 0.0368272 -0.009399573 -0.0042438526 -0.049353525 0.017746558 0.03283221 -0.018901194 0.0167485 0.018798614 -0.0050623273 -0.029101448 -0.044593204 -0.011657297 -0.015747776 0.04199794 -0.04670215 0.012089646 -0.025433427 -0.0014203857 -0.03006826 -0.035509706 0.0007782139 0.028312355 -0.014225621 -0.018228654 -0.017500428 0.017875351 -0.0027988674 -0.025583345 0.038734622 0.0068288925 -0.01559432 0.012690859 0.006300723 0.005618169 -0.041599546 0.014060439 -0.035615947 0.046280645 0.017617919 0.0034081729 0.0017319693 0.040749263 0.042171754 0.000274437 0.012867591 -0.051188387 -0.003549879 0.046409383 0.027354343 0.04506658 -0.033010527 -0.0039242343 0.01701009 0.02301186 -0.0430982 -0.032674488 -0.038061414 0.027338615 0.0021307513 0.018460061 0.00068354676 -0.0031653787 -0.03674109 0.029386844 -0.04309263 -0.024726743 0.011641358 0.034558743 -0.03391483 -0.018037062 -0.026569068 0.012207311 0.025140349 -0.0045356457 0.01626186 -0.007877276 0.041388925
or -0.042182617 -0.049277272 0.023383848 0.04037896 0.04206082 -0.045979932 0.040224787 0.02413098 0.023208497 0.016536644 -0.03199563 -0.018038513 -0.023124594 -0.037453867 -0.0398149 0.05514383 -0.040492754 -0.023724906 0.003985579 0.0055682072 0.022397853 0.009035396 -0.0023680986 0.036273938 -0.010218215 -0.047472496 -0.013412361 0.050835144 -0.008600566 0.01975368 0.018419335 -0.018365754 -0.04871663 -0.0283084 0.030302798 -0.029321712 0.027907176 0.001475156 -0.025152817 -0.0077677574 -0.050816208 0.04629647 -0.017871702 -0.04867312 -0.04707652 -0.025485326 -0.022365728 -0.014276142 0.005938427 -0.051810388 -0.014620202 0.022138655 0.038170733 0.04820098 -0.025250008 -0.011997371 0.008073404 -0.014854493 -0.0048451307 -0.03799997 -0.012377637 -0.0008538265 -0.045424107 0.014161738 -0.0056934184 0.02502946 -0.009123667 0.0043433295 -0.03901303 0.043804377 0.03716268 -0.04167729 0.041529782 0.040740076 -0.0002689479 -0.007025199 -0.0016381377 -0.013150815 -0.009940721 0.032319967 0.042242687 0.021820536 -0.022122573 -0.046290576 0.0061780247 0.030555608 0.0422465 -0.044881497 0.049400795 0.020044573 -0.012953495 0.041010354 0.03260087 -0.043747086 -0.0063308734 -0.016419012 -0.050323706 0.044001948 -0.0016201218 0.0131545365 0.014522975 0.043111548 -0.04264197 -0.0125618605 -0.013240837 0.039777428 0.024983486 -0.014902775 0.019290382 -0.017729484 -0.03551707 -0.017342139 -0.05019903 0.034349237 0.04122965 0.0010640814 0.050566055 0.029268906 -0.001117946 0.012400362 0.0021580695 -0.024741825 0.05078568 0.0216526 -0.012540137 0.03969735 0.02204681 -0.030625347
are -0.028382925 -0.05332634 -0.024500782 0.019558068 -0.050731387 0.020465335 0.018031955 -0.04835461 -0.019348418 -0.021499943 0.0030295576 0.04567003 -0.04187111 -0.048628137 -0.035921715 0.0097126905 0.014222913 -0.042588115 0.0031165695 0.033461466 -0.029771298 0.0145863835 -0.047938686 -0.039876726 0.045248993 -0.034086015 -0.038251977 0.0106090605 0.039069507 -0.039970994 -0.0030327328 -0.027632616 -0.035030413 0.00073662563 0.042854458 0.03111675 -0.033852756 -0.012625268 -0.053445715 -0.027927052 -0.024738194 -0.015373594 -0.03799397 -0.031256013 -0.024589673 0.051226117 0.03478318 -0.010215437 0.0045888224 -0.025377298 0.021671327 -0.03232925 0.0024538408 0.046577282 -0.042992167 -0.051250633 -0.04678212 0.0030499918 -0.004111327 0.02246244 0.019813946 -0.045576144 -0.021148438 -0.03664209 -0.027304366 -0.041247547 0.02618431 -0.047421854 0.012934952 -0.038403396 0.022056013 0.028683819 0.037495293 -0.047972906 -0.048038505 0.025704905 0.038110804 -0.020144822 0.048327584 0.03257161 0.0378839 0.048233796 0.002683393 -0.04800936 0.002176209 -0.0146000385 0.0042992295 -0.011988645 -0.03318985 0.008891799 0.052082933 0.035138194 -0.04118593 0.00642113 0.008198907 0.0284155 -0.0026457256 0.00020183413 -0.0052667726 -0.03273513 -0.008454785 0.030371178 -0.004750399 -0.0433306 0.0043534744 0.05133717 0.02826711 0.00012858631 -0.01812425 0.0017479253 0.026778841 0.0036080917 -0.031621806 -0.0028430887 0.036611352 -0.04917426 0.02278339 0.05032573 0.048500046 -0.034748837 0.022571433 -0.003533282 0.051082425 -0.0028871526 -0.026568823 -0.03740045 0.043129854 0.0018985553
s 0.0043400065 -0.0056755315 -0.0234608 -0.00018943928 0.017529786 -0.01788695 0.04295696 -0.024476781 -0.050628375 -0.0009138897 0.00867611 0.0015708152 0.04274039 -0.02770662 0.010224398 -0.02399256 -0.032663267 0.008894926 -0.018994901 0.0077401795 0.0077794213 0.018720778 -0.04372734 0.025696522 -0.01631929 -0.034454964 0.026858402 0.009938847 0.035730537 0.013252502 0.015320031 -0.01775571 0.03056618 -0.05267697 0.035842303 -0.047999937 -0.04012215 0.023225624 0.043752614 0.008020608 0.0072745285 -0.04577776 0.036505386 -0.050109707 -0.0420495 -0.04903026 0.034949936 -0.0041325716 0.013388608 0.014765896 -0.040250756 0.040325247 -0.018391564 -0.014056584 0.015189636 -0.043088842 -0.02981024 -0.029438056 0.011075749 -0.015454359 -0.040188212 -0.0063054212 -0.044709016 0.03972051 -0.009883354 0.028890679 0.005967573 -0.042400822 0.018810803 -0.0010937135 -0.03832808 -0.0044444767 -0.032061264 -0.038996533 0.0138863195 -0.01669202 -0.02208469 -0.029132672 -0.017063377 0.047703594 0.009959026 0.0014140786 -0.03222116 -0.018023994 0.02691083 -0.024437862 -0.046858728 0.005470182 -0.04596653 0.039043456 -0.04589944 0.031715747 0.011452416 0.012983345 0.007508075 -0.024225373 -0.041037336 0.0075477613 -0.01381561 -0.019874534 0.0017179956 -0.04388706 -0.008812854 -0.021731015 -0.03319688 0.028166976 -0.034780573 0.04191976 -0.035583753 -0.021031694 0.036776423 0.02613781 -0.016269632 0.020461226 0.024977336 -0.034584347 -0.018521147 0.0046427697 -0.0077698487 -0.03606818 -0.030006604 0.008678723 0.014705652 0.0054958737 0.024129134 -0.00032260548 -0.015435725 0.013329987
stac 0.032426625 -0.050534733 -0.015466895 0.006771044 0.0065965485 0.026755247 -0.044563416 -0.04469193 0.014147636 0.051257074 0.0011740581 -0.020347666 0.03456068 0.03383343 0.039701123 -0.04424871 0.037114166 -0.010068291 -0.009156448 0.020332344 0.022090891 -0.05106562 -0.012479522 -0.0073843664 -0.03042028 0.039067544 -0.031437024 0.040980753 -0.032167085 0.043381125 0.043343756 -0.045030303 -0.03527555 -0.0012380034 -0.042162832 -0.025685748 0.016253268 0.017119233 0.0040828073 0.03646913 -0.008645428 -0.0017445518 0.019415649 -0.02368753 -0.028288566 0.034120567 -0.022949308 -0.0019703158 -0.040709585 -0.055986147 -0.018716441 -0.026614822 -0.051826145 -0.028106557 0.041032813 0.010778105 -0.022362687 -0.040784046 -0.04416319 -0.046513945 -0.051151916 -0.024659174 0.015210859 -0.0040101255 0.012117052 -0.01711531 -0.04709315 0.03903507 -0.008039565 -0.020124499 0.044192877 0.015590714 -0.043149702 0.041742302 -0.01913012 -0.005879257 0.034303315 -0.02480722 -0.002302639 -0.0282648 0.030742282 -0.022492364 0.009775362 -0.03003788 -0.044719696 0.017603165 -0.039627828 -0.025559634 -0.01954395 -0.04745465 0.033512294 0.017776502 -0.050748818 0.025601512 -0.007974517 0.04466675 0.0067215925 0.015984636 -0.025752328 -0.04828844 -0.042947393 -0.038323164 0.03683484 -0.03326516 -0.0118699 0.047532212 -0.026682125 -0.041318137 0.047002017 0.039864205 0.042624075 -0.012276555 -0.0029226076 -0.013223954 0.03250853 0.01833517 0.00044709578 -0.04211551 -0.009427872 -0.005169835 -0.007624288 -0.039403863 -0.019000601 -0.023331854 -0.019261133 -0.0019940159 -0.012234336 0.014031823
been 0.03412547 -0.040467937 0.02049939 -0.012430928 0.00039856747 0.016955437 -0.043641306 0.016239773 -0.021111788 0.006442624 -0.04600053 0.019869406 0.030468505 -0.039376907 0.021918114 -0.027222862 -0.010082461 -0.009109635 0.0017915173 0.008338691 -0.0338596 -0.0075317477 -0.009900875 0.014232364 0.013592635 -0.013615601 0.014791024 -0.0059128674 -0.038242567 -0.016420811 0.011380767 -0.010743356 0.046156224 -0.012518941 -0.04140243 0.008813295 -0.04283279 0.040903207 0.027442705 0.006246735 0.038595594 0.03454139 -0.035120007 -0.042397432 -0.027990378 -0.010514269 0.0339822 0.012471051 0.018677162 0.04188985 -0.022975981 -0.018555367 -0.014301747 0.015459362 0.006589003 -0.03488145 0.006612058 -0.001084903 0.0073193195 0.0049900864 -0.04134519 0.016357325 -0.04612759 0.031818878 0.026299303 -0.0021487493 0.0050860615 -0.038818944 0.029396685 -0.023871914 0.011856161 -0.0030215518 0.041472316 0.044907507 -0.015175365 -0.028982159 0.012174164 0.03470322 -0.024725916 0.03967613 -0.022338878 0.0137327 0.01868253 -0.033954117 -0.028439727 -0.010185348 0.010894976 -0.021183066 -0.0062217927 0.02297592 -0.019880788 0.034730714 0.0004645161 0.00459077 -0.015802357 -0.024399078 0.010455416 0.014139948 -0.027310755 0.042681143 0.01717497 0.042596083 0.04029314 -0.018808542 0.012801337 -0.02995574 0.033458967 -0.023370229 -0.027799675 0.00537098 0.0065932944 0.0024100612 -0.022143677 -0.032885417 0.0017439928 -0.021534123 -0.029829232 -0.018830206 0.031828642 0.030513003 0.03935431 -0.033310104 -0.014735626 0.038676325 0.0063998005 0.0101483995 0.005046717 -0.02221927
3 0.019054323 0.029298557 -0.043780997 0.017097479 0.003860537 0.015151072 0.051371187 0.00651917 -0.011275459 0.026892416 0.03312701 -0.040471505 0.026547572 0.013156267 -0.017627988 0.011761367 -0.04682914 -0.010086274 -0.040104978 0.03562434 -0.023294996 -0.04848402 -0.012127989 -0.00906665 -0.034770507 -0.054152157 -0.026765153 0.033282597 -0.01019898 0.03824454 -0.01800044 0.021862727 -0.03873656 0.021637777 -0.036937196 0.016324872 0.020136448 -0.025782267 -0.04373841 -0.018593322 -0.028583387 0.0076009026 -0.030679971 0.00027745654 0.025602417 -0.017284602 -0.034135036 0.049292635 0.010208515 0.012527157 0.020125898 -0.0054461816 0.019850163 -0.011657919 -0.038279448 0.030453986 -0.006090201 0.018931624 -0.03105621 0.02267564 -0.027969696 -0.045324862 -0.018019661 -0.0100356275 -0.021021133 -0.011229915 -0.008611936 -0.004351518 0.03622138 0.030870078 0.030176183 0.022916436 -0.003916381 -0.0059574745 0.010700188 -0.03261315 -0.031133417 -0.0359467 0.04574404 0.03489802 -0.03256973 0.018737048 -0.035212044 -0.016610319 0.012450321 0.01434491 -0.044555563 0.03510981 -0.00037541828 -0.00928642 -0.004309636 -0.05046506 -0.005972511 -0.041069135 -0.039570253 -0.009404122 -0.049084526 0.0009334251 -0.03652547 0.034481864 -0.009271416 0.016403437 -0.030487273 0.011456885 0.0012632383 0.018655451 -0.023499638 -0.023523454 0.041184757 0.029962542 0.03521316 0.0016517644 -0.0042412602 0.027494665 0.00483366 0.043062195 0.045806415 0.037342377 0.03340035 0.021279054 0.046376307 0.035460148 0.04389104 -0.03426122 -0.038410213 -0.0290007 0.0028856723 0.0013457871
financial -0.016753158 -0.037170067 -0.00409483 -0.029206024 0.007084286 0.01136347 0.0032532916 -0.025567308 -0.034315627 0.04378045 -0.035055675 -0.040498164 0.045854986 -0.0037649903 0.0016595268 -0.032345258 0.039653897 0.025663538 0.023857417 0.049813613 0.0465911 0.040812664 0.03145304 -0.050349865 0.019709945 -0.04365041 -0.046822496 0.046451453 0.013371447 0.030057322 0.022999074 -0.030623836 -0.007453772 -0.032668877 -0.04706548 0.0372925 -0.047153316 0.019244839 0.0130319325 0.04051224 -0.0366484 -0.02561823 0.033995047 0.0057644867 0.006873386 0.030914418 -0.0064971074 -0.014593136 -0.022562461 0.02012537 0.041916087 0.03922303 -0.049123216 -0.02953291 -0.04628352 -0.04683735 -0.008815259 0.0037830893 -0.001239724 0.011778907 0.0154812215 -0.021537473 0.04653326 -0.049459007 0.0038801578 -0.03508096 -0.00042729545 -0.021739777 -0.043090444 -0.03588461 -0.04582929 0.030453656 0.018203996 -0.00567153 -0.039493445 0.034920644 -0.0010049546 -0.03251843 0.007334381 0.039101817 0.043875884 -0.021803064 0.011596083 -0.051906575 -0.043808173 0.04007052 -0.017802691 -0.025226716 -0.036540776 0.036228217 -0.0007656481 -0.007738429 0.020914523 0.045020126 -0.04666256 0.00049780385 -0.010234688 0.05476512 -0.050345846 -0.03387656 0.019830976 0.030625729 0.012861594 0.008813187 0.028506877 0.0030675293 -0.04658157 0.007931176 -0.03142211 -0.04771473 -8.471543e-07 -0.05391475 -0.00031598937 -0.03796341 0.049079943 -0.037493646 0.047755647 0.033083644 0.043444097 -0.025440224 -0.023382936 -0.041990772 0.024957858 0.03634913 -0.0004996627 -0.034815002 -0.008901524 0.043475844
not -0.017416049 -0.03111119 0.002638641 -0.02876492 -0.047278155 0.021790067 -0.03784999 -0.05248459 -0.036682576 0.03671704 0.020238237 0.047779832 0.023232816 -0.0042422274 -0.02715333 -0.008942014 0.022669477 0.028936442 -0.04745245 0.018126465 0.0016692687 -0.047749247 -0.018971652 0.038255267 0.010245136 -0.017668387 -0.045046084 0.027897706 -0.0016034651 -0.020240052 -0.006376504 0.040019285 -0.00020541344 -0.03578634 -0.011205034 0.012023241 -0.02173912 -0.03210214 -0.015312874 0.0022592582 0.041887514 0.0068699387 0.035723045 0.02154465 -0.052698653 0.038907584 -0.028666647 -0.04991349 0.030113677 0.023710638 0.0054444517 0.017140023 -0.03173269 -0.014808854 0.028261112 0.02135647 0.0471615 0.009646518 -0.039565466 0.0439097 0.035782214 0.024182856 0.010425506 0.013898149 0.037885945 -0.053340502 -0.008595406 -0.049201213 -0.015106982 0.030474225 -0.00948749 -0.039557315 -0.008068426 -0.020341504 -0.03420353 -0.003901451 -0.006606579 0.008022653 0.020251824 -0.033743918 -0.003980236 0.0271522 -0.05232139 0.0028348393 0.0029322829 0.021711724 -0.048274104 0.029261164 -0.0400594 0.024232728 0.013271166 -0.026347129 0.0012105495 0.027391223 -0.052690007 0.007849756 -0.018277952 -0.005187839 0.018946776 -0.035368536 -0.026802259 0.041266356 0.004600961 -0.004217431 0.021595417 0.0069692777 0.01919204 -0.029852664 -0.007904008 -0.022187676 -0.021536583 -0.035561927 -0.026355805 -0.019283967 -0.03361946 -0.042550836 -0.0059498935 -0.003603455 0.052184217 0.015270944 -0.028704176 0.038849536 -0.0038112518 -0.05525386 0.015409506 0.018702935 0.017206375 0.0026386713
year -0.018665416 -0.017352069 -0.030341053 -0.016275052 -0.039810676 -0.05623044 -0.032088727 -0.01173332 0.03193445 -0.019927992 0.025459759 -0.045174934 0.05350001 -0.03646309 0.05416767 -0.034354158 0.028015029 0.0015082262 0.010418143 -0.020232085 -0.03606014 0.03115058 0.008816465 -0.0021106554 -0.020580508 -0.01706524 -0.03695733 0.012323754 0.0012738149 -0.028398745 -0.010742802 0.029478366 0.037754156 0.0262611 0.006015105 -0.023630127 -0.0053622397 0.041058555 -0.031686284 0.03263142 -0.001911531 -0.031528845 0.029105918 -0.01881431 0.03217855 -0.023241939 0.013326926 0.036432378 -0.014816989 -0.01838385 0.03563864 -0.043152 0.0033844542 -0.027699417 -0.03990823 -0.019373968 -0.04488351 -0.0106751295 0.016835764 0.0035881174 -0.0428249 0.0028313398 0.03417591 0.027875522 0.02101988 0.02567226 0.020553129 0.021538902 0.02966076 -0.0027458672 -0.0022389074 0.011095641 -0.019672092 -0.010264362 0.012991188 0.023880703 0.012454837 -0.02982456 -0.04894931 -0.0014046218 0.047570888 0.02967594 0.02408966 -0.017049225 0.024001352 0.01962938 -0.052620642 -0.016007572 -0.04585918 0.0331564 0.0029162006 0.030985793 -0.005274278 0.009662196 -0.015000776 0.019504158 0.044524666 -0.002722524 0.04500326 0.017668044 -0.0002956499 -0.0154476985 -0.015684437 0.026966633 -0.039956585 0.049543593 0.038845997 -0.01362023 -0.040136494 0.041054126 0.03198135 0.00010052341 0.037898984 0.025250329 -0.010423968 -0.014641544 0.05556183 0.039350376 0.020036405 -0.050697237 0.0046150424 -0.025210476 0.0041002794 -0.036906414 0.038992867 -0.0099649215 0.030681007 0.018430619
operating -0.015714435 0.031915974 0.036778066 0.02817341 0.022692423 0.008425869 -0.019149449 0.018986482 -0.04405021 0.035375044 -0.025035907 -0.026278919 -0.011492205 0.009594137 0.028253006 0.041922912 -0.019966627 -0.008752631 0.037592493 0.03198609 -0.0179233 -0.02098577 -0.027136404 -0.01768441 -0.013352059 0.031737816 -0.006335376 0.04143041 -0.017972596 0.048544563 0.046593495 0.024914889 0.0340572 -0.020259663 0.0015292861 0.039207596 0.016523102 0.00697304 -0.0304527 -0.021147978 -0.044444527 -0.031123012 -0.03625311 0.01973455 -0.022739109 -0.016373577 0.033231642 0.035845917 -0.0010067967 0.045724396 0.03952275 0.027655639 0.053077366 -0.05083792 -0.041980192 -0.039906897 0.042976618 0.025199488 0.039888572 0.031738997 0.0029294065 -0.04801364 -0.013917392 -0.0009624272 0.036802895 0.02856094 0.008028769 -0.029532705 0.019082371 -0.014373371 -0.049075633 0.027769325 -0.05045444 0.031151067 0.0037566111 0.05200005 0.047025975 -0.03927612 0.03923683 0.039748725 0.034567587 0.021448907 0.024178108 0.0034166523 -0.034675363 0.0021900057 0.023545943 0.0037036603 -0.0282488 0.037419643 -0.024899786 0.031520624 0.02493503 -0.012041623 -0.050647687 -0.03991505 0.025396386 0.0070392527 -0.03665221 -0.00084303657 -0.029604241 -0.02791458 0.023967497 0.034009766 0.018650731 -0.027348982 -0.01216584 -0.007565154 -0.022162275 -0.026854064 -0.040554784 0.007061165 -0.048975356 0.0033936824 -0.016255183 -0.0012613486 0.01425392 0.026619976 0.030663706 -0.030277425 -0.02219168 0.019572897 -0.017664472 -0.014605645 0.036961913 0.046354562 -0.04342332 -0.032689147
ms -0.013119464 -0.037245072 -0.032059044 -0.034999486 0.04081739 -0.040341448 0.010155491 -0.008247056 -0.052913968 -0.023757633 0.020005554 0.044592544 -0.0039502094 0.0066140075 0.019681493 0.008442333 -0.04140758 -0.028261323 -0.008537772 -0.036911786 -0.005162658 -0.029146126 0.018044742 -0.013456245 0.023347165 0.02383232 -0.019996164 0.05624819 0.017182183 0.013895929 0.0121708615 0.031427905 -0.0037405265 0.023511805 -0.015282384 -0.03906342 0.0057108584 -0.0095566865 -0.050684124 0.005860374 0.03390492 0.011888628 0.023467794 -0.014314452 -0.03374284 0.045586817 -0.002756454 0.034809425 -0.03847626 -0.026085045 -0.00967893 -0.007595029 0.038080063 0.0029514174 -0.031005146 -0.0182113 0.03689979 -0.013857246 -0.03937893 -0.020372942 -0.0030847467 -0.018819185 0.028692352 0.023978239 -0.053152565 0.030034168 -0.0055430313 -0.047871225 0.045061782 -0.01247469 -0.036115453 -0.013109423 -0.0060817674 0.03232488 0.002217944 0.009816409 0.04315397 -0.0071084467 -0.02006703 -0.040388808 -0.043201003 -0.050276708 0.034361582 -0.0063618245 0.0029725102 -0.036627047 0.015160024 0.011733738 0.043918118 -0.023037145 0.021447489 0.009243148 -0.03297849 0.045749255 0.020112196 0.022703137 0.015955059 -0.017762067 0.020961404 -0.015492747 -0.02382671 -0.048687506 -0.042117693 0.012383063 0.04401171 -0.008196147 0.0011003765 0.03176938 0.01875522 -0.008684175 0.043708377 0.011815841 0.028610094 -0.044486277 0.04357181 0.03823277 -0.041281763 0.028993629 -0.01989834 -0.032626867 -0.048497934 0.02497046 0.036906675 -0.0016921397 0.028559364 0.040435567 0.017987214 0.018604644
sales 0.013179528 -0.023885528 0.025902608 0.029161304 0.02059117 0.027516961 -0.029735494 0.042898413 -0.024910703 -0.036338642 -0.011235744 0.021105824 -0.0045954883 -0.000495757 -0.032026865 0.0025633336 -0.017952226 -0.008920937 -0.03771665 0.046942417 0.022655508 -0.016708374 0.0015842882 -0.032476388 0.008171785 -0.0020747967 -0.019529566 0.04547598 -0.016768064 0.0022310468 -0.051736254 0.04439161 -0.0007034994 -0.051802326 0.030251073 -0.049149353 -0.009654915 -0.014500841 -0.033689074 -0.026643625 0.026213543 -0.0096771745 -0.0107501345 0.038011845 -0.04946967 0.033944055 0.034508355 -0.044461586 -0.04685951 0.010807514 0.0039373077 0.008181396 -0.008216303 0.05095061 0.024920385 -0.029037643 -0.03528921 0.03112559 -0.04979011 0.032309934 0.03725842 0.0075599817 -0.037069187 -0.014365141 -0.02971046 -0.046521164 -0.012476238 0.007841308 -0.006517736 0.007693922 -0.036263075 -0.0066795847 0.029635478 0.01502715 0.03818725 -0.035183646 0.04511445 -0.021007061 0.008219565 0.010565014 0.0068660374 -0.008612027 -0.043231394 0.022734877 0.021259524 -0.049935617 -0.016841587 0.033289753 0.043096814 -0.024431672 -0.009301932 0.00609897 0.021506464 0.008184974 0.010939148 0.026434185 -0.03185436 -0.032216914 0.0393533 0.013345667 0.032214712 -0.029259535 -0.041293293 0.05338131 0.013340578 0.0029036568 -0.03949298 -0.016504267 -0.019904114 -0.046212826 -0.038259488 -0.043848477 -0.017483562 -0.02139983 0.033572108 -0.025504986 0.02858191 -0.01788498 0.0067386744 -0.021264676 0.0425217 0.0069011697 0.0036516176 -0.006938582 -0.0071962643 -0.00867972 0.047559645 0.02943227
exchange -0.021109477 -0.04969126 -0.005472996 -0.029009324 -0.04336475 0.00906607 0.009666059 -0.033431392 0.025241368 -0.019085672 0.00056898326 0.04098974 0.02428347 -0.04711614 -0.03582142 0.04916904 -0.024906978 0.053398386 -0.04558175 0.028748479 0.009920177 -0.04931122 -0.03234619 -0.03747793 -0.008466444 -0.04823928 -0.03121033 0.032750838 -0.04025799 -0.008838049 -0.0076817195 0.02351898 0.0008442463 -0.024951955 0.03201888 -0.048080806 -0.049548954 0.002513981 0.0011700517 -0.017071614 0.030036315 0.03572887 0.04131188 -0.013520751 -0.017402742 -0.021070104 0.045366995 -0.0051130895 0.051708587 0.0043849302 0.02889925 -0.015090218 0.032331396 0.031179862 0.029584829 0.00949093 -0.019858805 0.030868974 0.001807742 -0.035808265 -0.016228661 -0.028988894 -0.014759369 0.014598996 0.03453354 0.024315132 -0.035228983 -0.025698442 0.050965507 0.034609016 0.011958413 0.000587253 -0.014674567 -0.02308693 -0.03917768 -0.0034291558 0.015348508 -0.007491561 -0.0132002635 -0.03047882 0.04541523 0.050817296 -0.002659225 -0.010475334 -0.047878608 -0.043988988 0.000903931 -0.025636354 0.023475487 -0.008600087 -0.032749467 0.021873588 -0.047270402 0.055224642 -0.018188844 -0.013356744 0.047424626 0.013328855 -0.020578392 -0.029186865 0.003983396 0.031269137 0.0449593 -0.015307517 -0.051062815 0.05530154 -0.031560376 -0.023808166 -0.048626576 -0.014959091 0.002023438 -0.04022085 0.0025154725 0.021045312 -0.0050680265 0.02339475 -0.03713805 -0.006921148 0.046257306 -0.02898467 0.01564605 -0.021164363 0.014219297 0.030089961 0.01650256 0.037893735 0.049074024 -0.019090481
its 0.02371695 -0.013059534 0.04600987 0.016222667 -0.017506704 -0.054316163 0.03717689 -0.0008289251 0.010583168 0.0032522334 -0.014373847 0.016817356 0.0087717865 -0.0029435307 0.0095072575 0.016549988 0.041466136 0.00436251 -0.020094266 -0.014567196 -0.029538414 0.032951858 0.0012617642 -0.013661849 -0.04940316 0.017267417 -0.0050862255 0.02672355 0.0039729797 0.029934917 0.012935891 -0.022437451 0.028270055 0.020870999 -0.044141002 -0.043288555 -0.01603376 -0.030498797 0.03615661 0.015708877 0.039561577 -0.052879367 0.027174467 0.034907207 -0.053954057 0.053052407 0.023094874 0.046151903 0.033434916 -0.047387283 -0.031107618 0.005300669 0.010058229 0.0077911927 -0.02717521 -0.05131008 0.012138758 -0.046272177 -0.046848964 0.021833193 -0.051844765 0.032601543 -0.009429069 -0.034266245 0.0064776023 0.02677788 0.025211254 0.0047783367 0.006127492 0.043679986 0.040763274 -0.0060441853 -0.04742525 -0.0077982256 -0.005873938 -0.00036883485 0.033959884 -0.02543587 -0.03283586 -0.00088632613 -0.046064902 -0.0149687175 0.00084126386 0.021638537 0.013636077 0.024306852 -0.03457957 -0.04855346 0.039769836 0.016762307 -0.02457092 -0.03954629 0.0053178538 -0.047708064 -0.044042353 -0.00826884 0.012584543 -0.042067003 0.011664105 -0.025714591 0.051577568 0.041264452 -0.005857418 0.020289587 -0.034218367 0.020435352 -0.004707396 -0.03997912 0.035740696 0.041735187 0.026769089 -0.01932963 0.05007107 -0.0018870495 0.055173628 -0.04872623 0.004126504 0.042704884 0.002640051 -0.043703455 -0.025241664 0.026280124 0.024100129 0.0053680264 -0.0011206947 0.012836904 0.017435104 0.022842787
stock 0.050486792 -0.004930317 -0.0017785366 -0.0056637744 0.039451547 0.03501463 0.0038280746 0.030844232 0.013156747 -0.022116948 -0.036455017 -0.027139492 0.032632902 0.015113205 0.03783145 -0.040594306 -0.034882504 0.031995803 0.041720722 -0.02799667 0.015298623 0.025985185 -0.038806926 -0.04379614 0.030757485 -0.015778514 -0.0075151357 0.029396797 0.039417975 0.03200163 -0.024018021 0.0069480953 0.0009364024 -0.005691206 -0.010190862 -0.013878977 -0.010299905 -0.04702667 -0.015386691 0.040831722 0.037667926 0.022348676 0.039563604 -0.024655651 0.0030386508 -0.032523666 -0.017076513 -0.027355265 -0.039928444 -0.052182205 0.028913762 -0.03804933 -0.011364601 0.052377135 0.0019513681 0.01816904 0.039245386 0.012767343 -0.00448278 -0.043543205 -0.017581422 0.025169736 0.00034548662 -0.011408404 -0.04959159 -0.03608007 0.027454723 0.011757205 0.04895129 0.00080959173 -0.017595232 0.027121808 -0.023867097 -0.009610217 0.05002552 -0.05078045 0.013672285 0.014294872 0.0462629 0.01644115 -0.029105546 0.017597308 -0.022749325 0.0045316946 -0.019064987 -0.0441143 -0.01599518 -0.036505897 0.03261704 -0.0296775 0.0066724382 0.036848333 0.039733488 0.041442312 -0.03918819 -0.00016882538 0.0069171 -0.007624093 -0.051189017 0.0158983 -0.016918425 -0.0035352865 -0.019740772 -0.030279532 -0.017668229 0.025481652 0.027032329 0.022919802 -0.051347792 -0.008879423 0.043290913 -0.0029508583 -0.042158447 -0.009101168 -0.035008937 -0.038336165 -0.0024418598 0.023116704 -0.0023610634 0.040255226 -0.019079745 -0.0076259403 -0.034227617 -0.047643706 -0.043384604 0.03449191 -0.03610916 0.0043540234
income 0.015335495 0.0332488 -0.025523212 0.022915075 0.0130041195 -0.021326207 0.044092275 -0.011977573 0.020988978 0.02936715 -0.02656351 0.04019292 0.039177638 0.018387163 -0.01069267 0.041876145 -0.018344298 0.001990983 0.0067145335 0.011136017 0.034391817 -0.045216847 -0.05176273 -0.030024158 0.004042632 0.0069823302 0.014782427 0.04807798 0.04408521 -0.0097873015 0.04225272 -0.04172455 -0.029913347 0.013369729 -0.050280157 0.0089803245 -0.011780909 -0.017962076 0.0457984 -0.03084505 -0.021031857 0.038837623 -0.0017534037 0.012618809 0.014691481 -0.0034708718 0.030940264 -0.018625993 0.024256853 0.010962502 0.009178126 0.02167029 -0.023224544 -0.026560469 0.0021983332 0.043151807 -0.01975332 -0.005641425 0.03403346 0.015307665 -0.030786594 0.03506613 0.032591425 0.0005483193 0.042905785 0.041330673 -0.04085752 -0.052447848 -0.01219375 -0.03546303 0.009574478 0.02018453 0.020667115 -0.007324244 0.013060449 -0.021563396 0.039373897 0.024261419 0.025918527 -0.04510855 0.03113129 -0.034127552 -0.054410268 0.0013213612 0.00502509 -0.00261758 0.04571656 0.050690867 0.02087619 0.02706346 0.0301037 0.043392893 -0.0188848 -0.035331797 0.009828601 0.022126023 -0.016353188 0.03283217 0.010289397 0.015020649 0.004444609 0.03132766 -0.03046304 -0.040092476 -0.025909217 0.01787474 -0.028223284 -0.047094703 0.026551638 -0.017009156 0.02466344 -0.031607438 -0.028549427 -0.04203469 0.020924304 0.023197126 -0.018127665 -0.03146187 -0.0416724 -0.04094081 0.0098702395 0.038954087 0.040413253 0.03355327 0.008332682 -0.024230981 -0.028957047 -0.0008224996
windows -0.008124171 -0.031227712 0.0022391127 0.00040022936 -0.02661038 -0.019987201 -0.021543404 -0.04369097 -0.01664084 -0.0006166742 0.01774658 0.0084972745 -0.03343288 0.025403187 0.02582989 0.045162562 0.036718473 -0.0059193606 0.030012762 -0.008787501 -0.03531092 0.019948576 -0.0473546 0.020949379 -0.035492215 -0.054846562 -0.040626507 -0.03185864 -0.0065457225 0.008246114 -0.04088275 -0.03447375 -0.034682214 0.014682786 0.013212352 -0.0067825275 -0.0034350967 0.020608075 0.04259812 -0.048525214 0.009152164 0.022202756 0.022612639 -0.023990182 0.0072874255 0.03061416 -0.03400461 -0.03505019 0.04923664 0.027549664 -0.024172055 0.0065874304 -0.012833541 -0.011898519 -0.0018680916 0.04833115 0.0026127626 -0.041558117 -0.013471035 0.021634195 -0.0064238016 0.03498952 0.042620726 -0.04016129 -0.045437817 0.032689083 0.0031672248 -0.051639732 -0.020274589 0.026425214 0.0053753154 0.0021236627 0.021408021 -0.051998958 0.0034323942 -0.0007048517 -0.018748451 -0.0040898393 -0.043218352 0.03386755 -0.0073805167 0.048227493 0.015968338 -0.019958742 0.02866049 -0.042497233 -0.020694649 -0.047104646 0.016648555 -0.033073835 -0.04634002 0.000560497 -0.008825701 0.03847854 -0.006170377 0.021322742 0.026256112 0.035925735 0.0030724944 0.027108228 -0.043406505 0.035214815 -0.013559117 0.021487223 -0.02221766 -0.037948404 -0.03418625 -0.00441788 0.020039162 0.040839903 -0.043315478 0.021360422 0.043198235 0.011867926 0.03730494 0.015060823 0.029833617 -0.006058175 -0.03785541 0.010137639 -0.033580974 -0.032804184 -0.00016159352 0.013787004 0.012764335 -0.02740452 0.0023811394 0.0506329
4 -0.034913566 -0.02313663 0.05041745 -0.019805169 0.0033215438 0.04863607 0.002592564 0.027219933 0.0058823843 0.012125242 -0.0004359212 -0.005656698 -0.032850467 0.021318741 0.04414256 0.04709432 -0.026912712 0.02761189 0.03099474 0.03746995 -0.034121394 -0.0022429198 0.032154873 -0.0011340877 0.03176608 0.043579362 -0.010483286 0.038110815 -0.034803152 0.020909188 0.01746023 0.02490513 -0.04828036 -0.02484721 -0.019613594 0.02777584 0.010059926 -0.028844403 -0.023139995 -0.021614343 -0.028066615 0.030945007 0.053902116 -0.037546348 -0.045299158 -0.00879335 -0.020648738 0.040032763 -0.008234846 0.033905495 -0.014345217 0.03967704 -0.013711198 0.0061139325 0.03603929 -0.004223093 0.005314068 0.018038997 -0.009383291 -0.050572414 -0.016570814 -0.025765305 0.015754635 -0.001824562 0.015486515 -0.023696773 -0.024703698 -0.04441431 -0.014237511 0.039866168 0.021864092 -0.03725939 -0.0009641416 -0.017361248 -0.01021148 0.020346172 0.020085674 -0.0398498 0.03173724 -0.011907422 -0.045134448 0.029142903 0.042244762 -0.004156731 -0.03999688 0.0075942585 0.03380886 0.017357148 -0.0069003347 -0.002280524 -0.0071354304 -0.0017184161 -0.010159954 -0.029615918 -0.04348101 -0.020473223 0.0068057883 0.045705546 0.012244054 0.03246476 -0.020944769 0.030278148 0.017644629 -0.0136861615 0.042480435 0.04303818 0.049366202 0.02456601 -0.022273783 0.03695051 -0.051099602 0.0009959212 0.04832181 0.017168168 -0.010174817 0.008647942 0.010823322 -0.031202158 0.04221962 0.04245502 -0.04433505 0.032699425 -0.013200152 0.018349268 -0.03133035 -0.04129871 -0.006236018 0.018203711
u -0.021381715 0.031255364 0.03606405 0.04916077 -0.04353977 0.01565162 -0.030741908 -0.048966594 0.012136705 -0.018534087 -0.008994778 0.0013859008 -0.005134209 0.038574737 0.047290258 0.018250257 -0.036031824 -0.006996038 -0.00085008563 -0.008079036 0.038894337 0.030361094 -0.039867308 0.0073500196 0.04080081 -0.0014359708 0.009494468 -0.00733853 0.022126812 0.050012928 0.007888199 0.026157478 -0.021003753 0.015733128 -0.030076422 -0.026553389 0.03285086 0.01420402 -0.020818112 -0.029365277 -0.028291205 0.014563782 0.021894248 -0.045999914 -0.041452527 0.050925482 0.009595537 -0.0073463055 0.040829774 0.0019355448 0.011894485 -0.027093971 -0.011989359 0.028813971 0.012296604 0.019298451 0.047830638 -0.026898636 -0.041764207 0.04478693 -0.049313195 0.030939125 -0.03845486 0.025906965 0.023562739 -0.03951123 0.017377362 -0.010755205 0.042755354 -0.004852449 -0.038573876 0.00045837765 0.014205551 0.044684406 -0.010492421 0.039767515 -0.029651102 -0.00096620346 -0.0028777788 0.019725643 0.048049882 0.005892056 0.036867395 -0.0022286822 0.012389751 -0.016422873 -0.007100635 0.0013994218 0.03512285 -0.030077523 -0.015601027 -0.015347806 -0.025922246 0.041668918 0.022325 -0.007984905 -0.031162452 0.016647913 0.006949473 0.027938286 -0.016955819 0.020404156 0.049086474 0.04100962 -0.040415864 0.02705656 0.010058168 0.002431502 -0.044386383 0.038032804 0.022478344 -0.027702278 0.026604736 0.044842795 0.0519748 -0.04247539 -0.03574083 -0.035394695 0.0038979743 -0.036747396 0.05061149 -0.028964868 -0.024623472 -0.01807534 -0.04051732 -0.008579353 0.04791425 -0.031720165
oem 0.014675966 -0.04423563 0.020214656 -0.007514586 0.0034077158 -0.017414866 -0.010481927 -0.019363584 0.016751906 -0.0011674955 -0.03291801 0.004379821 0.020349918 -0.055171896 -0.0021357257 0.017995013 -0.019872928 -0.020885758 -0.022253355 0.0077275084 -0.012574084 0.03589318 -0.04578219 0.007490622 0.043454845 -0.034607988 -0.029998798 -0.00066995074 -0.035575993 -0.00066821714 -0.025725784 -0.015275501 -0.014024235 -0.028965112 0.0013105294 -0.024291521 0.027905162 0.0004892052 0.03197963 -0.025264138 0.008558428 -0.015627863 -0.008616498 -0.016886488 -0.020365493 0.03909315 -0.012483854 0.03978957 0.030336816 0.025973942 -0.017668052 0.030347819 -0.011296707 -0.009839918 0.020789318 0.005456166 0.04685078 0.03864756 0.033904213 -0.009100585 0.028203584 0.013737989 0.006102181 -0.027360486 0.007834912 0.041726444 -0.0471807 -0.029232955 0.013405208 -0.0011322205 -0.016217794 0.019859435 0.046024114 -0.012136592 -0.0073699737 -0.030462071 0.039926946 -0.037304588 -0.025783801 -0.0025495412 0.013371771 0.015996434 -0.02599288 -0.002796656 0.015544324 -0.038682986 -0.018299684 -0.047192484 0.023171445 0.033207327 -0.006238447 -0.03455207 0.026200209 0.054460548 0.004140495 -0.043219417 0.025255932 -0.040082492 -0.03584143 -0.03591284 0.0018804038 -0.036305595 0.028077725 0.021139404 -0.004790028 -0.03232888 -0.03918142 -0.041594215 0.0425862 -0.02561596 0.014638096 0.0220387 -0.024344059 0.0006643445 -0.0036697725 -0.020620756 0.040357053 -0.0042825337 0.044336762 0.030874493 0.011650124 0.04457381 -0.019386107 -0.0490907 -0.024982493 -0.049230594 0.011228323 0.017622465
channel -0.034694344 -0.0094771255 0.022659339 -0.0005701039 0.016528044 0.022294076 0.042823866 -0.014496852 0.03098111 0.029492203 0.006024537 0.02278556 0.03912332 -0.017744295 0.025167063 0.0040151062 0.033724222 0.022491738 -0.033344746 0.040387064 -0.0015791995 -0.008061936 0.04760609 0.015184538 0.028042026 0.03676364 0.042099487 0.034817956 0.04632419 -0.008865227 0.050105672 0.035174046 -0.019708553 0.038220014 0.0035147353 -0.038393226 -0.025559941 0.0020467215 -0.016413853 0.04500777 0.005810341 0.008375943 0.0031771527 -0.032609414 -0.027441414 0.016491732 0.0060019586 -0.040643234 -0.041645676 0.009467387 -0.044969704 -0.017144445 -0.030073367 -0.015044822 0.024238348 0.0060137287 0.04199266 0.042202752 -0.0058519486 -0.017715106 0.025943054 0.028213868 -0.034335583 0.005218465 0.044458505 -0.046567768 -0.008116862 0.042486925 0.04093322 0.04251877 0.028839886 -0.033326834 0.044390757 0.018570695 -0.020288195 0.027310422 -0.049240623 0.0028215216 -0.003966272 0.033792805 0.023615459 -0.025953706 0.031031428 -0.041891053 0.050374847 -0.008086225 -0.023902958 -0.01706092 0.044050094 -0.021595035 -0.04708467 -0.014571864 -0.04899978 0.0241846 -0.0006849252 -0.031791553 0.014712051 -0.017219435 -0.019216055 0.026102066 -0.033360608 -0.028821561 0.033497795 -0.00284833 -0.05107998 0.025360305 0.030148724 0.050205916 0.016715275 0.028050315 0.03649866 0.023038957 -0.023798518 -0.003901014 0.010831896 0.023025861 0.035858437 0.018118566 0.04773934 -0.033636246 0.030745957 -0.017447263 0.0312761 -0.019429527 0.033031877 -0.04842252 0.01715891 -0.03553134
quarters 0.02082212 0.025829613 -0.022952827 -0.036952347 0.036202904 -0.034230534 -0.026526414 -0.051028445 -0.054057993 0.028122898 -0.028660484 -0.034919366 -0.047712073 0.020468831 0.014980681 0.015760122 0.011479331 0.012256753 -0.013601158 -0.006753851 0.025767785 0.03625407 -0.008532121 -0.01799742 -0.013242338 -0.05255373 0.031503357 0.001066122 0.047882453 -0.0054251365 0.013834961 0.024459787 0.045228854 0.014667773 -0.02721379 0.008996766 0.036104932 0.0417546 0.0374517 0.022209924 0.0423702 0.029065948 0.013680773 0.0125507815 -0.0015501798 -0.0045768735 -0.014484632 -0.0038250235 0.005479714 0.035433065 -0.045826502 0.035941567 0.036838084 -0.030123157 -0.03687634 -0.04723036 -0.020318545 0.039474785 -0.03925687 -0.00641083 -0.040666454 -0.0098446235 -0.020920843 0.022851141 0.022295436 -0.012660601 0.010089683 -0.01659594 0.029399374 0.03335242 -0.051137734 0.03309134 0.036510605 0.014393128 -0.010346029 0.036223758 0.041940797 0.03204212 0.010275219 0.042926792 0.002974806 -0.008134103 -0.047394563 0.025491966 -0.04437453 -0.007178583 0.0032515908 0.006151615 0.050814133 -0.04674965 -0.031843487 0.043476105 0.041055176 -0.015433879 -0.043492455 0.023306504 0.0057864604 0.042556558 -0.034659337 0.032740448 0.037042726 -0.052808166 -0.009299778 0.046518076 -0.04848854 -0.007047088 -0.024578448 -0.048988417 0.01746865 0.04528839 0.037349872 0.0046033296 -0.012137407 -0.038864102 -0.034761768 -0.026508415 -0.021368612 -0.025661286 0.005011358 0.037183695 -0.0353544 0.040200002 -0.029490765 -0.03180065 0.012310321 -0.0028285617 -0.031531982 0.0340855
commission -0.008753678 0.01453985 0.022184905 0.047104098 -0.04794462 -0.025847612 0.045057893 -0.007948499 -0.038143095 -0.018851023 0.0026559702 -0.03995629 0.021517154 -0.009625575 -0.02013624 0.04448441 0.015774941 -0.028644882 0.049539346 -0.036037292 0.022385335 0.03927496 -0.013537539 -0.016806317 -0.018697515 -0.050189417 0.035491157 -0.0172343 0.03556932 -0.00909826 0.00039156858 0.011331831 -0.037216496 -0.04799035 -0.053090528 0.021669231 -0.03778407 0.031844683 -0.033120383 0.011877931 -0.028687712 0.008671838 -0.0014634214 -0.04753292 -0.012563418 0.026659755 0.030528758 0.03442762 -0.029088097 0.016006894 -0.019133294 -0.028242983 0.046246536 -0.048382156 0.02823892 0.003969339 -0.0013997204 -0.048030682 -0.029700607 -0.024841497 -0.016967386 -0.033617243 -0.0071614687 -0.037375834 -0.04119054 -0.03127612 0.03127783 0.020731574 0.035786882 0.0014757833 0.016018135 -0.021099985 0.047335614 -0.009474633 -0.044007715 0.014322331 0.048431277 0.017132964 -0.04455666 0.034389604 0.0024029783 -0.011102728 0.0042490955 -0.03690954 0.022141397 -0.029102478 0.012855109 0.016850151 0.02348392 -0.035868928 -0.017611552 -0.038936134 -0.030064907 0.0424989 -0.044172287 -0.036908124 -0.018134637 0.047727674 -0.03537161 -0.0089219585 0.014569168 0.010784578 0.017661558 0.010175327 -0.009946778 0.031076217 0.0031967948 0.026160108 -0.013169584 -0.03068002 -0.045897774 -0.0030531497 0.0013798599 -0.004264138 0.05273494 0.04208573 -0.0003672255 0.00813187 -0.035248775 0.026755244 0.041397106 -0.020863615 0.03852948 0.0049225646 0.047225386 -0.052535925 0.04349739 0.028393071
all 0.018354692 -0.047636203 -0.032924205 0.045182735 -0.023570934 -0.0431289 -0.029721787 -0.0024247111 0.014273995 0.052800775 -0.019046921 0.027465835 -0.01571855 -0.007917313 -0.004379753 -0.015238284 0.0146775 0.023352163 0.023351034 -0.045162916 -0.046311725 0.006157744 -0.0313869 0.012850571 0.0010062293 -0.044471655 0.0036726806 -0.031012012 0.047173504 0.01911505 -0.008903398 -0.04297657 0.021949824 0.03346641 0.039193936 0.041580062 0.035214663 -0.020583702 0.04508039 -0.048539516 0.030953206 0.0058380654 0.011329916 -0.021503229 -0.053371884 -0.010065102 0.0340221 -0.024460403 0.001062986 0.017600505 -0.0107106045 -0.041112006 0.04799832 0.015425802 0.008778582 -0.050349128 0.047967173 0.007978181 -0.02581953 -0.024634227 0.017394492 0.025659092 -0.0022418622 0.014002379 0.003586273 -0.013342026 0.037833385 -0.0032833223 -0.026450815 0.00031284915 0.009090432 0.017275836 0.013352394 -0.021880116 -0.016373409 0.025413867 0.023109835 0.012595062 -0.00091645186 0.022397598 -0.042812917 0.02249189 0.021810055 0.036732953 -0.003707078 0.02955668 0.012593173 0.03503634 0.025478616 -0.0065685064 -0.035748042 -0.011887247 -0.026515104 0.042780973 0.0027839784 0.031816017 -0.019162217 0.02705673 -0.029796625 -0.051062394 -0.043916628 -0.03512205 -0.025159867 -0.04344147 0.043386266 -0.02835684 -0.01578754 -0.023807557 0.04431805 0.0144836 -0.0071979635 0.008978094 -0.007938977 0.018433314 -0.04223469 -0.045925286 0.04154966 -0.03919638 -0.029882405 -0.02912906 -0.009981594 -0.023257738 0.008444955 -0.004004432 -0.0064620567 -0.0140772285 -0.040525477 0.020223588
be 0.017641114 -0.03409553 0.040313542 0.025733426 0.0003170488 -0.03698704 0.03194421 0.0034708101 0.021944808 -0.03044667 0.05322725 -0.04670794 0.012263585 0.010409281 0.029285626 -0.0075981426 0.031147722 -0.008457127 -0.007343699 0.047443945 0.043876808 0.011412917 0.0046664663 -0.00832641 0.033671923 0.04330934 -0.04087397 -0.013990945 -0.01661103 0.033578 0.0046577477 0.009764645 -0.013141532 0.017398186 0.01985621 0.009483842 -0.014958679 0.019709945 -0.03458737 -0.015326748 0.042849474 -0.02080008 0.009782492 0.02767352 -0.025383187 0.045653656 0.040668335 -0.0111480495 -0.04324462 0.036722448 -0.04320028 -0.012946046 0.020666149 0.008489428 0.01133253 -0.01765087 0.0035400172 -0.040897954 0.008434916 -0.018396413 0.045293495 0.031478036 -0.023787163 -0.049731556 0.03834429 0.004200399 0.016988425 0.031852547 -0.019716999 0.009749837 0.004314309 -0.04374705 -0.021411007 0.017829483 -0.0051915236 -0.018975541 -0.029314542 -0.027780088 -0.030632555 -0.03985313 -0.021737158 -0.037070364 0.019540193 -0.043798987 -0.048262227 -0.025910009 0.046224497 -0.03163772 0.05385806 0.011483402 0.036563236 -0.026949804 -0.04763375 -0.037500303 -0.03457447 -0.013551343 -0.0055109863 0.0052930242 -0.0349859 -0.017715035 0.03339378 0.029027028 -0.05198262 0.035458975 -0.0019460462 0.01341872 0.045035087 -0.01884984 -0.012759723 0.030610435 0.010374224 -0.04648159 -0.03799588 -0.031640656 -0.020499239 0.0205757 0.04186482 -0.033687633 0.008735023 -0.011557553 -0.030470893 -0.01092717 0.05381551 -0.015443131 -0.0056289257 -0.016233638 0.0362866 -0.0146086
cash -0.024326492 0.005161756 -0.008215952 -0.015294453 0.02340148 -0.039534137 0.052499995 0.036945798 0.032637157 0.052144244 -0.011886071 0.053435974 -0.024143623 0.028824495 0.0016334136 0.038948074 -0.014867581 0.04916439 -0.005138296 0.040964987 0.044432223 -0.032258857 -0.037314277 0.018816207 -0.011559585 0.04374361 -0.026313046 -0.04778995 0.055355463 0.008890878 -0.0035816447 -0.021234453 -0.010399586 -0.027965873 -0.016374609 -0.004368357 -0.015361703 -0.013568847 0.0025500418 0.008273834 -0.051009562 -0.045090605 -0.014184479 -0.03391847 0.028956585 0.029363744 0.014629035 0.04764387 0.00836635 -0.044395145 -0.034639545 -0.0021553289 -0.005652605 -0.037867546 0.0320186 -0.01742339 -0.0070911534 0.01501095 0.03388854 0.043907803 0.017911704 0.00038602424 -0.00032370866 0.007764047 0.0014615044 0.031192169 -0.00535504 0.0030794698 -0.04044123 -0.007926719 -0.022380251 -0.024793396 -0.010148958 -0.052494064 -0.015140962 0.008845925 -0.031879116 0.003618451 0.014732024 0.04062705 -0.044250432 -0.035270195 -0.025063114 0.0022798474 0.033164293 -0.024958886 -0.02014974 0.019976856 0.021974653 0.017900756 0.04334966 0.010459505 -0.026434552 0.009094596 0.014540421 -0.0376267 0.03464071 0.05081917 -0.039990857 -0.028471665 0.043266553 -0.018279335 0.0044682883 0.010370841 0.012956543 0.036679223 0.038367383 0.0013406617 0.0104401605 0.00881022 0.039977368 -0.038573936 -0.014448377 0.03396964 0.009243359 -0.019310579 0.028723702 -0.011525723 -0.008414686 0.0032474648 0.029790135 -0.003587495 0.033796843 -0.030414758 -0.036439046 -0.05184333 0.0039321426 0.029034901
with -0.039624233 0.0031953058 0.039031297 0.013816015 -0.008098174 0.008704452 0.048537042 -0.022626778 -0.021879435 -0.030356431 0.04151137 -0.012470469 -0.033520624 -0.009111826 0.038502336 -0.0041618603 -0.044667587 0.032174744 -0.0048750974 0.015016346 -0.037296936 -0.0052081337 0.014755497 -0.039155137 0.016126405 -0.034258034 -0.04322549 0.031793877 0.023884995 0.041227303 0.03389577 0.04517769 0.040433474 0.0061270986 0.009611987 0.0015897489 0.016747262 -0.036895864 -0.049201775 0.04602592 0.009640771 0.02782424 0.0071631866 -0.027717264 -0.04428343 -0.027361898 0.0035891163 -0.01763392 -0.013448378 -0.0023285775 -0.014931907 0.015426839 -0.044530462 0.0065890616 -0.04573999 -0.0116441995 0.03805298 -0.022364717 -0.023645135 0.018322775 -0.04891669 -0.040929012 0.021987114 -0.032068357 0.020439684 -0.037359703 -0.018412577 -0.04299615 0.03025515 0.022357052 0.01339707 0.04514692 0.03212535 -0.010984528 0.028715912 -0.0033157694 0.04074602 -0.016388953 -0.0055154897 -0.043788705 0.036814235 -0.039203864 0.024289427 0.046124186 -0.04150491 -0.031411067 0.036525007 0.048541576 0.048223965 0.030847427 0.025337694 -0.05230515 0.0194624 0.049768057 0.020201832 -0.006912039 0.03675616 0.011784182 -0.041988958 0.037425548 -0.022759076 0.024207179 -0.04800846 0.026834087 -0.00189953 0.0256462 0.03303477 0.008579578 0.033301 0.020563565 -0.012747011 -0.0059294286 0.02009061 0.0466191 -0.02372837 -0.010553466 0.039170846 0.014045805 0.04758938 0.04486516 -0.03499303 0.03351878 -0.013288508 0.0033972524 0.019749379 -0.036436357 0.009120805 -0.024407089
apple -0.017484227 -0.032068323 0.0015064946 0.05135252 0.031448223 -0.047055744 0.04016011 0.012852454 -0.013109185 -0.0030958438 -0.02631045 0.022331947 -0.040672336 -0.050420746 -0.0037173294 -0.014305689 -0.0060265805 0.015208487 -0.015585162 -0.028282428 -0.0058832522 -0.014979383 0.04360012 0.011128509 0.024452817 -0.0013194255 -0.019651942 0.042518415 0.017104108 -0.0401271 0.0036209733 -0.0019804947 -0.02900779 0.043905657 0.033664066 -0.009517743 -0.046786997 -0.037645586 -0.009272861 -0.041616917 0.01059427 -0.027326241 -0.040642906 0.04802342 0.016692124 0.00210783 -0.03245823 0.047673725 0.040178545 -0.035369217 0.040180888 -0.0031004255 -0.05341485 0.016979922 -0.026189378 0.021896716 -0.044118155 0.01501333 -0.039584532 -0.049586233 0.022251707 -0.020604584 -0.045678586 -0.03274872 -0.016984891 0.026089137 0.011087375 -0.03363691 0.028757712 0.010684253 0.0017316061 -0.011049133 0.034715448 -0.037470404 -0.013809857 0.0068897246 0.012231874 0.01398572 0.05483551 0.026870558 -0.044268128 -0.014529182 0.025544886 -0.028188305 0.049062647 -0.029291753 -0.03544762 -0.025820991 0.02654533 -0.052178703 -0.04165827 0.012768552 0.0153133385 -0.04788831 0.0015498381 0.036879033 -0.027727658 -0.025787465 0.042333905 -0.020455502 0.010441581 0.04342947 -0.014343191 0.022181168 0.012208949 0.010148541 0.020209568 -0.0145821255 -0.03549796 -0.026215501 0.0081625115 -0.045302376 0.010432834 -0.028114954 -0.040017053 0.012089261 0.048277352 -0.018114427 -0.034823496 0.037721988 -0.002438123 -0.033592667 0.04681944 -0.024567189 -0.037875984 -0.03061591 -0.020124769 -0.030821618
court 0.035973396 -0.03315119 0.015700966 -0.00072146667 0.017240603 0.01643031 0.007913807 0.008264387 -0.03683577 -0.012040474 0.038780313 0.030705571 0.030802075 -0.047650386 -0.024738131 -0.019674044 -0.04981165 0.0069815572 0.024064688 0.01375214 -0.02836202 -0.015312604 -0.026780749 0.004774242 -0.045150574 -0.02903448 -0.026550584 -0.026536986 0.047061503 0.03489324 -0.029369289 -0.041652218 -0.028362708 -0.0055841906 -0.042937465 -0.043749105 -0.019621793 0.015837334 -0.036503803 -0.0065931533 -0.031390928 0.049743876 -0.010727308 0.027819773 -0.010416605 0.012852751 0.01200118 0.027955394 0.025769994 -0.036295723 -0.014766599 -0.01042868 0.038785715 0.04770964 0.02006525 -0.044841077 0.047199383 -0.012353588 0.0084697055 -0.007749572 0.0030064802 -0.040841974 -0.032057796 0.0029777952 0.029115979 -0.048882283 -0.006028739 9.179022e-05 -0.008373991 -0.03421631 0.041303102 -0.0049522733 0.048314832 -0.032332297 0.021169038 -0.032029044 0.03329888 0.006092849 0.02927741 -0.029889004 -0.031587012 -0.010819308 0.015377276 -0.040772207 -0.023725465 0.00033499754 -0.026812177 -0.040638864 0.014947167 -0.02307162 0.03550042 0.028227318 -0.0443792 0.035172466 0.03584645 -0.027271293 0.03366373 0.044611927 -0.0002976139 -0.031318877 0.011955517 -0.012746736 0.021008953 -0.03841172 -0.04532201 0.0479656 -0.047939457 0.022340558 -0.0136898095 0.026390102 -0.006038107 0.040216394 0.021250632 0.028067786 -0.019351395 0.006652812 -0.031247485 0.045577772 0.019038055 0.029971816 0.023439545 -0.0184298 0.008480882 0.014512005 0.044549514 -0.0072336746 0.008532476 -0.0328804
billion -0.037851565 0.03906572 0.03965479 0.037008885 0.0064240834 0.01440645 0.019942671 0.018935565 -0.039251424 0.030772544 -0.027408665 0.047794618 0.03034797 -0.044070367 -0.01320807 0.018824335 0.025878249 -0.042874984 0.013690595 0.044782065 0.007014051 -0.04811855 -0.0105198985 -0.027968979 -0.017390715 -0.036912438 -0.041632775 -0.006783881 0.049210545 0.029400017 0.0052857515 0.026647083 0.041185834 0.025881274 0.045495633 0.006223593 -0.012897742 0.013811644 0.044367097 0.05129038 0.0015288333 0.036004446 -0.040796995 -0.012654728 -0.043782588 0.03890301 0.020428332 0.0032157379 -0.034981593 0.026918855 -0.047789503 -0.037448965 0.028240807 0.007993119 0.04881072 -0.012926876 -0.023021143 -0.02312492 0.023969542 0.022177614 -0.024227487 0.026341332 -0.043092463 -0.003450125 0.013900485 -0.028165642 -0.019253014 -0.040915325 0.01977409 -0.029436342 -0.028496835 0.01525273 -0.01709011 -0.05277404 0.01633299 -0.034340937 0.036778964 -0.013594635 -0.03179 0.02991126 -0.038465448 -0.02040865 -0.039509725 -0.015111456 -0.036686078 0.027722787 -0.042367633 0.04828248 0.017719297 0.043867175 0.023487512 -0.048060317 -0.026740808 -0.014259209 0.014904153 0.030472167 0.022182778 0.01363003 -0.029395387 0.047384758 -0.04863343 0.013308837 -0.03426115 -0.027144913 -0.039095618 0.0073298994 -0.024516232 -0.048422888 -0.050598994 -0.0486067 -0.042870823 -0.038297035 0.040679682 0.0014934416 -0.03037647 0.024165887 0.046722278 0.02231473 0.03439052 -0.011541466 -0.041002538 0.0012658432 -0.011844378 -0.031980246 -0.020986572 0.0074710012 0.04056444 -0.038926385
also -0.0038372925 -0.011406006 0.018103873 0.011618732 0.039186336 0.034674376 0.039951093 0.016734822 0.017852232 0.044011742 -0.044736236 -0.022542734 -0.0039035194 -0.0003121352 -0.008767441 0.0066991514 -0.017322093 -0.028351717 -0.020423427 0.011423544 0.04358219 -0.009242462 0.046524223 -0.043680053 0.00869636 -0.020256415 -0.03208983 -0.009846983 -0.04373734 -0.022517782 0.030208187 -0.010031125 -0.031912632 0.040583845 0.0020016895 0.030687073 -0.0074890414 -0.0068861656 0.026128635 -0.032137033 -0.039899703 0.020228762 0.03479717 0.018114455 0.03215186 0.025497258 -0.038510606 -0.022744266 0.013957399 -0.040476393 -0.03562051 0.023257585 -0.011865123 -0.045030814 -0.008154229 -0.0016184846 -0.018481405 0.0064646904 -0.024186231 -0.025100138 -0.010854585 0.005973978 -0.0309953 0.007961545 0.002868462 0.016117431 -0.032473978 -0.034434818 -0.03899666 -0.02395884 -0.020097036 -0.023819583 0.015212077 0.012714469 -0.00048271992 -0.02100712 -0.03253779 0.011398358 -0.009320641 0.022018138 -0.045927055 -0.005825574 0.0091595985 -0.039473437 -0.029666642 -0.004774246 -0.053574394 0.021946432 0.046313353 -0.04815882 -0.024582053 -0.04809848 -0.046743404 -0.0040853415 0.015164771 -0.0106844455 -0.01978862 0.031424623 -0.04424177 -0.01879217 -0.029880557 0.024419703 -0.030186163 -0.03423644 0.032385055 0.0286788 0.0046948236 0.028654702 -0.048931632 0.020804876 -0.038165156 -0.01906147 0.03473723 -0.0014264733 -0.02083531 0.017293014 -0.01709239 0.015083032 -0.01714782 -0.01128124 -0.043550573 0.011434574 0.02280952 -0.037919853 0.042072512 -0.047977336 -0.0076588476 0.016053805
development 0.007848839 -0.044162523 0.02324875 -0.010870136 0.008146177 -0.0019179259 -0.027604504 -0.051808 -0.030330783 0.03418986 -0.024039792 0.041455697 0.026345799 -0.009066467 0.0026692266 0.009214928 -0.0025791563 0.004137018 0.004998401 0.010172467 0.017408721 -0.047065128 -0.043908317 -0.004879775 -0.028203359 -0.039625514 0.011169453 0.0057709706 0.04473528 -0.01170673 0.016131062 0.031938612 0.03786534 0.023641884 0.02748024 0.033667065 0.025354577 -0.021700133 -0.051942967 -0.021690741 0.022793956 0.03889123 -0.011838541 0.025843011 0.025160361 0.02192083 -0.04067578 0.032869462 0.0034791278 0.0067215804 0.024789345 0.04275416 -0.023761543 -0.04445879 -0.02164982 0.027626304 -0.053521056 -0.004136969 -0.04666936 -0.051709887 -0.027946211 -0.033742283 0.01907403 -0.050502244 -0.02375558 -0.040905666 -0.05328398 0.051526118 0.005867965 0.010078641 0.025046417 0.03514049 0.056404237 0.010618631 -0.027752548 0.03540406 -0.0013949883 0.0043281214 -0.0009851557 0.029714873 -0.017267393 0.0036191766 0.039125774 -0.033076346 0.016826423 0.0029808013 0.043785557 0.0010540166 -0.023645313 0.0039910628 0.036680695 -0.015826283 -0.0005816601 0.04553546 -0.036161244 0.022182917 -0.045123808 -0.033100802 -0.040410712 0.003022012 0.0067796293 -0.025297476 -0.016989116 0.0429939 -0.02083519 0.02434119 -0.015466245 -0.020375378 -0.030234126 0.031902418 0.019671388 -0.0015243639 0.017293325 -0.011743121 -0.013022 -0.044070132 0.024799382 0.03666313 0.0034857416 -0.0387226 0.0397285 -0.031508762 0.048939295 0.005673453 0.025246108 0.0018229594 0.02870778 0.018184094
compared 0.02722411 -0.037868842 0.035717085 0.01668432 -0.0115878545 -0.015965087 -0.027756765 -0.024216907 -0.046430733 0.008678933 0.021045886 0.023810755 -0.0021895587 0.018464146 -0.037761476 0.020310162 -0.0049332855 -0.025398586 -0.04384362 0.040628593 -0.01953662 0.025048664 -0.031240838 -0.012456999 -0.011246054 0.016624201 -0.028782625 -0.02367676 0.012168142 0.0034709405 -0.006579624 0.01110813 0.025120355 -0.004009369 -0.023487158 0.0046304185 -0.00039269123 -0.039883263 -0.0043677804 0.03425377 -0.02945627 0.034789447 0.0076194126 -0.02111596 -0.0483677 0.046031006 0.04149781 0.018150257 -0.002703601 0.027547287 -0.04115548 0.02601295 -0.0036890896 -0.006021306 0.027700694 0.033387944 0.045498367 0.0026332694 -0.038868174 0.013788442 -0.042462595 -0.026643952 0.014174951 -0.015563411 0.044064313 0.03260364 -0.013566625 -0.035831816 0.00061238895 -0.020990647 -0.017395232 0.0008276077 -0.032751527 -0.006536305 -0.0453437 -0.012579867 -0.03571052 0.020124221 0.053072907 -0.04255418 -0.016450081 0.029348992 -0.03764185 0.038029097 0.044061873 -0.054329477 -0.021038596 -0.018019803 -0.024336396 0.008644663 -0.008582084 -0.029692695 -0.048808895 -0.026490463 0.013977205 -0.03746083 -0.04415294 -0.018620776 0.030543666 0.007627009 0.04755644 0.002362912 -0.03918475 -0.031413935 0.022526326 -0.022298604 0.03643784 -0.052397914 -0.02607215 -0.0032533645 -0.011397177 0.003512484 0.032358583 -0.0095612705 0.011137392 0.012608844 0.028395588 0.047688153 -0.022589633 -0.01863758 -0.006169683 1.9077386e-05 -0.036512446 -0.011164554 -0.010501685 -0.012667974 0.009436077 0.042432066
13 -0.02311553 0.010568242 0.044352397 -0.025506405 -0.05336689 -0.030683298 0.0003736583 0.04330728 0.014191793 -0.04218266 0.008344189 -0.004408298 -0.026160687 -0.033641957 -0.038774833 0.010756372 -0.0189629 -0.026182063 -0.02700464 0.032731302 -0.00622167 -0.020575155 -0.012149929 0.04113653 0.020940399 0.028195616 -0.04407847 -0.028152565 0.010157575 0.02383298 0.015181144 -0.048908547 -0.025262106 0.034520034 0.0065933987 -1.2770761e-07 0.041519377 -0.04437616 0.01628377 0.005099387 -0.04509808 -0.022930073 0.023418024 0.03578523 0.033724472 0.041766495 -0.007700559 0.021603614 0.020744056 -0.009392569 -0.016679967 0.02716594 -0.0062392247 -0.0046828706 0.033484906 -0.0051736087 -0.051301885 0.032077983 -0.02974174 0.013665272 0.048020523 -0.020740492 -0.029950034 -0.029044101 0.02677763 -0.019928586 -0.021913188 0.036370754 -0.006945597 0.013721945 0.036106776 0.014541302 0.04252973 0.032248303 0.042390402 -0.0057971776 0.0032313773 -0.05045756 -0.028205352 0.015626188 0.0038334015 -0.03293772 0.012727893 0.021058373 0.018801099 -0.010140217 -0.048912175 -0.023825165 -0.035349958 -0.035650644 -0.013650493 0.007622821 0.039172444 0.004198403 0.04298186 -0.022172397 -0.020784533 -0.0030163121 0.025541648 -0.03531001 0.053496763 -0.01870669 0.032806568 0.03304831 0.030323355 -0.0025561173 0.008679224 0.005837743 -0.023328854 -0.0049075214 0.03284915 0.04138108 -0.04021384 0.040636495 -0.0104122 -0.043223158 0.016529787 0.05019778 -0.014146206 -0.03601545 0.009463662 -0.015741725 0.051792126 -0.04728039 -0.015043601 0.040753864 -0.031225642 0.038449332
